#ifndef DENSE2_LAYER_H
#define DENSE2_LAYER_H

#define IN_D2   64
#define OUT_D2  43

#include "dense_layer2.h"

static const float D2_W[OUT_D2][IN_D2] =
{
  { 9.08428803e-02f, 2.00189799e-01f, 2.84921974e-01f, 2.09549889e-01f, -9.70762980e-04f, -1.20406136e-01f, -1.77973494e-01f, -3.29406150e-02f, 6.78131282e-02f, 1.47595778e-01f, -1.62438095e-01f, -6.06109016e-02f, 1.02682739e-01f, -1.17519140e-01f, -2.24464431e-01f, -1.93906322e-01f, -1.24993414e-01f, 1.63208589e-01f, -1.88622206e-01f, -1.52448058e-01f, -2.18077004e-01f, -4.40133095e-01f, 1.40996173e-01f, 1.50863439e-01f, 9.89338830e-02f, -2.10099965e-01f, -1.67863056e-01f, 1.93175942e-01f, -1.19045675e-02f, -1.10976167e-01f, -2.70152390e-02f, 3.05988044e-01f, -1.10010527e-01f, 2.17479751e-01f, 1.91331521e-01f, 9.67741236e-02f, -3.41953188e-01f, -1.16925815e-03f, -1.08380720e-01f, -3.60761940e-01f, -4.98678267e-01f, 4.93166186e-02f, -2.72227019e-01f, -2.66147465e-01f, -2.66668648e-02f, 1.90561056e-01f, -3.34585816e-01f, -8.57156739e-02f, 1.02979794e-01f, 1.37621671e-01f, 2.13317692e-01f, 1.11564800e-01f, 5.02981171e-02f, -1.25477016e-01f, 4.11186144e-02f, -4.73546796e-02f, 7.90243298e-02f, -1.02442950e-01f, -8.34637880e-02f, 1.57358095e-01f, 1.02408424e-01f, -1.70182422e-01f, -3.84327210e-02f, -1.67478487e-01f },
  { -2.29677074e-02f, 1.32576123e-01f, 1.83989942e-01f, 1.75949380e-01f, 9.56351832e-02f, -8.37250501e-02f, 9.95327309e-02f, 2.00421792e-02f, -3.05373788e-01f, -1.00554809e-01f, 1.13416523e-01f, -9.70831811e-02f, 1.82538301e-01f, 7.97125772e-02f, -1.64276078e-01f, -1.65447265e-01f, -8.83576721e-02f, -9.45210978e-02f, -4.20423783e-02f, -3.70859236e-01f, 1.30395606e-01f, -2.35994965e-01f, 1.74631417e-01f, 2.31664702e-01f, 1.27624497e-01f, -3.45385857e-02f, -7.82900974e-02f, 2.53502168e-02f, 2.43056864e-01f, 3.84145021e-03f, 1.37177125e-01f, -1.21062286e-01f, -4.45135869e-02f, 1.67328380e-02f, 3.75460237e-02f, 1.88968569e-01f, -1.47604436e-01f, 1.09513529e-01f, -5.55862859e-02f, -3.11973602e-01f, -2.47164771e-01f, 2.70533770e-01f, -3.78060579e-01f, -4.87339906e-02f, 1.19739003e-01f, 4.29331549e-02f, -3.47497106e-01f, -1.01029582e-01f, -4.19272110e-02f, -1.34110332e-01f, 1.14399446e-02f, -7.53997415e-02f, 1.26105085e-01f, -5.37144020e-02f, -1.33388653e-01f, -2.56649435e-01f, -1.34579316e-01f, 1.76337138e-01f, 2.13046983e-01f, -5.67643978e-02f, 1.75702255e-02f, -3.39746356e-01f, 9.47225988e-02f, -6.62943302e-03f },
  { 7.65443221e-02f, 1.82544425e-01f, 3.52296755e-02f, -1.87486727e-02f, 1.85857505e-01f, -6.41382784e-02f, 1.38201967e-01f, -2.37719212e-02f, -2.11309418e-01f, 1.13850802e-01f, 5.05200773e-02f, -2.53665954e-01f, 2.34876290e-01f, 1.80776641e-01f, 1.50829563e-02f, -3.58070666e-03f, 8.14801380e-02f, -2.10109994e-01f, 5.89244589e-02f, -1.06329583e-01f, 4.79185469e-02f, -3.61272037e-01f, 1.23742826e-01f, 6.17403947e-02f, 1.79296136e-01f, 2.06266195e-01f, -5.11391200e-02f, 1.02329478e-02f, 9.03742388e-02f, -2.15125844e-01f, 1.10094994e-01f, -3.54007214e-01f, -1.74081638e-01f, -2.72364784e-02f, -2.80801076e-02f, -2.00720295e-01f, 2.77121335e-01f, -7.19486549e-02f, -2.12957889e-01f, -1.99970696e-02f, -1.68774351e-01f, -3.45880948e-02f, 3.18810605e-02f, -1.27335176e-01f, -4.66598839e-01f, -5.20402864e-02f, -3.32089275e-01f, -4.51977812e-02f, -2.30136290e-01f, -3.44895422e-01f, -9.15904641e-02f, -7.59211602e-03f, -1.77681983e-01f, -5.59244268e-02f, 1.98064968e-01f, -3.50763768e-01f, 1.72582746e-01f, -5.66466488e-02f, 1.15869738e-01f, 1.84647024e-01f, -2.71259785e-01f, 2.48625562e-01f, 3.08939397e-01f, 1.00678869e-01f },
  { 3.11534163e-02f, 7.47044608e-02f, -2.49447197e-01f, -1.10989816e-01f, 4.83525284e-02f, 8.54837894e-03f, 1.16306834e-01f, 6.72043413e-02f, 1.84910923e-01f, -5.55669665e-02f, -2.75832843e-02f, -1.14602000e-01f, -1.50723204e-01f, 2.18052492e-02f, 2.59413689e-01f, 6.46203384e-02f, -7.19671324e-02f, 3.12885493e-02f, -1.33053467e-01f, -3.88284810e-02f, -7.05293845e-03f, -1.80521086e-01f, 3.39357942e-01f, -2.14884192e-01f, 4.73556556e-02f, 2.67836284e-02f, 2.17458725e-01f, -8.78397673e-02f, -2.70446658e-01f, 8.67669955e-02f, 8.34648088e-02f, -1.83664769e-01f, -4.76001084e-01f, 1.88134581e-01f, 9.28925946e-02f, -4.67606068e-01f, 3.73345613e-01f, 1.79618359e-01f, 1.58991218e-02f, 1.98301733e-01f, -1.76656887e-01f, 3.27818692e-01f, 2.83375680e-01f, 8.82068127e-02f, -1.25963569e-01f, 2.23433152e-02f, -3.14592540e-01f, -8.55500251e-02f, 2.32024729e-01f, -1.46906137e-01f, 2.23193452e-01f, -1.83122829e-01f, -1.53998062e-01f, 1.55178905e-02f, 8.25330988e-02f, -2.22559184e-01f, -1.47998422e-01f, 1.03195526e-01f, 1.59240495e-02f, -1.97171107e-01f, -4.16404873e-01f, -3.21535110e-01f, -3.32240433e-01f, 1.50738508e-01f },
  { -1.40066132e-01f, -1.26981810e-01f, 3.75560969e-01f, 2.53967077e-01f, 1.42717659e-01f, -7.02009499e-02f, -9.93002355e-02f, -1.41537506e-02f, 2.36174725e-02f, 3.43212560e-02f, -5.17563410e-02f, -3.70077282e-01f, 1.19541951e-01f, -2.92170733e-01f, -5.40747046e-01f, -7.79580101e-02f, -8.54535699e-02f, -3.04703832e-01f, 4.02009822e-02f, 1.15574703e-01f, -1.86432570e-01f, -1.36568457e-01f, -1.50464654e-01f, -3.84085439e-02f, -1.11193776e-01f, -2.17918679e-02f, 2.56980121e-01f, 2.46104151e-02f, 2.11564675e-01f, -8.56861565e-03f, 2.87582934e-01f, 1.28416523e-01f, 1.15302056e-01f, 2.82849729e-01f, 1.60611421e-01f, -3.45783859e-01f, -1.58804923e-01f, -9.65907872e-02f, 5.61370738e-02f, -4.33127075e-01f, 2.51632631e-01f, -1.27251253e-01f, -2.23843992e-01f, -1.57135203e-01f, -3.92653227e-01f, -1.52437165e-01f, -2.06733584e-01f, 5.86839132e-02f, 1.86446290e-02f, -1.28092870e-01f, -7.17710797e-03f, 6.41755387e-02f, -3.03020771e-03f, -1.12367399e-01f, -1.58267602e-01f, -3.52178700e-02f, -8.00783485e-02f, -1.64856002e-01f, -1.75174370e-01f, -9.30854864e-03f, -1.98839158e-01f, -8.03765655e-02f, 2.57292986e-01f, -2.32548505e-01f },
  { -2.52259940e-01f, -5.20295650e-02f, -4.63959165e-02f, 1.59409598e-01f, 1.88380286e-01f, -1.18452817e-01f, -2.03300595e-01f, -7.86540136e-02f, 1.55401275e-01f, 1.00396767e-01f, -1.42504245e-01f, -2.74577081e-01f, 1.17022835e-01f, -1.42812565e-01f, -3.16137761e-01f, -7.63773918e-02f, -8.99255425e-02f, -2.64014214e-01f, 1.39079645e-01f, -2.21807007e-02f, 2.70123184e-01f, -4.03156541e-02f, 7.08439499e-02f, -8.30430835e-02f, 1.78794309e-01f, 1.57903045e-01f, -2.53481716e-01f, 3.88553329e-02f, -2.76546180e-01f, 2.52806336e-01f, 1.04016729e-01f, -1.87645793e-01f, -1.31595433e-01f, 1.55604035e-01f, 1.01375304e-01f, 9.83668566e-02f, 1.38895050e-01f, 8.07105005e-02f, -7.35110119e-02f, 1.86281532e-01f, 1.53502837e-01f, 2.70339698e-01f, 2.56087840e-01f, -2.13117272e-01f, -3.80350500e-01f, -5.58243059e-02f, 1.28499925e-01f, 5.75457104e-02f, 9.01688188e-02f, -9.87606794e-02f, 8.48230049e-02f, -2.00613644e-02f, 8.55340958e-02f, -1.92844406e-01f, -1.24131277e-01f, -7.98351765e-02f, 1.76553115e-01f, -1.71291512e-02f, -1.64015889e-01f, -2.82071601e-03f, -1.46976277e-01f, -2.11389869e-01f, -8.03902522e-02f, -1.32255912e-01f },
  { -1.70467690e-01f, 1.87723398e-01f, -2.69603372e-01f, -4.88463156e-02f, -2.13659465e-01f, 1.51243642e-01f, -5.75436056e-01f, -3.52716334e-02f, 5.08654751e-02f, -6.15740530e-02f, -2.14135945e-01f, -4.42879088e-02f, 5.99568337e-02f, 2.87064612e-01f, -2.78379709e-01f, -3.11531574e-02f, -1.03623867e-01f, -8.90431106e-02f, -2.16480598e-01f, -5.84973544e-02f, 2.02963024e-01f, 1.78842753e-01f, 2.95546919e-01f, -1.51308412e-02f, -7.42807463e-02f, -4.14995164e-01f, 1.09539360e-01f, 1.94283783e-01f, -5.10288656e-01f, -4.91815098e-02f, 1.74401745e-01f, 1.36818707e-01f, -6.83908090e-02f, 2.11047456e-01f, 1.55439898e-01f, -1.84619009e-01f, -2.89866090e-01f, -1.79644033e-01f, -4.55894135e-02f, -2.89124131e-01f, 1.47039428e-01f, 8.85351598e-02f, -3.56770091e-04f, 7.38288909e-02f, 2.59973016e-02f, -1.09036945e-01f, -3.01822841e-01f, -1.76811844e-01f, 2.08983019e-01f, 2.25358410e-03f, 2.02388992e-03f, -1.73667669e-01f, -1.13415101e-03f, -1.32083490e-01f, -8.04046988e-02f, 3.68444584e-02f, -1.06987365e-01f, 1.42048821e-01f, -1.76986486e-01f, 6.12216964e-02f, 9.63716879e-02f, -4.96624172e-01f, -4.04913962e-01f, 2.59013567e-02f },
  { 3.11702508e-02f, 1.88607454e-01f, -8.65653753e-02f, 1.94496617e-01f, -1.70490101e-01f, 2.02731848e-01f, 3.74579877e-02f, 1.85939074e-01f, 1.29526481e-01f, -9.75273624e-02f, 8.24853629e-02f, -5.06829619e-01f, 2.46976197e-01f, -2.81559974e-01f, 1.47541568e-01f, -1.89903378e-01f, -9.46513340e-02f, 1.18908897e-01f, 6.50551692e-02f, -1.57679990e-01f, -1.58800915e-01f, 1.02517650e-01f, -2.78323842e-03f, 6.86818454e-03f, 1.07076220e-01f, 1.61294743e-01f, -1.97956860e-01f, -1.02284513e-01f, -4.72364157e-01f, -9.00377482e-02f, 7.37660378e-02f, 6.31505772e-02f, 3.11623037e-01f, 1.74983844e-01f, -1.33521929e-01f, 2.15704665e-02f, 1.59599766e-01f, 3.05758808e-02f, -1.85255650e-02f, -8.07374492e-02f, -1.41850173e-01f, 1.18961640e-01f, -4.37939197e-01f, -1.62830010e-01f, -6.17845319e-02f, 2.38259181e-01f, -4.58894223e-01f, 1.18916202e-02f, 5.70074022e-02f, -3.43151450e-01f, -2.09209278e-01f, 1.59145132e-01f, 1.28284484e-01f, 1.75698638e-01f, -1.06436536e-02f, 1.44314229e-01f, 1.13331944e-01f, -3.74758020e-02f, -3.85664753e-03f, -6.90310001e-02f, 1.59679264e-01f, 2.30248034e-01f, 1.33635879e-01f, -4.91282344e-03f },
  { -4.04875278e-02f, 2.45314375e-01f, 2.70477504e-01f, 1.49560392e-01f, 6.92939237e-02f, -3.32424440e-03f, -1.99486360e-01f, -1.25091551e-02f, 1.07001908e-01f, 1.61475271e-01f, 1.39732763e-01f, -3.51144791e-01f, 2.31574625e-01f, -7.70848468e-02f, -3.75042111e-02f, -6.21131398e-02f, 4.71003503e-02f, -9.25149098e-02f, -1.70088172e-01f, 2.89053738e-01f, -1.52131617e-01f, -5.70353985e-01f, -1.75301626e-01f, 2.51120955e-01f, -4.73416477e-01f, 1.33739586e-03f, 1.81372061e-01f, 1.27349660e-01f, -3.30793649e-01f, 2.49138772e-01f, -1.61344036e-01f, 3.14591974e-01f, -1.01870447e-01f, 4.69788983e-02f, -1.06984325e-01f, 2.07363203e-01f, 3.82010072e-01f, 5.76039366e-02f, 2.01563537e-01f, -3.04991186e-01f, -1.45819888e-01f, 1.58006206e-01f, -6.99489415e-02f, 4.62886877e-02f, 1.13124482e-01f, 2.40326762e-01f, -3.14968117e-02f, -2.79627621e-01f, 1.71581954e-01f, -8.43626559e-02f, 1.76419497e-01f, 2.47804318e-02f, 1.27016410e-01f, -1.55812740e-01f, -6.15797080e-02f, -1.19684093e-01f, 3.20602730e-02f, -1.71241358e-01f, 1.76330924e-01f, 4.97661568e-02f, 1.69113770e-01f, 9.02768746e-02f, -1.00844458e-01f, 7.08580166e-02f },
  { -3.84446420e-02f, -1.67141363e-01f, 1.69446357e-02f, 3.91970351e-02f, 4.86668246e-03f, 1.43100768e-01f, -7.89800659e-02f, -3.01910676e-02f, -3.77207428e-01f, -2.28452161e-01f, 7.22004892e-03f, 2.59226739e-01f, -1.89919427e-01f, -3.19212675e-01f, 2.70652115e-01f, -7.93483928e-02f, -1.43445820e-01f, -1.92347273e-01f, 1.16598554e-01f, -2.09926087e-02f, -1.57443196e-01f, -2.94403322e-02f, -7.64015839e-02f, 1.28947437e-01f, 5.36606200e-02f, 1.96602210e-01f, -1.66680574e-01f, 1.31527092e-02f, -8.37472379e-02f, 4.02850062e-02f, -4.70028788e-01f, -1.80820420e-01f, 2.32834786e-01f, 1.26842871e-01f, -3.87123786e-02f, -1.52212068e-01f, 1.83704138e-01f, 2.33234376e-01f, 2.12364927e-01f, 2.24843454e-02f, 2.37537444e-01f, -1.43245399e-01f, 5.39298430e-02f, 1.70088708e-01f, -1.34568959e-01f, -8.77050608e-02f, -3.69952351e-01f, 2.77506828e-01f, 2.16528207e-01f, -5.44972494e-02f, -1.27847150e-01f, -1.38735697e-01f, 1.09841013e-02f, -1.66479230e-01f, -2.12420061e-01f, -1.74619734e-01f, -9.79437679e-02f, 1.01976290e-01f, 1.53846532e-01f, -1.45630553e-01f, 1.47852734e-01f, 4.30473536e-02f, -2.31106296e-01f, 3.80597264e-01f },
  { -7.80035481e-02f, -2.88628563e-02f, -1.89486116e-01f, 2.75166571e-01f, 8.93117934e-02f, -6.89762831e-02f, 6.91104308e-02f, 1.17943436e-01f, -3.28792244e-01f, 3.64184491e-02f, 7.79898018e-02f, -2.03576982e-01f, 1.94843560e-02f, -1.79482587e-02f, 1.68337762e-01f, 9.06041637e-02f, 1.27126232e-01f, -2.57729113e-01f, -3.80532369e-02f, 2.81904399e-01f, -5.78724593e-02f, 1.79725289e-01f, -1.93056807e-01f, -3.83114785e-01f, -2.50360727e-01f, 2.50983506e-01f, -5.78653693e-01f, -6.33337572e-02f, -3.05884898e-01f, 7.79811433e-03f, -4.47863191e-01f, -1.33179829e-01f, -3.69781435e-01f, -1.57872841e-01f, -3.17003094e-02f, -1.36363700e-01f, -1.39894694e-01f, -2.84172565e-01f, 1.08053222e-01f, 2.37535179e-01f, 2.14847058e-01f, 1.57517940e-01f, 1.79678023e-01f, 1.40433293e-02f, -2.26073235e-01f, 1.76812962e-01f, -2.45017380e-01f, 3.56438398e-01f, -1.55427665e-01f, -1.32747546e-01f, -1.98303834e-01f, -2.73163840e-02f, -9.98301581e-02f, 1.75688177e-01f, -1.56787336e-01f, 2.65431851e-01f, -1.77465662e-01f, -1.40927974e-02f, -2.79009268e-02f, 1.45712301e-01f, 5.26544787e-02f, -8.06293860e-02f, 1.55217573e-01f, -8.35906193e-02f },
  { 2.14997560e-01f, 6.63647726e-02f, -2.43183807e-01f, -1.56815559e-01f, -1.82091549e-01f, -2.24244252e-01f, 2.06725970e-01f, -1.58458784e-01f, 1.64084882e-01f, 2.28641003e-01f, -1.11026019e-01f, 1.73770227e-02f, 1.00189783e-01f, 1.26111999e-01f, -2.35944558e-02f, -1.29866183e-01f, -1.74637645e-01f, 1.57426074e-01f, 4.36770283e-02f, -2.15562180e-01f, 1.10629760e-01f, -1.94478080e-01f, -3.60349745e-01f, 2.92477131e-01f, 1.01040579e-01f, 7.08448216e-02f, -1.10503742e-02f, -2.20121771e-01f, 6.55421987e-02f, -2.00431179e-02f, 1.83092505e-01f, -2.74239570e-01f, -1.16780266e-01f, -2.03279108e-01f, -1.92732915e-01f, -9.49552059e-02f, 1.21785797e-01f, -1.93586573e-01f, 1.70519039e-01f, -7.87033215e-02f, 1.31964639e-01f, -1.26761258e-01f, 9.15196389e-02f, 1.92166686e-01f, 2.06432700e-01f, 9.25548971e-02f, -3.42036068e-01f, -1.01417758e-01f, -4.66551483e-02f, 4.18644190e-01f, 1.23610519e-01f, -1.24904238e-01f, 2.61769127e-02f, 2.59212554e-01f, 9.60376561e-02f, 1.80147752e-01f, 5.06828092e-02f, 1.71072364e-01f, -1.59260288e-01f, 1.09678648e-01f, 9.49076042e-02f, 1.61071181e-01f, -1.86399713e-01f, -2.81239599e-01f },
  { 1.74649343e-01f, 1.07122563e-01f, -1.65845856e-01f, 1.37644559e-01f, 3.00901324e-01f, 6.85531646e-02f, -2.48433247e-01f, -1.89204603e-01f, -1.33378759e-01f, 1.85064092e-01f, 4.79811467e-02f, 1.10061139e-01f, 1.20600862e-02f, -1.59407273e-01f, 3.17164719e-01f, -2.64728129e-01f, 1.90347105e-01f, 4.89139520e-02f, 1.47742972e-01f, 2.20031857e-01f, 3.84567499e-01f, -1.21435307e-01f, 2.43966524e-02f, -1.70637257e-02f, -4.66140807e-02f, -4.60136056e-01f, -2.97443449e-01f, -1.98473692e-01f, -2.92871520e-02f, -1.70563012e-01f, -1.62568092e-01f, -1.83076680e-01f, -9.41338986e-02f, -5.09107769e-01f, -1.94970682e-01f, 3.59713584e-02f, -4.00625676e-01f, 6.81087375e-02f, -1.67198151e-01f, -4.28869069e-01f, 3.95162761e-01f, -1.74233451e-01f, -2.32581422e-01f, 5.24803847e-02f, 2.12442249e-01f, -2.00534388e-01f, -1.07280225e-01f, -2.53010213e-01f, -6.99182376e-02f, 5.65717667e-02f, -7.57046789e-02f, -1.04196770e-02f, -3.32052186e-02f, -1.47156864e-01f, 1.38156414e-01f, 2.65776753e-01f, 1.21550625e-02f, -6.62039518e-02f, 5.59794568e-02f, 9.88250319e-03f, -3.02101284e-01f, -7.85905942e-02f, 2.03183994e-01f, -6.74030036e-02f },
  { 1.03158373e-02f, -1.40112072e-01f, -4.74587176e-03f, 3.02573681e-01f, 7.13937879e-02f, -1.95170879e-01f, -2.30543390e-01f, 5.50867766e-02f, 1.89048111e-01f, -1.15685605e-01f, 1.86457857e-01f, 3.34174931e-01f, -9.89800245e-02f, -1.20478690e-01f, -9.95796099e-02f, 1.59994274e-01f, -1.08429091e-02f, -2.10920215e-01f, -5.79848588e-02f, -4.88072298e-02f, 3.38227987e-01f, -2.96265453e-01f, -1.45589575e-01f, 1.17795862e-01f, 1.26356646e-01f, 4.34734784e-02f, 4.09268469e-01f, 1.81845009e-01f, -1.39677331e-01f, -1.10331737e-01f, -3.42232704e-01f, -1.70048311e-01f, -2.76858751e-02f, 1.01875953e-01f, 2.71920040e-02f, -2.24074926e-02f, -1.96951881e-01f, -3.16031665e-01f, -1.39884427e-01f, -1.91909764e-02f, -2.87711024e-01f, -4.21786726e-01f, -1.70182511e-01f, 2.09513500e-01f, 1.14092730e-01f, -9.68420655e-02f, -4.35739234e-02f, 2.00916752e-01f, -7.27806911e-02f, -5.23036659e-01f, -1.77712321e-01f, 1.17543593e-01f, -2.23833382e-01f, 2.65749317e-04f, 5.97834180e-04f, 9.61584002e-02f, -2.15011477e-01f, 1.25293240e-01f, -5.83707131e-02f, -4.30591553e-01f, 1.99782208e-01f, 2.90302206e-02f, 2.94174533e-02f, 2.89649248e-01f },
  { -8.38960856e-02f, 6.50144741e-02f, -1.22714840e-01f, 2.85567254e-01f, 2.28298515e-01f, -2.25074112e-01f, 2.03494191e-01f, -9.39184874e-02f, 1.61544546e-01f, 1.03335977e-01f, -9.05029569e-03f, -5.57588749e-02f, -4.47375886e-03f, -5.62950298e-02f, 1.10403158e-01f, -2.46572480e-01f, 4.63614091e-02f, -8.81410167e-02f, -2.09663957e-01f, -1.91278368e-01f, 1.08660914e-01f, -3.91502500e-01f, -4.40587699e-02f, -2.67355978e-01f, -8.43153968e-02f, -2.14390695e-01f, -2.90953249e-01f, -1.17452621e-01f, 1.65847793e-01f, 5.98018989e-03f, -1.94353104e-01f, 3.58268976e-01f, 1.30059630e-01f, -1.96242422e-01f, -1.23204164e-01f, -2.18863294e-01f, -1.62669942e-01f, 6.96670860e-02f, -2.02148467e-01f, 2.38434017e-01f, 1.21592224e-01f, -1.84225783e-01f, 3.99393179e-02f, 3.49119753e-02f, -1.72985151e-01f, -8.54937658e-02f, -1.89140573e-01f, -6.04771893e-04f, -9.22225602e-03f, 3.24663252e-01f, -1.93495661e-01f, 8.74015093e-02f, -2.36713544e-01f, 1.84966132e-01f, -1.53518304e-01f, -1.52573753e-02f, 6.68499619e-03f, -7.79490769e-02f, 1.74675211e-02f, -4.80282962e-01f, -1.03352822e-01f, -2.81377554e-01f, -8.69620126e-03f, -3.83143947e-02f },
  { 1.99442923e-01f, -1.38279796e-01f, 3.15167427e-01f, -1.08357243e-01f, 1.36279957e-02f, 1.57867581e-01f, -9.39731821e-02f, -2.18760163e-01f, -2.96041280e-01f, -5.14032245e-02f, -1.49194524e-01f, 1.45801395e-01f, 2.50864059e-01f, -5.65495729e-01f, -8.27992335e-02f, -2.12888997e-02f, -1.45765439e-01f, -9.20453221e-02f, -1.11238003e-01f, 7.32580572e-02f, -3.38129699e-02f, -2.07973897e-01f, -9.20336545e-02f, 1.48977637e-01f, 2.63132572e-01f, 1.60790712e-01f, -1.26543343e-01f, 1.69866025e-01f, 1.49725348e-01f, -1.64946213e-01f, -5.12933098e-02f, 9.87225622e-02f, 4.68069836e-02f, -1.11308187e-01f, 2.12143406e-01f, -1.32318035e-01f, 3.12814862e-01f, -1.32967874e-01f, -1.91219926e-01f, -2.07495123e-01f, -4.20720786e-01f, -3.81398760e-02f, 2.25237951e-01f, -1.82159320e-01f, -1.53989017e-01f, -1.10150464e-01f, 9.32935551e-02f, 1.32335499e-01f, -1.53424010e-01f, 1.41478390e-01f, 1.82934463e-01f, 1.19609227e-02f, -2.19565537e-02f, 2.05473125e-01f, -1.88909825e-02f, 3.48074734e-02f, 4.02479582e-02f, 1.31197542e-01f, 1.87977672e-01f, -3.28062952e-01f, -4.04678136e-01f, 1.42341956e-01f, -1.93283081e-01f, 3.39699686e-01f },
  { 6.29345998e-02f, 5.05732857e-02f, -6.67342097e-02f, 4.87938449e-02f, -1.91227764e-01f, 1.25712529e-01f, 1.01002283e-01f, 1.86926529e-01f, 3.23231578e-01f, -5.23211285e-02f, -2.08142139e-02f, -7.81738013e-02f, 5.01861721e-02f, -3.10845554e-01f, 1.13229401e-01f, -3.65874059e-02f, -1.51643708e-01f, -1.50212944e-01f, -1.62331372e-01f, -5.96214794e-02f, -6.06983155e-02f, -7.88814873e-02f, -8.08182284e-02f, 1.43602192e-01f, 1.75390497e-01f, -2.38557667e-01f, -4.38021183e-01f, 2.39221588e-01f, -2.36739591e-01f, -1.38672322e-01f, -2.65065372e-01f, -3.69349301e-01f, -2.95540038e-02f, 1.96214229e-01f, -2.25510046e-01f, 2.15247869e-02f, -6.70403242e-02f, -5.90702221e-02f, -8.50161910e-02f, 8.05950910e-03f, 3.38563532e-01f, 2.19194777e-02f, -2.95282423e-01f, 4.78613190e-03f, -1.42818421e-01f, -1.68897629e-01f, -2.22337693e-02f, -1.06221903e-02f, 1.01031736e-01f, -3.39747630e-02f, 2.45451126e-02f, -6.35602474e-02f, 4.77053672e-02f, 1.40476659e-01f, 7.55014122e-02f, 1.74538121e-01f, -2.25277971e-02f, 6.44988939e-02f, 1.16266690e-01f, 1.66549221e-01f, 3.77259880e-01f, -2.68029898e-01f, -4.62818980e-01f, 2.36135349e-01f },
  { -1.18066944e-01f, 2.11994901e-01f, -3.16602588e-01f, 1.09085767e-02f, -8.64196122e-02f, 2.22475350e-01f, 2.33074371e-02f, -2.16013268e-02f, -4.36000943e-01f, 4.01281454e-02f, -4.25247736e-02f, 1.16672374e-01f, -8.27937126e-02f, 2.65633196e-01f, 3.80773127e-01f, -1.45590931e-01f, -8.06214064e-02f, 8.24792981e-02f, -1.38927713e-01f, 1.71342101e-02f, -1.20135270e-01f, -5.73164105e-01f, -1.04842283e-01f, -3.22772950e-01f, -6.64700866e-02f, -2.05665212e-02f, 6.55365959e-02f, -3.34995240e-02f, 1.23092577e-01f, 1.10361151e-01f, 8.74760300e-02f, 2.35054761e-01f, 2.58088499e-01f, -1.55569330e-01f, -1.97290495e-01f, -5.61659820e-02f, -3.94782797e-02f, -4.78952900e-02f, 2.39073977e-01f, -2.86936641e-01f, -1.69939816e-01f, 3.65485408e-04f, -2.60674834e-01f, -1.96919944e-02f, -1.43018514e-01f, -6.92240521e-02f, -3.51620555e-01f, 2.14579940e-01f, -6.31702542e-02f, 2.75241077e-01f, -8.39823261e-02f, 2.11447805e-01f, -4.05821688e-02f, -4.78798375e-02f, -1.52285546e-01f, 1.59396261e-01f, -1.72973707e-01f, 1.44671440e-01f, -8.21362436e-02f, -1.89246729e-01f, 1.63693037e-02f, -5.93119562e-02f, 8.36653337e-02f, -1.99830070e-01f },
  { -1.58042073e-01f, 3.01866923e-02f, -1.84060514e-01f, 1.22020379e-01f, 1.13004670e-01f, 6.24054559e-02f, -2.64278501e-01f, -2.14088485e-01f, -1.36865243e-01f, -1.31369844e-01f, -8.18847567e-02f, 2.11984605e-01f, -6.21898293e-01f, -1.02675624e-01f, -2.33609989e-01f, -1.46012679e-01f, 9.80813131e-02f, -1.76161855e-01f, 1.84650227e-01f, -2.45123744e-01f, -3.69228870e-02f, -2.43993513e-02f, -3.67539376e-01f, 2.21768707e-01f, 2.17538476e-01f, 3.93903442e-02f, 1.70631632e-01f, -1.87885985e-02f, 2.50234097e-01f, 1.84478760e-01f, 7.54582928e-03f, 8.07751045e-02f, -1.38010189e-01f, -2.35109823e-03f, -6.11207075e-03f, -8.48310515e-02f, 8.11717659e-02f, -3.97706032e-02f, -1.75227031e-01f, 1.55314365e-02f, -1.26841217e-01f, 2.98332661e-01f, -3.64881277e-01f, 5.97014045e-03f, -9.35000628e-02f, -2.12992355e-01f, 1.44260690e-01f, 5.04850782e-02f, -2.00374112e-01f, 2.22559109e-01f, 1.84029430e-01f, -2.29161054e-01f, -5.62930629e-02f, -9.27853659e-02f, -5.94028793e-02f, -3.37176025e-01f, -5.06158061e-02f, -1.15076616e-01f, -1.60383031e-01f, 4.78561409e-02f, -6.96324278e-03f, 2.91579247e-01f, 6.88254088e-02f, -4.20258760e-01f },
  { -5.05852066e-02f, -3.41378450e-02f, -2.37025648e-01f, 1.83421582e-01f, -4.43107545e-01f, 1.79234043e-01f, 2.74747044e-01f, -9.62200016e-02f, 1.21747307e-01f, -5.70670003e-03f, 1.54473618e-01f, 1.42658502e-01f, -2.76023686e-01f, 1.73417076e-01f, 1.54007807e-01f, 1.57629475e-01f, -4.61320505e-02f, 1.26613364e-01f, 1.26158118e-01f, 1.90962687e-01f, -2.41920337e-01f, 7.81907812e-02f, -1.25625476e-01f, 1.33999601e-01f, -9.61078405e-02f, 7.77316242e-02f, -1.01012170e-01f, -1.69702560e-01f, 3.40282887e-01f, 1.73572123e-01f, -2.02037677e-01f, -4.37991172e-01f, 1.31323740e-01f, 5.12425378e-02f, -2.01028228e-01f, -2.61119872e-01f, 2.04239562e-01f, 2.70541519e-01f, 1.49109453e-01f, 6.75427169e-02f, 1.57572050e-02f, -3.56357396e-01f, -4.16161194e-02f, -1.03400342e-01f, -7.29403421e-02f, 1.31945938e-01f, -1.06724367e-01f, 1.16244098e-02f, -1.72811836e-01f, -8.46682563e-02f, 2.30067715e-01f, 1.67299300e-01f, 2.20859140e-01f, 2.11715326e-01f, 1.84444562e-01f, -1.69855177e-01f, -1.55482709e-01f, -3.24393809e-02f, -1.98263168e-01f, -3.53939049e-02f, -4.24146146e-01f, -2.09841266e-01f, 9.79653373e-02f, -4.16766852e-01f },
  { 1.66740656e-01f, 1.73408706e-02f, 2.71674581e-02f, -2.63069630e-01f, 2.98961192e-01f, -2.06319302e-01f, 2.07181126e-01f, 2.69537158e-02f, -2.56618649e-01f, 2.06141189e-01f, 1.74829647e-01f, -2.49054022e-02f, -2.92915642e-01f, -6.05408885e-02f, 1.52305946e-01f, 7.57577270e-02f, 2.13618696e-01f, -1.34914294e-01f, 5.17982319e-02f, 2.70966411e-01f, -2.38866851e-01f, 3.08691934e-02f, -2.85586685e-01f, 1.01999426e-02f, 1.38117164e-01f, -8.00058320e-02f, 8.12219754e-02f, 1.27892062e-01f, -2.02247240e-02f, -7.24704415e-02f, -3.23146701e-01f, 1.27520233e-01f, 2.78355330e-01f, 1.87388416e-02f, 3.61632034e-02f, 2.20642403e-01f, -4.20227855e-01f, 1.06235761e-02f, -2.09626809e-01f, 2.02368304e-01f, -1.88335866e-01f, 9.75094587e-02f, 1.87325068e-02f, -1.39730066e-01f, -1.41868964e-01f, 2.17157438e-01f, -9.27099511e-02f, -3.75255764e-01f, 1.96695641e-01f, 1.17311202e-01f, -2.04392865e-01f, 1.69348061e-01f, -1.71085984e-01f, 1.04051679e-02f, 1.08948402e-01f, 3.00060242e-01f, -6.71661049e-02f, -4.03300785e-02f, -1.34469539e-01f, 2.68954128e-01f, 1.42967433e-01f, -1.03120796e-01f, -3.02755445e-01f, -3.00464290e-03f },
  { 3.84243913e-02f, -1.02678675e-03f, 8.39722306e-02f, -6.93021566e-02f, -1.48477480e-01f, 1.29392087e-01f, 2.05814689e-01f, -1.50055379e-01f, -4.07821573e-02f, 1.17285803e-01f, -2.20743250e-02f, -9.70789790e-02f, 3.50310206e-02f, 1.75692543e-01f, -4.95459214e-02f, 5.06547093e-02f, -1.08539313e-01f, -1.13960050e-01f, -2.28405610e-01f, -3.68296713e-01f, 2.32558608e-01f, -1.61378816e-01f, -2.39879727e-01f, -4.36526649e-02f, -9.82675180e-02f, -1.14766069e-01f, -8.00970718e-02f, 7.55995959e-02f, 2.25510076e-01f, -1.40562415e-01f, 1.45199969e-01f, 7.14034587e-03f, -1.86727047e-01f, -3.17831129e-01f, -9.30820405e-02f, -1.21189438e-01f, 1.32273987e-01f, 2.76780725e-01f, 1.01606727e-01f, 3.80620956e-02f, 6.62603378e-02f, -8.19534585e-02f, 1.84292495e-01f, 2.08297566e-01f, -1.78566113e-01f, 1.20052211e-01f, -1.47755563e-01f, -3.87017190e-01f, 6.18559867e-02f, -3.52662623e-01f, -1.84633836e-01f, 4.57388908e-02f, -1.71409503e-01f, 1.07420474e-01f, -6.82683587e-02f, 5.90878539e-02f, 4.74359514e-03f, 1.70093253e-01f, 1.57577351e-01f, 9.14965943e-02f, 3.37804444e-02f, 7.78051512e-03f, 2.39353672e-01f, -2.44760603e-01f },
  { -1.91669270e-01f, 2.27246448e-01f, 2.33555704e-01f, -4.01121490e-02f, -8.75606760e-02f, -1.25141349e-04f, -3.86771969e-02f, -1.93713456e-01f, -4.44138438e-01f, 1.93419605e-01f, 9.93305147e-02f, 1.95163473e-01f, -7.55115524e-02f, 2.32717711e-02f, -1.86688721e-01f, -1.38426758e-02f, 7.80182611e-03f, 1.54664710e-01f, -2.44869202e-01f, 2.07045060e-02f, -1.70191556e-01f, -3.13179106e-01f, -3.50296162e-02f, -5.39001286e-01f, 2.07336754e-01f, -1.01414509e-01f, 2.48210896e-02f, -5.22640571e-02f, -1.19972657e-02f, -2.31734186e-01f, -3.16893846e-01f, 3.84192288e-01f, -1.21034451e-01f, 5.58840819e-02f, 1.13660400e-03f, -1.94043264e-01f, -1.94481745e-01f, 1.24413753e-03f, -4.79446575e-02f, 3.91853988e-01f, -5.16585588e-01f, -5.51681280e-01f, 4.67506833e-02f, -4.88290861e-02f, 5.04188240e-02f, 2.69603990e-02f, 3.21978927e-01f, -2.09877670e-01f, -1.76230306e-03f, 2.18360424e-01f, -1.11953326e-01f, 1.46561891e-01f, -1.06179565e-02f, -6.91848099e-02f, 1.44428656e-01f, 4.34366390e-02f, -1.16720691e-01f, -2.36594424e-01f, 1.57875299e-01f, -2.29191795e-01f, -2.97701389e-01f, -7.56219849e-02f, 1.12702638e-01f, -7.11864009e-02f },
  { -5.39563745e-02f, -6.03148267e-02f, -1.29033059e-01f, -3.54026318e-01f, -1.81043208e-01f, 1.17036298e-01f, -2.98452955e-02f, 8.27741623e-02f, -1.14305265e-01f, 1.55271366e-01f, -1.12968802e-01f, -3.04325763e-02f, 7.21406117e-02f, 2.27078423e-01f, 2.03031301e-01f, -1.05472438e-01f, 2.44784988e-02f, 1.22408621e-01f, 1.12866051e-01f, 2.20668316e-01f, -4.20029253e-01f, 3.70871462e-02f, 1.11111447e-01f, 2.25000381e-02f, 2.48800322e-01f, 1.19167389e-02f, -1.59715980e-01f, 1.11294806e-01f, -1.69563890e-01f, -1.80531070e-01f, -3.82326633e-01f, -1.42947435e-01f, -5.15770391e-02f, -6.29272312e-02f, 9.99352243e-03f, -2.13489905e-01f, -1.21395804e-01f, 2.22629264e-01f, -1.14237040e-01f, 1.74634233e-01f, -1.52409360e-01f, -1.63050979e-01f, -2.65765171e-02f, -1.45294935e-01f, 1.06886052e-01f, -5.27530126e-02f, 1.73207462e-01f, -7.14328289e-02f, -1.17463715e-01f, -8.16821158e-02f, 8.66113827e-02f, -2.48551965e-01f, 1.64562419e-01f, -1.85997561e-02f, 2.20287114e-01f, 1.15486667e-01f, -2.27817237e-01f, -2.17538834e-01f, -4.61560376e-02f, 1.65968522e-01f, -1.99064482e-02f, -3.39059412e-01f, 2.38402113e-01f, -2.05245987e-01f },
  { 1.82730123e-01f, 1.19890884e-01f, -1.24908783e-01f, 5.67336120e-02f, 3.23053524e-02f, -2.86892615e-02f, 2.36152887e-01f, -1.87204391e-01f, -2.57147793e-02f, -8.36024955e-02f, 1.60947815e-01f, 1.46933466e-01f, 3.45175415e-01f, 4.52057905e-02f, -3.87170196e-01f, -4.56274934e-02f, 1.60709947e-01f, -1.26443595e-01f, 2.04638224e-02f, 9.01950896e-02f, -1.61158755e-01f, 1.37320355e-01f, -4.63222951e-01f, -7.37247765e-02f, 1.42294988e-01f, -1.19794488e-01f, 2.27306671e-02f, 5.81924710e-03f, 1.28115863e-01f, 1.86736882e-01f, -8.61258134e-02f, -1.94493346e-02f, -1.85730860e-01f, -6.16697632e-02f, 1.33750111e-01f, -2.19978154e-01f, -5.32299541e-02f, 1.89078823e-01f, 8.44780058e-02f, -6.66266456e-02f, -4.74029303e-01f, -4.10181642e-01f, -3.21234763e-02f, -7.17779696e-02f, 1.02071755e-01f, -7.94431195e-02f, 7.53217936e-02f, -8.22624028e-01f, 5.48462570e-02f, -1.25317276e-01f, -4.47208360e-02f, -1.32204905e-01f, 4.14921045e-02f, -3.08362413e-02f, -2.34937578e-01f, 2.18899891e-01f, 2.16139674e-01f, -2.00930029e-01f, -2.17686012e-01f, -7.12142885e-02f, 5.47823608e-02f, 2.34086022e-01f, -3.35372426e-02f, -1.71819851e-01f },
  { -1.73232242e-01f, -1.75304368e-01f, -8.48054066e-02f, -1.75551265e-01f, -7.82551840e-02f, -2.23042011e-01f, 9.64319557e-02f, -3.28846648e-02f, 2.31074244e-01f, -7.88938478e-02f, -1.93765014e-01f, -3.42697278e-02f, -3.77021059e-02f, 5.52078709e-02f, 5.62826544e-02f, -1.74921185e-01f, -1.73243105e-01f, 8.14964920e-02f, 5.84792756e-02f, -4.24178578e-02f, 2.19939277e-01f, 1.56702787e-01f, -4.42662358e-01f, -1.17617875e-01f, 3.69006507e-02f, 7.32536986e-02f, -1.86663151e-01f, -2.22761124e-01f, -3.70490067e-02f, 1.09547459e-01f, 1.83097646e-01f, 2.29843810e-01f, -8.21648613e-02f, -3.29349548e-01f, 1.70555905e-01f, -6.69141114e-02f, -2.98697412e-01f, 1.20056786e-01f, -1.06851220e-01f, 3.70951295e-01f, -1.80514127e-01f, -2.99121797e-01f, -1.98816374e-01f, -6.25747368e-02f, 1.78894609e-01f, -5.29828295e-02f, 2.76740372e-01f, 1.31451041e-02f, 1.15957810e-03f, -1.15882248e-01f, 7.34100714e-02f, 1.02542363e-01f, 2.34414622e-01f, -9.19777080e-02f, -1.43191308e-01f, -2.74243623e-01f, -1.60919830e-01f, -6.73857406e-02f, -2.23145843e-01f, 1.31756812e-02f, -3.91430855e-01f, -1.28170878e-01f, 1.20936543e-01f, 2.53561854e-01f },
  { -9.21033043e-03f, 1.08142421e-01f, 3.33900869e-01f, 7.95828551e-03f, 9.11954567e-02f, 2.24197417e-01f, -1.27838463e-01f, -5.66785410e-02f, -2.66538211e-03f, 3.15077789e-02f, 1.51327491e-01f, 1.48784183e-02f, -4.01204139e-01f, 2.03995585e-01f, 1.63559720e-01f, -2.21413329e-01f, -2.06754774e-01f, 7.06134215e-02f, 1.04457423e-01f, 5.93030043e-02f, 1.66582823e-01f, -1.74730033e-01f, -2.90472865e-01f, 1.96708620e-01f, -2.86168218e-01f, 2.44567931e-01f, 7.60094002e-02f, 6.80761784e-02f, -9.08157695e-03f, 3.09177414e-02f, -2.02414483e-01f, 1.67389721e-01f, -5.73905669e-02f, 5.34297712e-02f, 5.83614595e-02f, -4.83792812e-01f, -3.16542178e-01f, 2.21762523e-01f, -8.71747360e-03f, -2.59214699e-01f, 7.46664181e-02f, -6.97920322e-02f, 3.70403416e-02f, -7.88155477e-03f, -1.12785429e-01f, -4.74754684e-02f, -4.75223456e-03f, -4.00171310e-01f, 9.98522937e-02f, 5.21153621e-02f, -3.21501680e-02f, 1.22922473e-01f, -1.55751914e-01f, -1.22156695e-01f, 1.05704159e-01f, 8.09386820e-02f, 1.27721541e-02f, -2.11064816e-01f, 1.26281232e-01f, -1.66070148e-01f, -1.92082450e-01f, 4.01966840e-01f, 7.17323273e-02f, -3.39944035e-01f },
  { -1.46966487e-01f, 5.14568798e-02f, -2.67213494e-01f, -2.49627590e-01f, 1.76464692e-02f, -1.97569102e-01f, -1.25671580e-01f, -5.87029308e-02f, 2.24131465e-01f, 5.24293892e-02f, -2.27820307e-01f, 9.81039256e-02f, -9.23770517e-02f, -1.39734021e-03f, 6.87516332e-02f, 1.51330829e-01f, 1.25666186e-01f, 4.15693186e-02f, -1.26062840e-01f, -5.57896793e-01f, -2.62648225e-01f, 1.15175210e-01f, -3.35441470e-01f, 1.58503950e-01f, 4.29028869e-02f, -1.16242364e-01f, -1.49098366e-01f, 6.16876967e-02f, 3.99942756e-01f, 8.21883604e-02f, 2.82646984e-01f, 1.76282246e-02f, -3.18441004e-01f, -2.01903656e-02f, -2.53636781e-02f, -3.16098660e-01f, 2.37179980e-01f, 1.57814562e-01f, 2.12145746e-02f, -1.64444849e-01f, -2.40098432e-01f, -1.07389353e-01f, -2.13436902e-01f, -1.62888259e-01f, 6.12652078e-02f, -1.89610243e-01f, 1.02262981e-01f, -5.67732871e-01f, -5.78169003e-02f, -2.24622414e-01f, 1.95966020e-01f, -2.24582851e-01f, -1.40526384e-01f, -3.38590927e-02f, 5.77969775e-02f, 1.99797451e-01f, -9.75669026e-02f, -1.39593825e-01f, 1.12498187e-01f, 7.42699206e-02f, -2.11939871e-01f, 3.20532441e-01f, -2.95785636e-01f, -2.66484350e-01f },
  { 1.12694182e-01f, 9.23614427e-02f, -8.69183540e-02f, 1.00865990e-01f, 2.08842516e-01f, 8.15002695e-02f, 1.30686974e-02f, -6.66983947e-02f, -1.17656372e-01f, -1.89861342e-01f, 5.03242463e-02f, 2.67580539e-01f, 3.66636738e-02f, -8.93356651e-02f, 8.95066038e-02f, -1.99508920e-01f, 1.08746409e-01f, 1.42722026e-01f, 1.18851118e-01f, -1.16609938e-01f, -3.21202815e-01f, -2.42404267e-01f, -7.09843310e-03f, -3.77019122e-02f, 2.21518055e-01f, 2.61051893e-01f, 2.61535972e-01f, -3.18467878e-02f, -2.21891880e-01f, 1.01344094e-01f, -7.53212422e-02f, -1.11899145e-01f, 4.66620550e-02f, -2.23815948e-01f, -1.81353137e-01f, 4.15355265e-02f, -3.66098396e-02f, 2.79551804e-01f, 1.67178348e-01f, -1.16163008e-01f, -1.10265598e-01f, -2.81760454e-01f, 1.90810084e-01f, -2.33850226e-01f, 2.98628174e-02f, -1.46989048e-01f, 1.16846643e-01f, -2.09099233e-01f, 4.31750789e-02f, -1.05497248e-01f, 8.61595422e-02f, 7.18727782e-02f, -1.18554972e-01f, -7.98298046e-02f, -5.91155104e-02f, 3.62620200e-03f, -1.53922513e-01f, -1.28644347e-01f, -1.95421129e-01f, -6.43153265e-02f, 2.43896201e-01f, -5.81525639e-02f, -4.76136029e-01f, -3.17331344e-01f },
  { -1.07999384e-01f, -2.77723193e-01f, -1.88099667e-01f, 1.37603134e-01f, 1.52432650e-01f, 1.34581149e-01f, 1.09843723e-01f, -1.53245758e-02f, -3.03588003e-01f, 1.96461324e-02f, 2.21556544e-01f, -2.83562802e-02f, 2.19458222e-01f, 1.81854859e-01f, -3.49173113e-03f, -5.41672595e-02f, -8.98037553e-02f, -7.96862841e-02f, -8.44311714e-02f, -3.79154146e-01f, 4.10316661e-02f, -5.87470308e-02f, -7.23763332e-02f, -4.30934578e-01f, 1.89449247e-02f, 2.22527668e-01f, 1.51240453e-01f, 1.30076393e-01f, -1.56598106e-01f, 1.88064277e-01f, -1.73531488e-01f, 1.36762515e-01f, 9.08564255e-02f, -3.15318763e-01f, -8.48708302e-02f, 1.41583726e-01f, 1.68537840e-01f, 1.42069638e-01f, 1.19472429e-01f, 4.94168997e-02f, -4.28649992e-01f, -7.07769915e-02f, 2.40121298e-02f, -1.27207950e-01f, -1.73090637e-01f, 1.70002013e-01f, 2.61013895e-01f, -5.41872442e-01f, -1.96127802e-01f, 2.77557343e-01f, 9.47426036e-02f, -4.10396233e-02f, -1.45837039e-01f, -6.10618889e-02f, -1.13401981e-02f, -1.32023260e-01f, 7.22605065e-02f, 1.04644805e-01f, 4.20044847e-02f, 5.36496788e-02f, -2.95620054e-01f, -8.55151266e-02f, -1.71298876e-01f, 3.96290757e-02f },
  { -1.92167252e-01f, -1.56787604e-01f, -1.30284116e-01f, -2.45428756e-01f, -4.30266947e-01f, 1.33103356e-01f, 2.66718179e-01f, 3.04562766e-02f, 1.00827068e-01f, 8.73298049e-02f, -1.51130438e-01f, 2.49484852e-02f, 2.48282805e-01f, 3.62233758e-01f, 2.10288092e-01f, 2.21040230e-02f, -3.37802209e-02f, -5.83113767e-02f, 2.04778194e-01f, 5.51684275e-02f, -1.99099690e-01f, -5.74425571e-02f, -4.93521392e-01f, 1.61547199e-01f, 1.54399544e-01f, -5.61081059e-02f, 3.90647165e-02f, -1.62619129e-01f, -4.13213074e-01f, -2.15766907e-01f, 1.12791494e-01f, 1.35468379e-01f, 3.72185707e-02f, -3.34985107e-01f, -1.48285627e-01f, -1.47235738e-02f, -2.22741768e-01f, -8.06383640e-02f, -1.73992842e-01f, -9.97898504e-02f, -1.30810598e-02f, -5.93893901e-02f, 1.76042259e-01f, -8.97125229e-02f, 1.71312168e-01f, -6.00967463e-03f, -9.37529728e-02f, -2.43620545e-01f, 2.73644999e-02f, 8.94286484e-03f, 2.28729963e-01f, -6.55237213e-02f, -2.18220934e-01f, -1.70571506e-01f, -1.85884550e-01f, -4.09699343e-02f, 1.51103482e-01f, -1.87797666e-01f, 2.69163400e-02f, -1.61733553e-01f, -1.33703604e-01f, 1.50934219e-01f, 1.55433312e-01f, 2.87083499e-02f },
  { 3.21681611e-03f, 1.44887090e-01f, -5.19523621e-01f, 2.47917518e-01f, -2.65780687e-01f, -1.26583688e-02f, 1.77079499e-01f, -1.24744385e-01f, -8.94691870e-02f, 4.08381410e-02f, 1.69775426e-01f, 1.18004628e-01f, -9.98213887e-02f, 8.70624464e-03f, -3.04047972e-01f, -1.55933380e-01f, 2.24283233e-01f, 1.99174806e-02f, 1.33206069e-01f, 7.52787888e-02f, -2.69280046e-01f, -4.73627448e-01f, 8.61166865e-02f, -3.77475590e-01f, -1.96594032e-04f, 2.35725909e-01f, -1.41835198e-01f, 1.60082743e-01f, 2.79849231e-01f, -7.33368546e-02f, 2.47520283e-01f, -9.62998718e-02f, -5.24334982e-02f, -4.89594638e-01f, -7.48611316e-02f, -1.76053509e-01f, -1.80419058e-01f, 9.09008309e-02f, 9.44905207e-02f, 9.53995734e-02f, 1.75745100e-01f, 2.02280775e-01f, 6.57627033e-03f, 6.77645132e-02f, -7.52357692e-02f, -1.61675557e-01f, 1.68928415e-01f, -5.94911337e-01f, 3.83450426e-02f, 2.64459215e-02f, -1.45651624e-01f, -2.36488611e-01f, -2.11857527e-01f, -9.61462036e-02f, 5.06039485e-02f, -9.45637226e-02f, 5.83209395e-02f, 1.34479642e-01f, -1.13407907e-03f, 3.19949478e-01f, -1.85150072e-01f, -2.02296838e-01f, -3.84181621e-03f, -4.93886918e-02f },
  { -8.43398124e-02f, 7.14460686e-02f, -1.18893482e-01f, -1.19128369e-01f, 2.99274772e-01f, -2.11660370e-01f, 1.50057465e-01f, -1.90693021e-01f, -7.51668513e-02f, 2.73105297e-02f, 2.85544079e-02f, 5.75145520e-02f, -3.03680599e-01f, -3.02538127e-01f, -5.69708133e-03f, -2.08643302e-01f, -2.03663304e-01f, -5.06790467e-02f, 1.48584455e-01f, -2.97378153e-01f, 1.50745809e-01f, -1.25720575e-01f, 3.11869949e-01f, 9.81912836e-02f, -2.99229652e-01f, -4.44897413e-01f, 1.02212071e-01f, 2.01104712e-02f, -2.25226030e-01f, 1.44479260e-01f, 2.38096431e-01f, -4.80779260e-02f, 2.35881314e-01f, 1.63430095e-01f, -2.33168174e-02f, 2.37796172e-01f, -2.18458965e-01f, -1.20682456e-01f, 1.39223844e-01f, -2.69402355e-01f, -1.31463885e-01f, -2.27622181e-01f, 1.81543872e-01f, -1.46592204e-02f, 1.24440484e-01f, -8.73976946e-02f, -2.02507049e-01f, 1.35114878e-01f, 1.29442871e-01f, 8.11826363e-02f, 1.24128405e-02f, 1.23552017e-01f, -1.74490348e-01f, 2.10300282e-01f, -1.38906062e-01f, 1.35827050e-01f, 7.38145411e-02f, 8.27080682e-02f, -8.33220314e-03f, -6.46155253e-02f, 1.81042150e-01f, -1.60533786e-01f, -1.16919376e-01f, -2.94248369e-02f },
  { -1.65034771e-01f, 6.58950806e-02f, 9.21198949e-02f, -4.09640610e-01f, -2.78759003e-01f, -1.11426055e-01f, 2.87583351e-01f, 2.45721806e-02f, 1.06829345e-01f, -2.08357930e-01f, -2.20073149e-01f, 3.52715924e-02f, 2.40940116e-02f, 4.26523425e-02f, -2.45053649e-01f, -2.59271175e-01f, -3.93511122e-03f, 1.06177859e-01f, -2.47680932e-01f, 3.97553891e-02f, -4.60024327e-02f, 2.32948557e-01f, 2.46218801e-01f, 1.27331704e-01f, -9.79383849e-03f, 2.39428520e-01f, 1.79103225e-01f, 7.83337355e-02f, 9.76311266e-02f, -2.64607102e-01f, -2.00358957e-01f, 1.18844166e-01f, -1.41834533e-02f, -2.32895583e-01f, 2.03263819e-01f, 2.63754189e-01f, 8.08608085e-02f, -1.65135935e-01f, -2.55210679e-02f, -1.82688072e-01f, 2.70817637e-01f, -1.30078599e-01f, -1.39656803e-02f, 1.28191486e-01f, -2.14476839e-01f, -2.93924715e-02f, -2.52964705e-01f, 1.50312304e-01f, -2.19703726e-02f, -9.77597460e-02f, 1.35092258e-01f, 1.50523931e-01f, -1.16770171e-01f, 1.38165038e-02f, 2.37484798e-02f, -1.23835877e-01f, 3.67297940e-02f, -2.26144716e-01f, -2.28788540e-01f, -4.04039115e-01f, -2.15851143e-01f, 1.98687181e-01f, 1.17803521e-01f, -3.05631816e-01f },
  { 8.39664638e-02f, 1.49060056e-01f, -2.63457298e-01f, -4.87552732e-01f, 7.75326565e-02f, -2.22056657e-01f, 5.93730658e-02f, 2.06122100e-01f, 1.81098968e-01f, 2.21642435e-01f, 6.59008399e-02f, 1.90397486e-01f, -3.70597154e-01f, -5.19896820e-02f, -1.48767503e-02f, 8.80615879e-03f, 1.36618853e-01f, -1.26824468e-01f, -1.63518816e-01f, -1.71132330e-02f, -2.84715056e-01f, -1.65135548e-01f, 2.89075434e-01f, -6.97273936e-04f, 1.73144694e-02f, 4.27022763e-02f, -3.05651575e-02f, 7.39107132e-02f, -2.40931064e-01f, -7.79651329e-02f, -3.97943020e-01f, 2.23177038e-02f, -4.44764107e-01f, 8.08770657e-02f, -1.79644644e-01f, 3.05665702e-01f, -1.78704277e-01f, -3.90574098e-01f, -1.69189692e-01f, -1.79321691e-01f, 2.70658791e-01f, -1.16750859e-01f, -8.77004676e-03f, -2.08224460e-01f, 2.31013577e-02f, -2.36096904e-01f, -5.11326827e-02f, -9.35285389e-02f, -2.08883181e-01f, 2.06543580e-01f, 2.14547366e-01f, 1.26322731e-01f, -1.53733179e-01f, -1.82644308e-01f, -1.23758890e-01f, -3.09957564e-02f, -1.48679033e-01f, -2.12319076e-01f, 5.73019832e-02f, -4.67763603e-01f, -1.36417627e-01f, 1.16814345e-01f, 2.68603027e-01f, 2.78991669e-01f },
  { -2.26768970e-01f, -6.27622753e-02f, -2.36233726e-01f, 9.51025710e-02f, 1.14643469e-01f, 1.20360695e-01f, 1.12023391e-01f, -1.76569283e-01f, -2.85255965e-02f, -6.11972921e-02f, 1.48069412e-01f, 1.94504961e-01f, 2.03605354e-01f, -2.67201602e-01f, 6.76487163e-02f, -1.34221241e-02f, -1.01635335e-02f, -2.28271127e-01f, 4.35593836e-02f, 1.32817268e-01f, -1.68972448e-01f, 2.35321298e-01f, 1.73125729e-01f, -1.17769592e-01f, -3.01909387e-01f, -9.68955755e-02f, 8.52065757e-02f, 1.70970768e-01f, 2.42242999e-02f, -2.20289931e-01f, -1.12780027e-01f, -2.26968050e-01f, -2.90825725e-01f, -1.96139738e-01f, -1.31805211e-01f, 2.82284222e-03f, -4.52161193e-01f, -2.76150167e-01f, -3.05692423e-02f, 1.06177807e-01f, 7.05885291e-02f, -3.63076121e-01f, 2.25451976e-01f, 1.22331485e-01f, -3.61014158e-02f, -1.41831785e-01f, 7.75715560e-02f, -1.35181621e-01f, -2.34493405e-01f, -3.23478654e-02f, -2.05595836e-01f, 1.51269302e-01f, -1.50343612e-01f, -1.78936303e-01f, -1.43609241e-01f, -5.07557213e-01f, -1.88101098e-01f, -9.80996266e-02f, -1.75745174e-01f, -1.14854470e-01f, 1.38110787e-01f, -3.19431312e-02f, 2.25501075e-01f, 2.48841703e-01f },
  { 3.50737311e-02f, -2.52725072e-02f, 1.31006632e-02f, -1.98323786e-01f, -4.89605544e-03f, 4.69058715e-02f, -2.87849933e-01f, 1.45847604e-01f, -1.82111025e-01f, 1.43396765e-01f, -1.72784790e-01f, -1.23633578e-01f, -4.19676900e-01f, -1.20312683e-01f, 1.56200796e-01f, -1.17306888e-01f, 7.51793012e-02f, -1.89868689e-01f, 3.79302092e-02f, 6.37550130e-02f, 9.09179673e-02f, 2.04121545e-01f, 2.51403391e-01f, -4.96846288e-02f, 2.89604187e-01f, -2.11698681e-01f, 2.67426789e-01f, -2.43552700e-01f, -2.14624088e-02f, 2.07404625e-02f, 1.20961189e-01f, 3.93588282e-03f, -1.59103006e-01f, -1.68267354e-01f, 2.23674402e-02f, 2.39500627e-01f, -6.94593936e-02f, -3.11946243e-01f, -8.97326693e-02f, -3.19501683e-02f, 1.24394393e-03f, -2.15402052e-01f, 2.99257338e-01f, 4.51808460e-02f, -3.14603269e-01f, 2.17775136e-01f, 3.42983127e-01f, -9.47718397e-02f, 9.69736092e-03f, 2.47924536e-01f, -2.34832168e-02f, 2.60251816e-02f, -2.19504237e-01f, -1.40375257e-01f, 1.15607120e-01f, -4.10500020e-01f, 1.43475533e-01f, 1.71984062e-01f, 1.05254641e-02f, -4.70548272e-01f, -1.57924309e-01f, -2.36256838e-01f, -2.90808469e-01f, -1.59817766e-02f },
  { -1.87322706e-01f, -2.27331161e-01f, -7.61983544e-03f, -2.48358220e-01f, 2.62397349e-01f, -7.05535188e-02f, -3.07583570e-01f, 2.28280742e-02f, 5.35037331e-02f, 1.16756141e-01f, -8.99291858e-02f, 2.14840606e-01f, 2.35190876e-02f, 2.66390741e-01f, 8.38459730e-02f, -2.38071769e-01f, 7.14040920e-03f, -2.03706011e-01f, -1.18754521e-01f, 3.70210171e-01f, -5.07119238e-01f, 1.14099875e-01f, -1.21412970e-01f, -9.90306884e-02f, -6.63240552e-02f, 1.55584961e-01f, -2.07618088e-01f, -1.90048173e-01f, 8.61345083e-02f, 1.36891291e-01f, -6.64943531e-02f, -5.87007925e-02f, 8.74877647e-02f, 2.29457915e-01f, 1.56392574e-01f, -3.26334871e-02f, -2.47736067e-01f, -5.63694060e-01f, 1.81298107e-02f, -3.70373130e-01f, 1.61650423e-02f, -1.68581113e-01f, -2.79343635e-01f, -7.21747056e-02f, 2.44614463e-02f, 2.86501786e-03f, 2.81133968e-02f, -6.45854473e-02f, -1.33131161e-01f, -2.12904990e-01f, 1.26779467e-01f, 1.48929253e-01f, -8.28516409e-02f, -1.98279187e-01f, -1.85809523e-01f, -4.70105231e-01f, -2.00880200e-01f, -2.18751848e-01f, -1.74487576e-01f, -8.21351483e-02f, 3.28262508e-01f, 2.18636051e-01f, 4.56494838e-02f, -3.28643590e-01f },
  { 7.69269690e-02f, 2.15907142e-01f, 2.05764741e-01f, -3.00005645e-01f, 2.68705070e-01f, -2.32335687e-01f, -9.94960070e-02f, 1.66755468e-02f, -2.30187461e-01f, -3.74484761e-03f, -2.06387997e-01f, 2.07667470e-01f, -2.95394808e-01f, 2.25224897e-01f, -7.53289387e-02f, -3.81508432e-02f, -2.16451317e-01f, -3.30999307e-02f, 1.11322738e-01f, 8.02795812e-02f, -6.84615746e-02f, -5.80921583e-02f, -1.98856458e-01f, 1.18687466e-01f, 1.65220976e-01f, -4.74745780e-01f, 6.63656369e-03f, -1.19196266e-01f, 9.04510170e-03f, -1.41096950e-01f, -2.12687463e-01f, -1.51709273e-01f, -1.51050352e-02f, -2.61379629e-01f, -1.34787202e-01f, 1.82738110e-01f, 1.84220195e-01f, -4.36685979e-01f, 1.24501716e-02f, -2.81177819e-01f, 8.42298642e-02f, 2.53147840e-01f, 1.90753743e-01f, -1.69987708e-01f, -3.90792117e-02f, 5.64099215e-02f, 2.40986288e-01f, -2.14148551e-01f, 1.94650337e-01f, -3.74169379e-01f, 1.57482430e-01f, -8.17491338e-02f, -8.25382993e-02f, 1.10721558e-01f, 1.97155878e-01f, 7.28967115e-02f, 8.11809376e-02f, -1.36152357e-01f, -5.96374273e-02f, -1.86374173e-01f, -3.90770696e-02f, 2.08769307e-01f, 1.72384262e-01f, 1.05316311e-01f },
  { 1.93289593e-01f, -1.61388249e-03f, 2.38390073e-01f, -1.38651416e-01f, 2.76264638e-01f, -7.43368194e-02f, 6.34846017e-02f, 1.73690617e-01f, 7.66048655e-02f, -5.13478322e-03f, -9.66570154e-02f, -3.18223797e-02f, 2.81187117e-01f, -5.83711006e-02f, -3.23837608e-01f, -1.33655414e-01f, -6.48506507e-02f, -1.91549942e-01f, 4.18919325e-02f, 3.17227542e-01f, -3.35529715e-01f, 1.47121474e-01f, -1.65737376e-01f, -4.53570664e-01f, -3.84331495e-01f, -1.97533760e-02f, 1.64685890e-01f, 2.05047145e-01f, 2.90514857e-01f, 1.97936490e-01f, -2.64196116e-02f, -1.52179420e-01f, 4.42615412e-02f, -1.91823676e-01f, -1.79653555e-01f, 1.68374665e-02f, -1.61544964e-01f, 7.75966197e-02f, -5.23021519e-02f, -2.27767840e-01f, 2.61605322e-01f, -5.65598644e-02f, -6.32425770e-02f, -4.74615321e-02f, -5.32021932e-03f, -2.25055948e-01f, -9.10839904e-03f, -2.84084678e-01f, -1.33569494e-01f, -1.91842496e-01f, -7.58488923e-02f, -1.79056451e-01f, -1.17579669e-01f, -4.12990339e-03f, 2.18006931e-02f, -6.88093126e-01f, -1.38588905e-01f, -2.54765116e-02f, -2.45633889e-02f, -2.53842175e-01f, -1.36966482e-02f, 2.70119935e-01f, 1.15095088e-02f, -2.73905545e-01f },
  { 4.11092155e-02f, -1.20820232e-01f, -1.08071109e-02f, -2.17127204e-01f, -4.93825078e-02f, 1.75176784e-01f, -2.56785750e-01f, 3.15354727e-02f, -1.89770266e-01f, -8.19413085e-03f, 8.87866765e-02f, -7.93018788e-02f, 3.31149586e-02f, 1.06122931e-02f, 1.80505872e-01f, -1.72296077e-01f, 5.56381419e-02f, -1.28478706e-01f, -1.09698297e-02f, -5.10048214e-03f, -6.72608763e-02f, 1.37108400e-01f, 4.23299037e-02f, -1.79165959e-01f, -3.22932720e-01f, -3.48987401e-01f, 1.74597114e-01f, 7.87887126e-02f, 2.35842183e-01f, -6.10569939e-02f, 1.53344169e-01f, -8.11577141e-02f, -2.42059037e-01f, -4.26692776e-02f, -2.78417245e-02f, 9.73534435e-02f, 6.01133006e-03f, -2.73739308e-01f, 9.84732136e-02f, -5.38513921e-02f, 7.25673512e-02f, 2.15746149e-01f, -3.19996566e-01f, 1.10152878e-01f, -5.11047542e-02f, 1.96106151e-01f, -3.25848348e-02f, -3.00915062e-01f, -1.40190527e-01f, -1.75244212e-02f, 2.21674562e-01f, -1.58259585e-01f, -6.19576201e-02f, -4.77024652e-02f, 2.09949493e-01f, -1.94315356e-03f, 1.38844207e-01f, -1.93558171e-01f, 1.69812381e-01f, -5.28364480e-02f, 2.98468232e-01f, 3.07601154e-01f, 2.80210525e-01f, -1.54618621e-01f },
  { -4.23855409e-02f, -1.54586732e-01f, -1.83557704e-01f, -2.51686513e-01f, -1.39236853e-01f, 2.07778528e-01f, -2.80847549e-01f, -3.97539698e-02f, -3.16789150e-01f, -2.67499797e-02f, 1.20682418e-01f, 1.56708449e-01f, -2.54324973e-01f, 1.36058718e-01f, 3.31554353e-01f, 2.47886211e-01f, 9.79401097e-02f, -1.92456812e-01f, -5.84403537e-02f, -5.40466933e-03f, 2.98455209e-01f, 1.79645985e-01f, -6.26720265e-02f, -3.19452621e-02f, -1.24821343e-01f, -4.28338796e-01f, -8.20224434e-02f, 2.22156253e-02f, 5.15225083e-02f, 6.86207488e-02f, -3.08296472e-01f, -7.05391243e-02f, -5.06605431e-02f, 2.00345218e-01f, -6.16746545e-02f, 2.79462993e-01f, -1.37012778e-02f, -1.42370597e-01f, -1.59045652e-01f, -3.80305350e-01f, -8.91968980e-02f, 4.50783893e-02f, -1.18473083e-01f, -2.27043360e-01f, 1.35536268e-01f, 5.51467352e-02f, 6.55278238e-03f, 2.81596296e-02f, -7.30965436e-02f, -1.01417616e-01f, 1.57128677e-01f, -2.19468057e-01f, 4.20918651e-02f, 5.38891815e-02f, -1.39317870e-01f, -2.93020401e-02f, 2.03469768e-01f, -1.98390692e-01f, -1.85103059e-01f, 6.67406842e-02f, -7.06566349e-02f, -2.27786109e-01f, -7.75635093e-02f, 1.72626615e-01f },
  { -1.21299334e-01f, -7.56828934e-02f, -5.13561852e-02f, -7.99677372e-02f, -8.53998587e-02f, 8.13114420e-02f, -2.92224348e-01f, -5.16177788e-02f, -2.63342351e-01f, -9.55891609e-02f, 2.00129375e-01f, -1.35729536e-01f, 1.32730603e-01f, -2.44413808e-01f, 2.94350594e-01f, -1.53117463e-01f, -1.80003028e-02f, -1.22095041e-01f, 1.36219725e-01f, -1.68884635e-01f, 1.28385887e-01f, 3.94438267e-01f, 1.74603343e-01f, -2.14827120e-01f, 4.79103215e-02f, 1.25343606e-01f, -1.00756995e-01f, 1.39107794e-01f, -3.03971320e-01f, 1.41808689e-01f, -5.99934347e-02f, -2.21613780e-01f, -1.91022813e-01f, -1.47653311e-01f, -5.68009913e-02f, -1.85975373e-01f, -2.70933956e-01f, -3.32477987e-01f, -3.50407325e-02f, -2.47993365e-01f, 1.74043864e-01f, 1.65957347e-01f, -3.55867520e-02f, -2.17290580e-01f, 1.57052234e-01f, 1.69086829e-01f, -4.37721223e-01f, -3.36709842e-02f, 8.38582739e-02f, -5.85640594e-03f, 5.95510937e-02f, 2.01886863e-01f, -3.60826217e-02f, 2.66394708e-02f, -1.29236847e-01f, -1.24635652e-01f, 7.83342272e-02f, -1.56613678e-01f, -2.26576179e-01f, 2.57038057e-01f, 1.91649750e-01f, -7.91404396e-02f, -1.06288679e-01f, 4.04644608e-02f },
};

static const float D2_B[OUT_D2] = { -2.54408598e-01f, -1.97265428e-02f, 4.26969565e-02f, 2.09070340e-01f, 3.93804237e-02f, 3.15155052e-02f, 1.27849773e-01f, 2.94893589e-02f, 5.81874400e-02f, -2.31661256e-02f, -2.50755213e-02f, -7.50755966e-02f, 5.42781018e-02f, 8.22615623e-02f, -5.80532774e-02f, -6.95623234e-02f, -1.20287858e-01f, -9.42578837e-02f, 1.14070222e-01f, 7.82113895e-03f, 1.67257428e-01f, -1.47239670e-01f, -1.08331852e-01f, -1.10821076e-01f, -4.04933654e-02f, 2.91384701e-02f, -2.69052573e-03f, -1.23831846e-01f, -1.08379550e-01f, -1.63933426e-01f, -3.27298567e-02f, 1.71197981e-01f, 1.62932441e-01f, -9.31548476e-02f, -1.98668689e-01f, -5.25375269e-02f, -4.49281931e-02f, -1.28651276e-01f, 1.63175419e-01f, -3.81643027e-02f, 7.30931312e-02f, -7.69347399e-02f, -1.21857680e-01f };


void dense2(const float X[IN_D2], float Y[OUT_D2]);

#endif
