#include "conv2d_layer1.h"

const float CONV1_W[OUT_CH][IN_CH][K][K] = 
{
  {
    {
      { -3.11114546e-02f, -1.39666181e-02f, -9.07035321e-02f, 1.57383699e-02f, 2.53625989e-01f },
      { -3.43076624e-02f, -5.09789512e-02f, -9.62358937e-02f, -1.69659123e-01f, 4.35960367e-02f },
      { -1.00959070e-01f, 1.46171395e-02f, 7.32074454e-02f, -2.00547084e-01f, -1.54484019e-01f },
      { 5.87061606e-02f, 1.65783241e-01f, 5.99457398e-02f, 3.15231159e-02f, -1.92523766e-02f },
      { 1.39852285e-01f, 1.95641935e-01f, 1.38844967e-01f, 1.19048409e-01f, 1.93690345e-01f },
    },
    {
      { -2.86833018e-01f, -3.11536729e-01f, -2.88901001e-01f, -1.33155763e-01f, 1.25119999e-01f },
      { -1.59814671e-01f, -1.51166290e-01f, -2.23309606e-01f, -4.00292426e-01f, -1.16239125e-02f },
      { -1.73379019e-01f, 5.18360687e-03f, -1.29844815e-01f, -3.96403342e-01f, -2.33723685e-01f },
      { 8.43481510e-04f, 8.23659748e-02f, 4.76464033e-02f, -1.71860635e-01f, -1.61211669e-01f },
      { 1.47118956e-01f, 1.24161012e-01f, 2.47264192e-01f, -6.94234949e-03f, -4.23674993e-02f },
    },
    {
      { -1.82770640e-01f, -2.04509512e-01f, -9.20754895e-02f, 2.28413008e-03f, 2.50196218e-01f },
      { -7.91917145e-02f, -3.94596383e-02f, -1.11414850e-01f, -1.76374808e-01f, -5.05026840e-02f },
      { -3.64183597e-02f, -2.40835734e-02f, -2.86622875e-04f, -2.19433442e-01f, -4.95430790e-02f },
      { -1.52782192e-02f, 1.47191599e-01f, 1.31162837e-01f, -4.12844820e-03f, -9.62752998e-02f },
      { 3.33766900e-02f, 1.73411667e-01f, 2.33275443e-01f, 1.58499941e-01f, 1.83043301e-01f },
    },
  },
  {
    {
      { -9.28471386e-02f, -3.69811803e-02f, -3.81139927e-02f, -9.89249498e-02f, -1.15082555e-01f },
      { -4.64351885e-02f, -1.03312351e-01f, -2.47422755e-01f, -3.83235008e-01f, -4.85844344e-01f },
      { 7.87186325e-02f, 1.90244913e-01f, -1.13168173e-01f, -4.15297717e-01f, -3.72193098e-01f },
      { 2.23717332e-01f, 1.78435370e-01f, -1.34700527e-02f, -2.40446106e-01f, -9.76428762e-02f },
      { 1.52552888e-01f, 2.21822143e-01f, -7.32892519e-03f, -1.90722942e-01f, 3.10566090e-02f },
    },
    {
      { -3.97985335e-03f, 5.84325045e-02f, -5.69697730e-02f, -2.30563115e-02f, -5.27719222e-02f },
      { -9.78668928e-02f, -4.46525142e-02f, -6.84318915e-02f, -2.81910777e-01f, -3.77690226e-01f },
      { 1.62433997e-01f, 2.50793993e-01f, 4.14338931e-02f, -3.30810875e-01f, -3.48584265e-01f },
      { 2.71778136e-01f, 3.24042261e-01f, 8.71059895e-02f, -1.63102448e-01f, 3.05137336e-02f },
      { 2.27588356e-01f, 3.27806085e-01f, 1.43314570e-01f, 7.06832483e-02f, 2.42981482e-02f },
    },
    {
      { -1.08335325e-02f, 3.00654452e-02f, -1.19279288e-02f, 1.03642620e-01f, 1.66845858e-01f },
      { -4.11695205e-02f, -2.42899787e-02f, 8.46547913e-03f, -2.02642903e-01f, -9.82429683e-02f },
      { 9.12176445e-02f, 2.48262942e-01f, 1.11526340e-01f, -2.10659683e-01f, 6.43879687e-03f },
      { 2.80253649e-01f, 2.87095517e-01f, 1.72272146e-01f, 1.04664778e-02f, 5.29136546e-02f },
      { 1.96275443e-01f, 2.69355118e-01f, 8.57960731e-02f, 5.84895872e-02f, 2.35560015e-01f },
    },
  },
  {
    {
      { 1.07237898e-01f, 2.64256913e-02f, 1.71152651e-01f, 8.53655115e-02f, -4.56450358e-02f },
      { -6.92535862e-02f, -1.51077107e-01f, -1.24286272e-01f, -1.58997118e-01f, -2.04114154e-01f },
      { -1.91285074e-01f, -2.84437388e-01f, -2.57550418e-01f, -3.54539663e-01f, -4.00464624e-01f },
      { -7.05345720e-02f, -7.47794658e-02f, -3.25568259e-01f, -3.99182826e-01f, -4.79134053e-01f },
      { 5.99288940e-02f, -1.40273534e-02f, -1.91538543e-01f, -3.26434582e-01f, -3.33982259e-01f },
    },
    {
      { 1.73472434e-01f, 2.63556749e-01f, 3.21628809e-01f, 1.95032895e-01f, 3.13778594e-02f },
      { 1.00138314e-01f, 1.65066451e-01f, 1.17592998e-01f, 1.65144086e-01f, 2.80550290e-02f },
      { -4.43993583e-02f, -4.78405468e-02f, -5.79186454e-02f, -1.49083575e-02f, -1.62414476e-01f },
      { 1.36459365e-01f, -3.61933075e-02f, -4.55709137e-02f, -1.02992274e-01f, -2.80088216e-01f },
      { 1.19294599e-01f, 3.28424685e-02f, 6.05359189e-02f, -1.41723603e-01f, -2.43122667e-01f },
    },
    {
      { 2.56215334e-01f, 2.59019285e-01f, 3.34226072e-01f, 2.93283969e-01f, 2.45269865e-01f },
      { 5.71517311e-02f, 8.86036754e-02f, 1.35626420e-01f, 2.13730529e-01f, 7.94502497e-02f },
      { 1.36689218e-02f, -5.97452968e-02f, -3.89700476e-03f, 4.06950824e-02f, -2.24533398e-02f },
      { 1.19164787e-01f, 4.79181968e-02f, 5.69704808e-02f, -4.23477292e-02f, 6.52731955e-02f },
      { 2.23055780e-01f, 2.52400130e-01f, 7.65230134e-02f, 1.64186776e-01f, 1.31117320e-02f },
    },
  },
  {
    {
      { 9.49179009e-02f, -8.07212889e-02f, -6.55950680e-02f, -7.09210485e-02f, 1.00225821e-01f },
      { 7.98812136e-02f, -1.20820172e-01f, 1.99330654e-02f, 7.55583271e-02f, 1.66582599e-01f },
      { -1.13683261e-01f, -8.00689459e-02f, 7.39691108e-02f, 2.41590306e-01f, 1.97571740e-01f },
      { -7.96243828e-03f, -1.26897901e-01f, 2.28139032e-02f, 2.89483398e-01f, 2.24704310e-01f },
      { 6.47232961e-03f, -8.80548209e-02f, 5.78302294e-02f, 9.39461365e-02f, 1.79578289e-01f },
    },
    {
      { -1.21592410e-01f, -1.18175820e-01f, -1.43199772e-01f, 1.19773939e-01f, 1.98415965e-01f },
      { -1.36239767e-01f, -3.42369735e-01f, -1.24841668e-01f, 1.50501490e-01f, 1.77510336e-01f },
      { -1.81603730e-01f, -1.97371915e-01f, -7.10465759e-02f, 1.59731314e-01f, 2.93903828e-01f },
      { -2.11234584e-01f, -2.24425212e-01f, 4.27212613e-03f, 2.30745390e-01f, 2.67251283e-01f },
      { -2.89183140e-01f, -2.39433706e-01f, 7.75148794e-02f, 1.79768175e-01f, 2.30395570e-01f },
    },
    {
      { -1.04991756e-01f, -1.16374142e-01f, -2.36492082e-01f, 4.45505157e-02f, 1.21374115e-01f },
      { -1.33909374e-01f, -3.64491343e-01f, -8.54224190e-02f, 1.47810951e-01f, 1.81657001e-01f },
      { -1.94947258e-01f, -3.13186586e-01f, 7.11476430e-02f, 1.57209188e-01f, 1.45913437e-01f },
      { -2.13004947e-01f, -2.95634836e-01f, 1.20405875e-01f, 1.75661579e-01f, 6.38758391e-02f },
      { -3.08517367e-01f, -2.49190986e-01f, 4.36232053e-02f, 1.71739236e-01f, 1.83313742e-01f },
    },
  },
  {
    {
      { 1.64950758e-01f, 1.41630769e-01f, 1.49120182e-01f, 2.00294018e-01f, 9.90557298e-02f },
      { 8.23895726e-03f, 1.15461074e-01f, 1.60892352e-01f, 2.30283797e-01f, 1.55518934e-01f },
      { -4.34765890e-02f, 7.27571547e-02f, 1.79950759e-01f, 1.44853890e-01f, 5.34113273e-02f },
      { 6.11456037e-02f, 1.93612631e-02f, 1.69528965e-02f, 7.95374811e-02f, 5.36932275e-02f },
      { 1.74589753e-01f, 1.87040512e-02f, 1.14859425e-01f, 7.79833719e-02f, 3.88168991e-02f },
    },
    {
      { -2.50981376e-02f, -1.50426969e-01f, 3.64934430e-02f, 1.00688010e-01f, 2.12759808e-01f },
      { -1.42999783e-01f, -9.83628035e-02f, 9.21167061e-02f, 1.93453729e-01f, 8.09265301e-02f },
      { -2.35194579e-01f, -2.09953859e-01f, 2.90956646e-02f, 7.13469600e-03f, 5.38905747e-02f },
      { -1.49643898e-01f, -9.42455381e-02f, -1.15137130e-01f, -7.34693855e-02f, -9.52406228e-02f },
      { 6.09175004e-02f, -8.39973390e-02f, -1.36504844e-01f, -3.52336206e-02f, -6.32232055e-02f },
    },
    {
      { -1.72689408e-01f, -2.03091025e-01f, 2.87728221e-03f, 1.38540104e-01f, 1.08346201e-01f },
      { -1.67477310e-01f, -2.17512310e-01f, -1.00027854e-02f, 1.60446122e-01f, 4.05003037e-03f },
      { -2.94679970e-01f, -2.95260161e-01f, -1.38942599e-01f, 1.05139380e-03f, 1.46016851e-02f },
      { -1.12186983e-01f, -1.63544759e-01f, -1.51592329e-01f, -1.24638073e-01f, -1.86046824e-01f },
      { 2.47235056e-02f, -1.51712462e-01f, -3.14779170e-02f, -6.29298165e-02f, -7.07357377e-02f },
    },
  },
  {
    {
      { -7.36401007e-02f, -1.18811298e-02f, -4.05146703e-02f, 1.37302190e-01f, 1.02567166e-01f },
      { -4.39359210e-02f, -1.43257543e-01f, 1.85608566e-02f, 1.06986396e-01f, 1.24691144e-01f },
      { -1.82644278e-01f, -1.89092726e-01f, 1.68156717e-02f, 6.39723539e-02f, 1.19093349e-02f },
      { -2.96818048e-01f, -3.09220612e-01f, -3.03230196e-01f, -1.18099816e-01f, -3.31265777e-02f },
      { -2.28495002e-01f, -3.23400289e-01f, -3.50619167e-01f, -1.86664224e-01f, -1.23617820e-01f },
    },
    {
      { 6.05946779e-02f, -5.32781072e-02f, 8.72521177e-02f, 1.49871334e-01f, 1.69903144e-01f },
      { -6.21670000e-02f, 3.23030502e-02f, 9.93786231e-02f, 1.02867961e-01f, 1.39520347e-01f },
      { -9.06827822e-02f, 4.70853895e-02f, 4.62984517e-02f, 1.68074176e-01f, 1.19712532e-01f },
      { -1.50025010e-01f, -1.44704983e-01f, -5.96801750e-02f, 6.88741803e-02f, 1.46446332e-01f },
      { -6.33988827e-02f, -1.16883814e-01f, -1.99327871e-01f, -1.80605367e-01f, -4.43819650e-02f },
    },
    {
      { 2.43329648e-02f, -1.05739885e-03f, 6.32095560e-02f, 2.00878099e-01f, 1.10986263e-01f },
      { 1.25991300e-01f, 1.03629485e-01f, 2.13274121e-01f, 1.57241166e-01f, 1.51164770e-01f },
      { 1.02069177e-01f, 5.65089360e-02f, 2.38536432e-01f, 1.84161693e-01f, 2.31130585e-01f },
      { 8.93981662e-03f, -5.89550361e-02f, 4.82706074e-03f, 9.76208895e-02f, 1.85572684e-01f },
      { 4.22653183e-03f, -1.77549683e-02f, 3.23302019e-03f, 3.65243219e-02f, -3.69172916e-02f },
    },
  },
  {
    {
      { -1.53037030e-02f, 1.66852087e-01f, 3.04447234e-01f, -1.18306674e-01f, -3.21069598e-01f },
      { 6.96561784e-02f, 3.67824495e-01f, 3.89967501e-01f, -4.98847514e-02f, -3.04285675e-01f },
      { 1.37437090e-01f, 2.66680688e-01f, 3.57088149e-01f, -1.56285420e-01f, -3.53115290e-01f },
      { -6.14592666e-03f, 2.04635650e-01f, 2.40989432e-01f, -1.79569706e-01f, -3.33880484e-01f },
      { 1.26310298e-03f, 9.60774645e-02f, 1.06079213e-01f, -2.34228909e-01f, -3.38296413e-01f },
    },
    {
      { -4.48444933e-02f, 2.15571865e-01f, 2.78165400e-01f, -5.11544757e-02f, -3.29164714e-01f },
      { -8.39250460e-02f, 3.06625158e-01f, 2.90500015e-01f, -1.39129713e-01f, -3.58082056e-01f },
      { 2.29292689e-03f, 3.06393832e-01f, 2.66439766e-01f, -4.07882594e-02f, -3.40835065e-01f },
      { 3.15793939e-02f, 1.69932365e-01f, 2.60409504e-01f, -9.88661647e-02f, -1.74265176e-01f },
      { -1.14353225e-01f, 9.27235931e-02f, 1.44119948e-01f, -1.70817420e-01f, -1.72083467e-01f },
    },
    {
      { -1.41484708e-01f, 7.54609779e-02f, 1.88163042e-01f, -1.89608485e-01f, -3.77990007e-01f },
      { -1.52199283e-01f, 1.46710306e-01f, 2.87757605e-01f, -1.08340517e-01f, -3.62500995e-01f },
      { -1.35474041e-01f, 3.09130073e-01f, 2.96054572e-01f, -6.77296370e-02f, -2.28306070e-01f },
      { -1.30702004e-01f, 2.62783974e-01f, 2.43123278e-01f, -1.26016334e-01f, -1.68091536e-01f },
      { -1.41590714e-01f, 8.04544613e-02f, 4.31860723e-02f, -1.28646821e-01f, -1.47204399e-01f },
    },
  },
  {
    {
      { 1.89780727e-01f, 2.48323739e-01f, 1.43749699e-01f, 4.78773713e-02f, -1.88756406e-01f },
      { 1.72615334e-01f, 1.83991209e-01f, 1.24441959e-01f, -1.21054187e-01f, -1.68491453e-01f },
      { 1.52348995e-01f, 2.95168161e-01f, 9.53737274e-02f, -2.89690137e-01f, -3.19728762e-01f },
      { -4.12440207e-03f, 9.61347371e-02f, -7.73502365e-02f, -3.76953065e-01f, -3.73471588e-01f },
      { -1.91211835e-01f, -1.74722403e-01f, -2.41524801e-01f, -3.69377196e-01f, -4.18630868e-01f },
    },
    {
      { 2.38881424e-01f, 3.50377679e-01f, 2.27937415e-01f, 1.33181009e-02f, -1.20398894e-01f },
      { 3.66340160e-01f, 3.35002959e-01f, 3.32626760e-01f, -6.94167316e-02f, -2.32611760e-01f },
      { 1.91134527e-01f, 3.19966912e-01f, 2.06291065e-01f, -1.81845531e-01f, -3.85758281e-01f },
      { 1.87389970e-01f, 2.25023597e-01f, 2.99412832e-02f, -1.99210271e-01f, -4.07870501e-01f },
      { -1.27222436e-02f, -3.95341255e-02f, -1.60644323e-01f, -2.74588704e-01f, -3.03529173e-01f },
    },
    {
      { 1.20950006e-01f, 1.67754069e-01f, 1.04229495e-01f, -6.05140999e-02f, -1.27483577e-01f },
      { 2.56864965e-01f, 2.58000076e-01f, 2.90425003e-01f, 1.53083885e-02f, -1.17242880e-01f },
      { 2.46815309e-01f, 3.59955341e-01f, 2.59233505e-01f, -1.93150550e-01f, -2.84075767e-01f },
      { 5.97739294e-02f, 2.83498496e-01f, 1.77378371e-01f, -2.56740481e-01f, -2.65849173e-01f },
      { -7.75422677e-02f, 4.00287658e-02f, -2.21824157e-03f, -2.07229063e-01f, -1.68803751e-01f },
    },
  },
  {
    {
      { -9.30609107e-02f, -1.88814029e-01f, -3.90783280e-01f, -1.59762129e-02f, 9.33352634e-02f },
      { -1.83525356e-03f, -2.08733678e-01f, -5.40218949e-01f, -3.04406047e-01f, -6.37087449e-02f },
      { 2.17744231e-01f, 1.29841164e-01f, -2.79214501e-01f, -2.70308644e-01f, -1.89449310e-01f },
      { 3.42884630e-01f, 3.14736038e-01f, -9.65230986e-02f, -5.53337783e-02f, -6.35742545e-02f },
      { 4.42072958e-01f, 2.82856315e-01f, 2.29548849e-02f, -1.31362081e-01f, 2.62198001e-02f },
    },
    {
      { -2.03093722e-01f, -3.13398033e-01f, -3.94507080e-01f, 2.18070671e-02f, 1.17641509e-01f },
      { -4.49938588e-02f, -2.70908058e-01f, -5.31654835e-01f, -2.55082399e-01f, -7.41020665e-02f },
      { 4.03349787e-01f, 2.02126220e-01f, -1.70675531e-01f, -2.12860718e-01f, -4.92214672e-02f },
      { 4.27398115e-01f, 4.70481545e-01f, -6.26820251e-02f, -1.96690690e-02f, 4.61211465e-02f },
      { 4.90740657e-01f, 3.73752773e-01f, 1.37219146e-01f, -8.24676007e-02f, 5.29653318e-02f },
    },
    {
      { -1.74863830e-01f, -3.50115627e-01f, -2.27603257e-01f, 7.63002411e-02f, 1.86648041e-01f },
      { -8.43774453e-02f, -2.57673711e-01f, -5.19403994e-01f, -1.71248212e-01f, 8.43584985e-02f },
      { 3.28561246e-01f, 2.80247688e-01f, -1.04898944e-01f, -1.75299272e-01f, 3.88653055e-02f },
      { 4.95669186e-01f, 3.33051831e-01f, 4.29927409e-02f, -2.58010346e-02f, 1.91219673e-01f },
      { 4.49866861e-01f, 3.08682054e-01f, 2.60634124e-02f, 4.03978825e-02f, 2.39739418e-01f },
    },
  },
  {
    {
      { 1.14432899e-02f, -9.43849832e-02f, -1.41855732e-01f, -8.69910941e-02f, -3.64667624e-02f },
      { -1.59724534e-01f, -9.57055539e-02f, -8.58036578e-02f, 2.24197619e-02f, -4.79124859e-02f },
      { -1.46273300e-01f, -2.07026199e-01f, -4.97809751e-03f, -2.89068893e-02f, 1.18517369e-01f },
      { -2.84585029e-01f, -2.70931542e-01f, -4.02301475e-02f, -3.03773805e-02f, 1.24038406e-01f },
      { -2.78061390e-01f, -2.32073411e-01f, -1.54594302e-01f, -4.90444200e-03f, 4.02422696e-02f },
    },
    {
      { -5.30184396e-02f, 5.15202954e-02f, 1.30673395e-02f, 6.22364767e-02f, 5.82121946e-02f },
      { -8.59217569e-02f, -8.21672976e-02f, 9.60615948e-02f, 4.10689414e-02f, 1.08494923e-01f },
      { -1.46662995e-01f, -5.89906834e-02f, 4.42349240e-02f, 1.75306484e-01f, 1.08443089e-01f },
      { -1.16290472e-01f, -1.29046604e-01f, 3.10377311e-02f, 1.45005241e-01f, 2.28238821e-01f },
      { -9.89967436e-02f, -5.88950962e-02f, 9.34263226e-03f, 1.83740869e-01f, 1.85271621e-01f },
    },
    {
      { 6.63221180e-02f, 8.94755870e-02f, 2.48415563e-02f, 7.77701959e-02f, 1.01106636e-01f },
      { 3.80475186e-02f, 5.79124987e-02f, 8.08573961e-02f, 1.23935223e-01f, 1.19828433e-02f },
      { 6.04312541e-03f, -3.46960709e-03f, 9.91638005e-02f, 1.68415129e-01f, 7.48013426e-03f },
      { -3.81668881e-02f, 7.21684992e-02f, 1.10382542e-01f, 6.00953028e-02f, 9.30390880e-02f },
      { -6.59679295e-03f, 6.67966977e-02f, 1.08211011e-01f, 6.21705428e-02f, 8.02774653e-02f },
    },
  },
  {
    {
      { 2.18973041e-01f, 2.53597736e-01f, 2.52361149e-01f, 2.46118858e-01f, 1.59289241e-01f },
      { 7.42278174e-02f, 2.72720575e-01f, 1.69099003e-01f, 1.48926780e-01f, 1.34762466e-01f },
      { -8.89743045e-02f, -2.88630202e-02f, 1.80692062e-01f, 1.53874964e-01f, 7.48829469e-02f },
      { -3.29825014e-01f, -2.67124712e-01f, -2.06169322e-01f, -1.98865965e-01f, -2.12337390e-01f },
      { -2.47346938e-01f, -3.00275207e-01f, -3.60787511e-01f, -4.00169551e-01f, -2.42197648e-01f },
    },
    {
      { 2.25837842e-01f, 2.30439320e-01f, 3.48926038e-01f, 2.62534916e-01f, 2.01528952e-01f },
      { 1.55073613e-01f, 3.11853856e-01f, 3.56436163e-01f, 3.36692631e-01f, 1.66081950e-01f },
      { -1.85925707e-01f, -1.52019663e-02f, 2.34596506e-01f, 1.04104869e-01f, 9.75662395e-02f },
      { -4.18399483e-01f, -3.80048394e-01f, -1.56393841e-01f, -2.02761009e-01f, -5.87139353e-02f },
      { -3.04057449e-01f, -3.81829947e-01f, -3.91400248e-01f, -1.68300167e-01f, -7.98242912e-02f },
    },
    {
      { 1.51118249e-01f, 2.77358145e-01f, 2.38031879e-01f, 1.43184766e-01f, 1.99420735e-01f },
      { 7.24719390e-02f, 2.02367753e-01f, 2.77670145e-01f, 1.50475889e-01f, 1.75535053e-01f },
      { -1.37592643e-01f, 1.27790287e-01f, 1.12807676e-01f, 9.16074365e-02f, 8.68677795e-02f },
      { -2.62097657e-01f, -3.25836509e-01f, -2.57208943e-01f, -1.74041465e-01f, 1.16712172e-02f },
      { -1.40517518e-01f, -2.63258547e-01f, -2.06259444e-01f, -9.73333865e-02f, -4.47931886e-02f },
    },
  },
  {
    {
      { -1.45630226e-01f, -3.47032905e-01f, -3.34125161e-01f, -2.74492711e-01f, -1.38899595e-01f },
      { -2.95349836e-01f, -3.40517402e-01f, -3.20385367e-01f, -2.04106942e-01f, -1.70812398e-01f },
      { -1.53133526e-01f, -4.98971380e-02f, -6.08254895e-02f, -8.48217234e-02f, 3.33135612e-02f },
      { -3.77460122e-02f, 2.75697350e-03f, 9.92899239e-02f, 7.52428845e-02f, 1.30471125e-01f },
      { 1.03414685e-01f, 2.93393321e-02f, 2.58575808e-02f, 1.64922699e-01f, 1.81866005e-01f },
    },
    {
      { -1.81853935e-01f, -1.70887768e-01f, -2.14381456e-01f, -1.70472607e-01f, -1.17280826e-01f },
      { -9.07524303e-02f, -1.92515641e-01f, -4.13847119e-02f, -1.20145911e-02f, 2.26065367e-02f },
      { -5.87734245e-02f, 7.65748844e-02f, 1.03951387e-01f, 1.06329128e-01f, -6.14022277e-03f },
      { 5.50841130e-02f, 1.64219290e-01f, 1.98807701e-01f, 1.26428932e-01f, 1.41364485e-01f },
      { 1.29390016e-01f, 6.83068559e-02f, 1.56059727e-01f, 1.93882346e-01f, 2.48465817e-02f },
    },
    {
      { 4.32490893e-02f, 8.61078724e-02f, 8.10492039e-02f, 7.04379603e-02f, 9.99042466e-02f },
      { 5.82343675e-02f, -9.19532925e-02f, -4.64155227e-02f, 1.43651040e-02f, -2.90158372e-02f },
      { 5.03741428e-02f, 1.75381750e-01f, 1.44972637e-01f, 8.79905075e-02f, 8.49892870e-02f },
      { 2.36717656e-01f, 1.33712783e-01f, 1.87735587e-01f, 1.38790712e-01f, 1.19691312e-01f },
      { 1.74507797e-01f, 1.19192667e-01f, 6.75010756e-02f, 1.71081185e-01f, 3.56293097e-02f },
    },
  },
  {
    {
      { -2.71230131e-01f, -2.56671071e-01f, -2.25168526e-01f, -9.34505686e-02f, -8.11555758e-02f },
      { -2.40167186e-01f, -8.07759464e-02f, -2.20878899e-01f, -9.75118801e-02f, -1.67528078e-01f },
      { -9.06310156e-02f, 4.62823883e-02f, 1.58791766e-02f, -1.82219341e-01f, -2.28010878e-01f },
      { 5.54178394e-02f, 4.27246876e-02f, -3.92421223e-02f, -1.42603517e-01f, -1.82386383e-01f },
      { 4.69998457e-02f, 6.51961565e-02f, -2.72751637e-02f, -1.28374323e-01f, -1.84871599e-01f },
    },
    {
      { -1.11038968e-01f, -9.94475260e-02f, -1.27257630e-01f, -8.17242861e-02f, 7.09972158e-02f },
      { -1.01666404e-02f, 9.20770690e-02f, 2.74651330e-02f, -1.13228977e-01f, -2.49026362e-02f },
      { 1.22560352e-01f, 2.20994875e-01f, 1.59245968e-01f, -1.00126222e-01f, -1.87071681e-01f },
      { 1.88690737e-01f, 2.77602524e-01f, 1.68192342e-01f, 2.86537316e-02f, -1.05543002e-01f },
      { 2.03377113e-01f, 2.55495071e-01f, 2.16031998e-01f, 5.84379025e-02f, -1.93421364e-01f },
    },
    {
      { 3.49919163e-02f, 5.48574375e-03f, -1.37011316e-02f, 9.82872248e-02f, 1.07877702e-01f },
      { 1.19922282e-02f, 6.46004453e-02f, 9.21498537e-02f, 1.26117039e-02f, 7.52685145e-02f },
      { 1.41508952e-01f, 1.09001383e-01f, 6.17998056e-02f, 4.16012742e-02f, -8.78958330e-02f },
      { 5.70632108e-02f, 1.25292391e-01f, 1.06059313e-01f, 8.87315497e-02f, -9.79188681e-02f },
      { 1.39942870e-01f, 1.56538442e-01f, 1.93667173e-01f, 5.88407964e-02f, -1.25870541e-01f },
    },
  },
  {
    {
      { -9.14085843e-03f, 2.77781524e-02f, -7.48456419e-02f, -2.20117003e-01f, -1.80060387e-01f },
      { -2.19432209e-02f, 5.71904890e-02f, -2.11654991e-01f, -5.52282751e-01f, -3.98525596e-01f },
      { 1.65992603e-01f, 2.32806116e-01f, 1.78309623e-02f, -3.59138072e-01f, -4.09907252e-01f },
      { 2.94941217e-01f, 3.31336498e-01f, 2.57745773e-01f, -1.41435921e-01f, -2.28860512e-01f },
      { 1.94798395e-01f, 3.71526897e-01f, 1.37265503e-01f, -1.16728462e-01f, -2.02302501e-01f },
    },
    {
      { 9.02736336e-02f, 2.14479249e-02f, -1.05416037e-01f, -1.40647069e-01f, -8.80180150e-02f },
      { 2.06478521e-01f, 1.70566112e-01f, -1.32514730e-01f, -4.73062038e-01f, -4.68301713e-01f },
      { 2.90479362e-01f, 3.87506515e-01f, 1.59655482e-01f, -1.98593974e-01f, -4.02465671e-01f },
      { 3.20680708e-01f, 3.53647828e-01f, 2.39279628e-01f, -3.56823131e-02f, -1.51845962e-01f },
      { 2.63138175e-01f, 3.16821635e-01f, 2.52831638e-01f, 4.94146952e-04f, -9.63656157e-02f },
    },
    {
      { 9.25788954e-02f, 1.05934680e-01f, 7.89891332e-02f, -1.02115333e-01f, -1.30155729e-03f },
      { 2.16476731e-02f, 2.38624718e-02f, -8.02721083e-02f, -3.73274863e-01f, -3.27874213e-01f },
      { 1.93910107e-01f, 2.52359152e-01f, 5.91213852e-02f, -1.07981004e-01f, -1.08595885e-01f },
      { 2.23203316e-01f, 3.04030418e-01f, 2.79847831e-01f, -4.01466265e-02f, 1.53645119e-02f },
      { 9.83197242e-02f, 1.86941162e-01f, 5.80809265e-02f, -5.09867184e-02f, -1.00193262e-01f },
    },
  },
  {
    {
      { -8.61895680e-02f, -4.83165681e-02f, -7.76863620e-02f, 1.43183861e-02f, 5.07116057e-02f },
      { 4.74168807e-02f, -1.81274638e-02f, -3.65038365e-02f, 1.90054215e-02f, 4.60289270e-02f },
      { -4.80829403e-02f, -2.26826351e-02f, -1.86681356e-02f, -1.12298718e-02f, -8.64296928e-02f },
      { 7.32282028e-02f, -8.28792676e-02f, 3.27030867e-02f, -7.84061253e-02f, -2.53060255e-02f },
      { -4.49475311e-02f, -6.93521723e-02f, 7.29120150e-02f, 5.57385907e-02f, 6.72102273e-02f },
    },
    {
      { 6.25049770e-02f, -4.29146476e-02f, -2.84887142e-02f, 6.31399378e-02f, -4.63016927e-02f },
      { 3.67137492e-02f, -3.25501040e-02f, 1.86424404e-02f, 1.38887735e-02f, -4.36949208e-02f },
      { -7.40294233e-02f, 1.78954490e-02f, 1.87402777e-03f, -7.64398798e-02f, -6.96619451e-02f },
      { -2.05852482e-02f, 7.15826303e-02f, 7.31713623e-02f, -5.90548553e-02f, -8.38697255e-02f },
      { -8.14460739e-02f, -7.71639645e-02f, 8.66092928e-03f, -9.64014791e-03f, 4.09847610e-02f },
    },
    {
      { -2.71051843e-02f, -1.98880304e-02f, 1.50551470e-02f, 2.94640493e-02f, 3.77776548e-02f },
      { -3.58798839e-02f, 1.64380539e-02f, -3.22440900e-02f, -5.12669124e-02f, -3.04508731e-02f },
      { -8.27172771e-02f, -4.47651260e-02f, 2.01996807e-02f, 5.77930883e-02f, 5.94520569e-02f },
      { 9.38679185e-03f, -4.03048843e-02f, -3.60222571e-02f, -7.80867562e-02f, -8.75980482e-02f },
      { 7.23241270e-02f, 6.60675438e-03f, -8.00721720e-02f, -8.39562267e-02f, -4.96684276e-02f },
    },
  },
  {
    {
      { -2.25891963e-01f, -7.34628290e-02f, -1.09490037e-01f, -2.08942499e-02f, -1.08105883e-01f },
      { -1.59782156e-01f, -7.21766278e-02f, 7.14414418e-02f, 7.35574886e-02f, -1.48339286e-01f },
      { -5.71095124e-02f, 1.09032281e-02f, 5.43842763e-02f, 5.43805249e-02f, -8.08534324e-02f },
      { 9.89138987e-03f, 1.09956957e-01f, -1.61863677e-02f, 3.97503711e-02f, 1.18281748e-02f },
      { -2.25674137e-02f, 6.47656322e-02f, -9.23782773e-03f, -5.62401153e-02f, 2.11340226e-02f },
    },
    {
      { -5.21779098e-02f, 8.13295692e-02f, 1.22277267e-01f, -1.06913261e-02f, -1.20312668e-01f },
      { 3.72326496e-04f, 1.51867971e-01f, 1.33458182e-01f, 1.67169571e-02f, -1.33616805e-01f },
      { 4.15940173e-02f, 1.40436500e-01f, 1.02513112e-01f, -1.84052289e-02f, -1.47033423e-01f },
      { 7.62822330e-02f, 1.40986115e-01f, 1.15009859e-01f, -1.04115689e-02f, -1.13228604e-01f },
      { -6.95996955e-02f, 1.10399224e-01f, 1.28619403e-01f, 6.50772899e-02f, -3.47754993e-02f },
    },
    {
      { -5.44658350e-03f, -5.50429299e-02f, 2.89256237e-02f, -2.92093866e-02f, -1.66192323e-01f },
      { 5.45311756e-02f, 1.34487554e-01f, 4.24401686e-02f, -5.85235022e-02f, -2.27333650e-01f },
      { 1.47537561e-02f, 1.34839574e-02f, 1.39098326e-02f, 3.11393104e-03f, -2.02698201e-01f },
      { -1.18049737e-02f, 2.85997279e-02f, 6.74145818e-02f, -5.31377457e-02f, -1.11264594e-01f },
      { -7.03696981e-02f, -1.12768240e-01f, -6.91845547e-03f, -1.08438335e-01f, -1.71640322e-01f },
    },
  },
  {
    {
      { 2.61550806e-02f, -1.96889061e-02f, -2.09479667e-02f, 1.03068002e-01f, -7.79203251e-02f },
      { 1.35250911e-01f, 3.83202843e-02f, 1.09780818e-01f, 5.30284606e-02f, 8.32182914e-02f },
      { 1.17209323e-01f, 1.64610311e-01f, 9.18222368e-02f, 9.78933498e-02f, 8.70889202e-02f },
      { 3.23036946e-02f, 1.30223662e-01f, 5.95739260e-02f, 1.14122383e-01f, -6.50785025e-03f },
      { 1.09406121e-01f, 7.42719769e-02f, 1.30378038e-01f, 9.32359770e-02f, 1.31055385e-01f },
    },
    {
      { 5.94115034e-02f, -1.03113744e-02f, 9.14678797e-02f, -7.60786841e-03f, 6.94119930e-02f },
      { 1.08887076e-01f, 1.25497505e-01f, 5.31584248e-02f, 8.80451873e-02f, 7.84238130e-02f },
      { 7.59870112e-02f, 5.15115857e-02f, -8.41314048e-02f, 1.78663060e-02f, 1.53774824e-02f },
      { 1.21544264e-02f, -8.81208926e-02f, -5.73692732e-02f, -1.42654657e-01f, -2.37305053e-02f },
      { 4.37794738e-02f, -6.69068918e-02f, -1.26556829e-01f, -4.91059572e-02f, 8.46343189e-02f },
    },
    {
      { 9.05964803e-03f, -9.21463892e-02f, -3.77424993e-02f, -3.47383544e-02f, 1.84673630e-02f },
      { -4.82318662e-02f, 3.26612219e-02f, -1.26734808e-01f, -6.41605034e-02f, -1.15469985e-01f },
      { -1.21566430e-01f, 1.34676592e-02f, -1.33095294e-01f, -1.95705578e-01f, -1.02942988e-01f },
      { -1.17030032e-01f, -1.11156128e-01f, -1.45087376e-01f, -1.65411994e-01f, -1.92790672e-01f },
      { -1.93430670e-02f, -1.80249617e-01f, -2.33647466e-01f, -2.05244854e-01f, -2.24888343e-02f },
    },
  },
  {
    {
      { -1.12155164e-02f, 8.34984407e-02f, 1.94531924e-03f, 1.71685904e-01f, 1.46128282e-01f },
      { -5.19910976e-02f, 1.16600767e-01f, 2.20567912e-01f, 2.00541884e-01f, 4.53460366e-02f },
      { -9.90658998e-02f, -2.78707035e-02f, 1.03077799e-01f, 2.27024019e-01f, 4.12047021e-02f },
      { -2.57324100e-01f, -7.61684626e-02f, 4.81414124e-02f, -2.19766553e-02f, -1.31206259e-01f },
      { -2.84135550e-01f, -2.92667150e-01f, -2.39219785e-01f, -2.96953708e-01f, -2.83124804e-01f },
    },
    {
      { 1.58542097e-01f, 1.87616110e-01f, 1.81740284e-01f, 2.15381667e-01f, 3.76233608e-02f },
      { 1.11162804e-01f, 1.34626314e-01f, 2.36660212e-01f, 2.21131891e-01f, 1.05592109e-01f },
      { 4.04521525e-02f, 7.41544664e-02f, 2.33381167e-01f, 2.25421801e-01f, 1.04265116e-01f },
      { -2.93359738e-02f, -4.35610600e-02f, 1.22612111e-01f, 5.25084604e-03f, -1.64040640e-01f },
      { -6.98733926e-02f, -1.55940622e-01f, -1.35588378e-01f, -1.38253942e-01f, -2.95965701e-01f },
    },
    {
      { -1.26325432e-02f, 3.85555364e-02f, -2.11197287e-02f, -6.05749413e-02f, -4.04656306e-02f },
      { 1.88168555e-01f, 1.68391973e-01f, 1.29973829e-01f, 1.98713571e-01f, 4.16392088e-02f },
      { 4.20242436e-02f, 9.10140648e-02f, 1.07533872e-01f, 1.50571823e-01f, -7.21775889e-02f },
      { -1.27908960e-01f, 3.52473259e-02f, -5.69017567e-02f, -5.80167808e-02f, -1.60023853e-01f },
      { -1.25981703e-01f, -6.08270578e-02f, -1.21000051e-01f, -2.99550653e-01f, -2.09814116e-01f },
    },
  },
  {
    {
      { 7.87234828e-02f, 8.24672356e-02f, 2.31090765e-02f, 4.14779149e-02f, -3.77163813e-02f },
      { 1.95201889e-01f, 2.27575973e-01f, 3.73167433e-02f, 1.99163958e-01f, 1.26189038e-01f },
      { 1.22211345e-01f, 1.77154243e-01f, 6.08434938e-02f, 1.61214709e-01f, 1.26475751e-01f },
      { -9.14409980e-02f, -4.05066125e-02f, -1.44661143e-01f, -1.30763024e-01f, 7.12682977e-02f },
      { -8.35932344e-02f, -3.54147330e-02f, -2.49396954e-02f, 7.80568505e-03f, 8.21451619e-02f },
    },
    {
      { 1.20380938e-01f, 4.65192162e-02f, 4.98989522e-02f, -2.81609315e-02f, 8.35051090e-02f },
      { 1.94447979e-01f, 1.69792682e-01f, 1.79293215e-01f, 7.78775364e-02f, 1.07392654e-01f },
      { 6.13645725e-02f, 8.47645402e-02f, 6.25333712e-02f, 1.65779352e-01f, 1.57695547e-01f },
      { -2.55111963e-01f, -2.17974991e-01f, -1.48980960e-01f, -2.15486273e-01f, -2.27691438e-02f },
      { -2.49130577e-01f, -2.57591993e-01f, -2.45763019e-01f, -2.15361044e-01f, -9.06837583e-02f },
    },
    {
      { 1.28108203e-01f, 1.03819363e-01f, -2.33000852e-02f, 1.22708306e-02f, 8.10221657e-02f },
      { 6.46097809e-02f, 1.92029670e-01f, 1.08677391e-02f, 1.27487004e-01f, 1.25477508e-01f },
      { 7.41780922e-02f, 1.06518649e-01f, 1.18293501e-01f, 1.01006225e-01f, 3.96118639e-03f },
      { -2.84643561e-01f, -1.92304909e-01f, -1.90325573e-01f, -2.39974856e-01f, -1.62895471e-01f },
      { -1.86367109e-01f, -2.15895221e-01f, -1.41267583e-01f, -1.57997966e-01f, -3.00352257e-02f },
    },
  },
  {
    {
      { 1.16059102e-01f, 1.44559711e-01f, 1.61745355e-01f, 1.20904617e-01f, 1.08389191e-01f },
      { 1.50128752e-01f, 5.87869324e-02f, 5.21550030e-02f, 9.79024917e-02f, 1.50651529e-01f },
      { 1.09340779e-01f, 1.39866427e-01f, 1.09928265e-01f, 1.16280884e-01f, 5.71597777e-02f },
      { 5.00353090e-02f, 1.86086953e-01f, 1.73880175e-01f, 4.53381911e-02f, 2.75665652e-02f },
      { -1.41521217e-02f, 1.38119251e-01f, 1.20700948e-01f, -1.27313966e-02f, 5.64968288e-02f },
    },
    {
      { 1.01463169e-01f, -1.33624077e-01f, -1.15831368e-01f, -2.68781837e-02f, 1.29481301e-01f },
      { -1.27514213e-01f, -8.06966573e-02f, -1.87506884e-01f, 4.37473357e-02f, 6.54499307e-02f },
      { -7.10708946e-02f, 2.89133680e-03f, -9.93868113e-02f, -3.30915041e-02f, -3.70007232e-02f },
      { 6.20379075e-02f, 8.77121165e-02f, -1.67390693e-03f, 4.77763563e-02f, 8.07420760e-02f },
      { 4.99639101e-02f, 1.12006299e-01f, 5.80993034e-02f, -3.46249416e-02f, -1.82181653e-02f },
    },
    {
      { 3.41070108e-02f, -2.41581470e-01f, -1.87723890e-01f, 2.25598016e-03f, 8.26241001e-02f },
      { -1.14894375e-01f, -3.42891455e-01f, -2.52014965e-01f, -1.76174492e-01f, 2.64696032e-02f },
      { -5.65202571e-02f, -2.02446699e-01f, -2.00742364e-01f, -1.47517130e-01f, 4.93360031e-03f },
      { -1.22996941e-02f, -6.87751696e-02f, -1.08103408e-02f, -1.53486049e-02f, -4.88774031e-02f },
      { -8.90071783e-03f, -9.09002721e-02f, 1.42197507e-02f, -5.03925607e-03f, -5.10821491e-02f },
    },
  },
  {
    {
      { -2.01680228e-01f, -2.33292624e-01f, -3.74996185e-01f, -3.77676815e-01f, -2.67828584e-01f },
      { -2.61707008e-01f, -3.19141507e-01f, -1.41789466e-01f, -1.55504212e-01f, -9.34968367e-02f },
      { -1.25530779e-01f, -4.44535799e-02f, 1.28407434e-01f, 2.14475989e-02f, 1.47275224e-01f },
      { 1.11011704e-02f, 6.17288388e-02f, 2.10036814e-01f, 1.98938295e-01f, 1.03223905e-01f },
      { -1.24971397e-01f, 4.22431789e-02f, 1.37709439e-01f, 5.35750166e-02f, -3.59726772e-02f },
    },
    {
      { -2.71106660e-01f, -3.12003016e-01f, -2.68068373e-01f, -3.34015131e-01f, -1.44644052e-01f },
      { -1.94505408e-01f, -1.20046586e-01f, 7.30695650e-02f, 9.87438858e-02f, -1.91985574e-02f },
      { -2.72691902e-02f, 7.78552070e-02f, 3.34645212e-01f, 2.23885134e-01f, 2.01788336e-01f },
      { 7.08496943e-02f, 2.16038749e-01f, 3.34301919e-01f, 2.94743389e-01f, 2.63037115e-01f },
      { -5.20045049e-02f, 1.50744155e-01f, 1.71085984e-01f, 1.63180515e-01f, 8.76303539e-02f },
    },
    {
      { -1.52296811e-01f, -1.71045303e-01f, -2.76572734e-01f, -2.22603008e-01f, -2.77553111e-01f },
      { -2.36452207e-01f, -7.41251409e-02f, -6.66076643e-03f, -1.67724937e-02f, -6.06997497e-02f },
      { -9.96628553e-02f, 1.56299070e-01f, 2.72043616e-01f, 2.47650251e-01f, 1.77590623e-01f },
      { -5.83805293e-02f, 2.48887002e-01f, 2.21407369e-01f, 2.44011968e-01f, 1.80956066e-01f },
      { -1.57253537e-02f, 7.05006942e-02f, 2.16919079e-01f, 1.82721987e-01f, 9.35652554e-02f },
    },
  },
  {
    {
      { -1.63285777e-01f, -1.68113679e-01f, -2.36691937e-01f, -1.83896810e-01f, -2.07636759e-01f },
      { -1.57540008e-01f, -2.52987921e-01f, -2.21491888e-01f, -1.81397304e-01f, -2.51719598e-02f },
      { -8.95534381e-02f, -8.96465033e-02f, -9.69792977e-02f, 1.38235679e-02f, 1.60108805e-01f },
      { -3.09093278e-02f, -5.24019636e-02f, 1.14196070e-01f, 1.31805733e-01f, 3.23181689e-01f },
      { 1.64347496e-02f, 9.68967304e-02f, 2.05346391e-01f, 3.55447680e-01f, 4.44971681e-01f },
    },
    {
      { -1.36122450e-01f, -9.09477696e-02f, -1.64972529e-01f, -1.93107024e-01f, -2.56450355e-01f },
      { -2.17722896e-02f, -1.22213341e-01f, -1.64809465e-01f, -9.34884772e-02f, -6.29591048e-02f },
      { 1.62692685e-02f, -2.25211796e-03f, 1.89890992e-02f, -9.48709175e-02f, -2.36985683e-02f },
      { 3.93229574e-02f, 1.05114147e-01f, 4.42015566e-02f, 1.63885653e-01f, 1.54958040e-01f },
      { -6.00598641e-02f, 2.96048485e-02f, 1.13162495e-01f, 2.90623456e-01f, 3.97615582e-01f },
    },
    {
      { -1.41161621e-01f, -2.05821902e-01f, -2.26868823e-01f, -1.30070791e-01f, -1.34174392e-01f },
      { -8.18763822e-02f, -2.94061899e-02f, -2.11039737e-01f, -1.48621768e-01f, -4.69146222e-02f },
      { 4.04757150e-02f, 1.41295604e-02f, -6.63824826e-02f, -8.23561326e-02f, -4.43038298e-03f },
      { -5.34161143e-02f, 1.65817812e-02f, 5.18056490e-02f, 1.04938321e-01f, 1.54928386e-01f },
      { -4.91764657e-02f, 5.92664219e-02f, 1.52619198e-01f, 1.71103641e-01f, 3.41172963e-01f },
    },
  },
  {
    {
      { -1.30982414e-01f, -1.45587400e-01f, -5.72225042e-02f, -8.41492563e-02f, -9.53724608e-02f },
      { -1.79512858e-01f, -1.21503569e-01f, -1.20380186e-01f, -8.95218328e-02f, -1.02351442e-01f },
      { -1.07670493e-01f, -1.97200641e-01f, -1.47567987e-01f, -5.26328757e-02f, 3.39410938e-02f },
      { -3.97983156e-02f, -5.36365248e-02f, -1.04797304e-01f, 4.33025658e-02f, 4.80775088e-02f },
      { -9.09844115e-02f, -1.08786181e-01f, -3.87369394e-02f, -5.26996106e-02f, 3.80683094e-02f },
    },
    {
      { -8.56914441e-04f, -6.21722965e-03f, 6.24356009e-02f, -8.10657814e-03f, -3.48753333e-02f },
      { 4.36469577e-02f, -1.09861359e-01f, -2.44761296e-02f, 7.59380236e-02f, 2.90494040e-02f },
      { -8.63250419e-02f, -6.44222572e-02f, 4.23831716e-02f, 7.03720301e-02f, -1.09103583e-02f },
      { -6.63584396e-02f, -2.18501016e-02f, -6.37468509e-03f, -5.84974885e-02f, -2.99962182e-02f },
      { 2.71756090e-02f, 1.19055025e-02f, -4.16424237e-02f, 2.31529865e-02f, -1.18025556e-01f },
    },
    {
      { 1.64831802e-01f, 1.25648409e-01f, 5.36354855e-02f, 1.10389620e-01f, 3.08225863e-02f },
      { 1.16148517e-01f, 9.63379368e-02f, 5.32164425e-02f, 2.12664832e-03f, 6.36665523e-02f },
      { 1.64702818e-01f, 1.28957376e-01f, 9.52467918e-02f, -7.12180324e-03f, -2.83434633e-02f },
      { 1.40274644e-01f, 1.56610515e-02f, 2.31799833e-03f, 5.98656684e-02f, -2.44445540e-02f },
      { 1.46813095e-01f, 1.23711608e-01f, 3.86951976e-02f, -1.08194137e-02f, -5.77960014e-02f },
    },
  },
  {
    {
      { -3.30962062e-01f, -1.62596732e-01f, -8.36270824e-02f, -1.96924180e-01f, -1.68109193e-01f },
      { -1.86615452e-01f, -1.74512472e-02f, 7.72274584e-02f, -1.22665755e-01f, -3.42392087e-01f },
      { -1.80853922e-02f, 1.11611106e-01f, 1.51785657e-01f, -6.12951145e-02f, -3.89933884e-01f },
      { -9.34348255e-02f, 1.99703634e-01f, 9.08275470e-02f, -5.78196384e-02f, -1.77490801e-01f },
      { 5.00938334e-02f, 1.54624552e-01f, 1.25667214e-01f, -9.61913615e-02f, -1.95698917e-01f },
    },
    {
      { 6.96969256e-02f, 1.77695796e-01f, 1.14602894e-01f, -2.93266904e-02f, -1.41197905e-01f },
      { -1.25268921e-02f, 2.33787477e-01f, 1.85558736e-01f, 1.23918556e-01f, -3.01160991e-01f },
      { 1.62947446e-01f, 2.69736290e-01f, 3.49056304e-01f, 8.88788477e-02f, -3.47908646e-01f },
      { 1.44295543e-01f, 2.56825536e-01f, 3.43235284e-01f, 8.94604772e-02f, -1.08716972e-01f },
      { 1.54445440e-01f, 1.15894176e-01f, 2.15551794e-01f, -1.20975301e-02f, -2.34047957e-02f },
    },
    {
      { -1.74011174e-03f, 3.94703634e-02f, 5.19507937e-02f, -7.00467303e-02f, -6.50396720e-02f },
      { -7.77900219e-02f, 1.19583786e-01f, 2.17990413e-01f, 2.72953492e-02f, -2.28623495e-01f },
      { -1.45314457e-02f, 2.07222417e-01f, 2.37846062e-01f, 3.76666151e-02f, -3.77699554e-01f },
      { 2.79797670e-02f, 1.54643133e-01f, 1.49603948e-01f, 5.93609526e-04f, -2.41369650e-01f },
      { -1.13217853e-01f, 4.78146747e-02f, 7.41429329e-02f, -1.07470594e-01f, -1.97432488e-01f },
    },
  },
  {
    {
      { 1.86341897e-01f, 6.17163926e-02f, 1.09157436e-01f, -1.33821671e-03f, -6.40035644e-02f },
      { 9.97428671e-02f, 1.10572025e-01f, 7.73207471e-02f, 1.13655962e-01f, 1.28785276e-03f },
      { 3.28673609e-02f, 9.24678668e-02f, -6.02379404e-02f, -3.98492813e-02f, -1.14756152e-01f },
      { -2.78483361e-01f, -2.98886269e-01f, -2.23450258e-01f, -2.61437058e-01f, -2.08405614e-01f },
      { -1.54145315e-01f, -2.77513504e-01f, -2.49005839e-01f, -2.01010868e-01f, -1.27659902e-01f },
    },
    {
      { 2.01499641e-01f, 2.69181848e-01f, 1.73597679e-01f, 1.25804618e-01f, 1.43374175e-01f },
      { 1.64873853e-01f, 2.32376635e-01f, 2.61913776e-01f, 1.95978642e-01f, 1.72807112e-01f },
      { 4.75322716e-02f, 1.27223819e-01f, 1.42032191e-01f, 9.55139920e-02f, 7.85149261e-02f },
      { -2.94930845e-01f, -1.86680630e-01f, -9.77711156e-02f, -7.04883784e-02f, -1.77662224e-02f },
      { -7.99027979e-02f, -2.41257116e-01f, -1.49003223e-01f, -1.28543988e-01f, -3.74800377e-02f },
    },
    {
      { 2.14763284e-01f, 1.57236546e-01f, 2.47809678e-01f, 1.72058061e-01f, 7.47849271e-02f },
      { 2.19823331e-01f, 2.67087042e-01f, 2.32880339e-01f, 1.85793251e-01f, 1.61697954e-01f },
      { -4.57974263e-02f, 4.06801179e-02f, 1.23305265e-02f, 1.06980018e-01f, 3.81007157e-02f },
      { -2.26584762e-01f, -1.68221787e-01f, -2.57668018e-01f, -1.81800723e-01f, -5.25961183e-02f },
      { -1.01889670e-01f, -2.60534823e-01f, -1.60046130e-01f, -1.48802757e-01f, 3.49533819e-02f },
    },
  },
  {
    {
      { -1.25901356e-01f, -8.51537436e-02f, 3.95441242e-02f, 2.02391017e-02f, -2.52410263e-01f },
      { 1.10858642e-01f, 7.19561875e-02f, 1.27560958e-01f, -4.11230102e-02f, -1.92654178e-01f },
      { 1.40788511e-03f, 1.73320830e-01f, 6.22269660e-02f, 2.08238307e-02f, -1.28389165e-01f },
      { 1.60442982e-02f, 5.19616418e-02f, 3.43304314e-02f, -1.94462836e-01f, -8.61767754e-02f },
      { 2.40368140e-03f, -7.45818317e-02f, -1.46493986e-01f, -1.51293918e-01f, 7.38429949e-02f },
    },
    {
      { -5.08889519e-02f, 7.15426076e-03f, 9.32385623e-02f, -2.21550241e-02f, -2.35547587e-01f },
      { 1.13109119e-01f, 2.15636164e-01f, 9.49176550e-02f, 2.07033735e-02f, -6.34400249e-02f },
      { 1.38405293e-01f, 1.09985463e-01f, 1.83060825e-01f, -2.75846161e-02f, -1.56467989e-01f },
      { 4.67091873e-02f, -5.98885864e-02f, -1.71767190e-01f, -2.24415928e-01f, -2.22962201e-01f },
      { 4.39523486e-03f, -2.35474408e-01f, -2.96745211e-01f, -1.90429300e-01f, -9.95897353e-02f },
    },
    {
      { 3.31530236e-02f, 1.51848644e-01f, 1.49451077e-01f, -2.83289738e-02f, -1.84935257e-01f },
      { 1.79349482e-01f, 2.46386588e-01f, 1.16225816e-01f, 7.43405223e-02f, 5.35760559e-02f },
      { 1.66344926e-01f, 1.64838865e-01f, 9.27976817e-02f, 1.22514531e-01f, 8.00204948e-02f },
      { 5.53059876e-02f, -4.40957509e-02f, -2.85330527e-02f, -1.07009508e-01f, 2.19178963e-02f },
      { -6.56985268e-02f, -1.79081067e-01f, -1.98582083e-01f, -2.07535736e-02f, 3.34684912e-04f },
    },
  },
  {
    {
      { 5.15223015e-03f, 5.96409626e-02f, -5.19856438e-02f, -1.30790109e-02f, 7.12624118e-02f },
      { 1.86783299e-01f, 5.41811585e-02f, 1.03661366e-01f, 1.04094833e-01f, -2.95292330e-03f },
      { 1.37667358e-01f, 6.87917545e-02f, 1.71801254e-01f, 7.54442066e-02f, 3.05965208e-02f },
      { -3.31953168e-02f, 4.97014858e-02f, 2.50350088e-02f, 1.25238940e-01f, 8.30654204e-02f },
      { 8.27290192e-02f, 4.81697209e-02f, -1.10554295e-02f, 1.21215515e-01f, 9.02483612e-02f },
    },
    {
      { 7.32248202e-02f, -3.88089404e-03f, 9.26231816e-02f, 6.46892264e-02f, 1.93242542e-02f },
      { 1.48185834e-01f, 1.12816773e-01f, 9.06723365e-02f, 3.84172313e-02f, 3.83123979e-02f },
      { 5.75628951e-02f, 1.72879398e-02f, 9.06511992e-02f, 2.11143610e-03f, 9.38857794e-02f },
      { -4.78475653e-02f, -4.38815989e-02f, -5.16211540e-02f, -1.96733605e-02f, -2.26694886e-02f },
      { -1.00357533e-02f, -1.66167796e-01f, -7.47116804e-02f, 3.03470250e-02f, -5.23913242e-02f },
    },
    {
      { -4.81036007e-02f, -4.63273190e-02f, 5.89625686e-02f, 7.28764236e-02f, 8.16501230e-02f },
      { 4.06605154e-02f, -5.73887415e-02f, -7.06401393e-02f, 8.96678939e-02f, 7.51411691e-02f },
      { -1.34706914e-01f, -1.68032095e-01f, -1.42328188e-01f, 3.31680626e-02f, -9.18679312e-02f },
      { -1.21635593e-01f, -2.54132390e-01f, -2.40371376e-01f, -1.89423889e-01f, -1.95441678e-01f },
      { -2.13707522e-01f, -2.86475092e-01f, -1.42582551e-01f, -1.45016178e-01f, -5.29378913e-02f },
    },
  },
  {
    {
      { -1.77805588e-01f, -3.80929373e-02f, 6.09793849e-02f, 4.04835269e-02f, 1.11293040e-01f },
      { -2.35578805e-01f, -1.67555958e-01f, 2.11495906e-02f, -4.15784866e-02f, -5.03563248e-02f },
      { -2.25982979e-01f, -2.06738681e-01f, -9.77473333e-03f, -1.25703812e-01f, 6.39992254e-03f },
      { -1.73645511e-01f, -1.30090609e-01f, -1.32766590e-01f, -9.90133062e-02f, 6.34536296e-02f },
      { -1.30388603e-01f, -1.01438671e-01f, -1.04443289e-01f, -9.88780186e-02f, -7.73231611e-02f },
    },
    {
      { -1.13305068e-02f, 5.33578470e-02f, -1.79450251e-02f, 9.85753164e-02f, 1.26343314e-02f },
      { -1.41750872e-01f, -9.41328779e-02f, -1.42270746e-02f, 7.74513558e-02f, 1.40252421e-02f },
      { -5.41856140e-02f, 3.62031162e-02f, -5.29837199e-02f, 5.33120446e-02f, 2.75958572e-02f },
      { 7.05180317e-03f, -5.87989055e-02f, 4.33193669e-02f, 3.34746460e-03f, 7.60619901e-03f },
      { 6.90030456e-02f, 3.70090194e-02f, 5.68377599e-02f, 1.26064653e-02f, 4.14926484e-02f },
    },
    {
      { 8.59705266e-03f, 9.38698351e-02f, 8.80302489e-02f, 9.34798568e-02f, 1.34281352e-01f },
      { 6.53350875e-02f, 9.04026721e-03f, 1.26024514e-01f, 1.59195617e-01f, 1.05739914e-01f },
      { 8.06994587e-02f, 1.49633482e-01f, 1.20480746e-01f, 1.39888883e-01f, 1.31733447e-01f },
      { 5.09015396e-02f, 1.56435147e-01f, 1.33829579e-01f, 1.47619814e-01f, 4.14130352e-02f },
      { 8.61199796e-02f, 4.75315675e-02f, 8.82347301e-02f, 1.29214570e-01f, 1.05785795e-01f },
    },
  },
  {
    {
      { -2.02798769e-01f, -2.61270136e-01f, -3.99544805e-01f, -3.96834850e-01f, -2.45899439e-01f },
      { -2.06962481e-01f, -2.71756589e-01f, -2.40237981e-01f, -3.37245315e-01f, -3.32383245e-01f },
      { -3.06151360e-02f, 2.48130169e-02f, 1.67393208e-01f, -4.14154157e-02f, -5.94325550e-02f },
      { 1.88688830e-01f, 2.52266526e-01f, 2.59072691e-01f, 2.23002493e-01f, 1.79640323e-01f },
      { 2.28354245e-01f, 2.39980638e-01f, 2.30195820e-01f, 2.30406612e-01f, 2.85044789e-01f },
    },
    {
      { -4.53533739e-01f, -4.47114855e-01f, -4.08906996e-01f, -4.77710187e-01f, -1.23447917e-01f },
      { -3.84332865e-01f, -2.84790784e-01f, -2.00853944e-01f, -2.94944406e-01f, -2.37879679e-01f },
      { -4.49504107e-02f, 2.46166959e-01f, 2.09241658e-01f, 2.07314581e-01f, 5.36906049e-02f },
      { 1.68050140e-01f, 3.77565235e-01f, 4.52281594e-01f, 4.24841344e-01f, 2.84019917e-01f },
      { 1.08189613e-01f, 4.50668216e-01f, 4.31417495e-01f, 3.28822464e-01f, 2.34667897e-01f },
    },
    {
      { -3.76187295e-01f, -3.00619811e-01f, -3.73513579e-01f, -4.04385269e-01f, -1.76535115e-01f },
      { -2.64200360e-01f, -3.01356763e-01f, -3.56604844e-01f, -4.02893335e-01f, -3.30443710e-01f },
      { -1.15176834e-01f, 1.34436309e-01f, 3.01789731e-01f, 1.93204999e-01f, 3.20275016e-02f },
      { 7.79078752e-02f, 4.05224234e-01f, 4.24827069e-01f, 3.60704511e-01f, 3.12120855e-01f },
      { 9.95349512e-02f, 3.50231171e-01f, 2.96322137e-01f, 2.32873321e-01f, 2.22744793e-01f },
    },
  },
  {
    {
      { -9.31834802e-03f, 2.08083801e-02f, 4.06909660e-02f, -3.18950079e-02f, 2.25611646e-02f },
      { -4.43816222e-02f, -8.06058347e-02f, -8.68350938e-02f, -1.76430829e-02f, -8.92684832e-02f },
      { 8.07707943e-03f, -4.47853021e-02f, 5.55930398e-02f, 2.07255017e-02f, -5.23865595e-02f },
      { 1.55729847e-02f, -4.24284972e-02f, 3.16065438e-02f, 2.04270873e-02f, 4.50454019e-02f },
      { 3.42640653e-02f, 5.04469983e-02f, -6.80692866e-02f, -2.55401741e-04f, 6.79470673e-02f },
    },
    {
      { -1.33192528e-03f, -6.52248831e-03f, 3.88437919e-02f, -5.26131270e-03f, 4.70267013e-02f },
      { -4.26262580e-02f, 6.52940720e-02f, -2.63887774e-02f, -3.81124089e-04f, 7.26401433e-02f },
      { 7.27517158e-02f, 2.90432684e-02f, -1.45671079e-02f, -2.92927511e-02f, -5.66760590e-03f },
      { -1.22620780e-02f, -6.67940499e-03f, 5.47294021e-02f, -1.09301480e-02f, -5.30446917e-02f },
      { -2.07031146e-02f, 7.92378187e-03f, -6.25041351e-02f, -5.76435737e-02f, -6.13738708e-02f },
    },
    {
      { -8.82752091e-02f, -2.93780044e-02f, -2.78187953e-02f, 3.53371948e-02f, -6.27982318e-02f },
      { -8.41791481e-02f, 6.76228851e-02f, -6.36478746e-03f, -2.39909850e-02f, -8.27596039e-02f },
      { -7.97066465e-02f, 2.11159587e-02f, -8.79992992e-02f, 1.31109981e-02f, 3.42271067e-02f },
      { -2.96446867e-02f, -6.58535119e-03f, -4.46507074e-02f, -4.85934727e-02f, -1.83569212e-02f },
      { 2.05945894e-02f, -1.54285710e-02f, -3.88984121e-02f, -5.80509491e-02f, -4.46540564e-02f },
    },
  },
  {
    {
      { 5.84661588e-02f, -6.73568100e-02f, 1.86023004e-02f, -8.83897692e-02f, 4.73081023e-02f },
      { 1.13087550e-01f, -6.75271749e-02f, -2.76244432e-01f, -5.64373970e-01f, -3.27794820e-01f },
      { 1.68050081e-01f, 1.41094744e-01f, 2.58432440e-02f, -2.48937428e-01f, -2.50635445e-01f },
      { 1.63040742e-01f, 2.44597360e-01f, 3.21254671e-01f, 2.45351464e-01f, 1.65271029e-01f },
      { 2.22135738e-01f, 3.03362697e-01f, 2.28543237e-01f, 2.11341500e-01f, 9.35707912e-02f },
    },
    {
      { -1.38937607e-01f, -5.24706878e-02f, -1.21232316e-01f, -1.32461682e-01f, -1.53712053e-02f },
      { 4.66484316e-02f, -7.89849907e-02f, -4.11394477e-01f, -7.18057394e-01f, -4.12803382e-01f },
      { 7.33680725e-02f, 1.87169477e-01f, 6.42608553e-02f, -2.73505896e-01f, -3.27054918e-01f },
      { 1.61271483e-01f, 3.78516912e-01f, 4.18940455e-01f, 1.18369006e-01f, 1.44669399e-01f },
      { 1.82799667e-01f, 4.00626868e-01f, 3.32911968e-01f, 2.52152026e-01f, 1.63798422e-01f },
    },
    {
      { -2.00108781e-01f, -3.60914916e-02f, -1.39859885e-01f, -2.17333749e-01f, 5.80414720e-02f },
      { -2.66828295e-02f, -6.54257163e-02f, -4.65743095e-01f, -7.51965880e-01f, -3.76184732e-01f },
      { 7.73006678e-02f, 1.07948303e-01f, -8.08777809e-02f, -3.37370604e-01f, -1.34288326e-01f },
      { 1.18873037e-01f, 3.25273484e-01f, 2.60249108e-01f, 1.25971407e-01f, 3.33152190e-02f },
      { 5.93240671e-02f, 2.97492355e-01f, 2.63488114e-01f, 2.11147875e-01f, 4.84231263e-02f },
    },
  },
  {
    {
      { 1.53287888e-01f, 2.05524251e-01f, 1.06683135e-01f, -5.78599907e-02f, -4.72602621e-02f },
      { 2.34425485e-01f, 2.72912472e-01f, 6.52972385e-02f, -1.99720487e-01f, 1.50503935e-02f },
      { 2.79626012e-01f, 2.51635402e-01f, -2.63038799e-02f, -1.44142896e-01f, 2.21029134e-03f },
      { 1.69031098e-01f, 1.95988342e-01f, -7.64053315e-02f, -7.34304562e-02f, -4.27594930e-02f },
      { 1.08716935e-01f, 1.41117424e-01f, -9.59622264e-02f, -1.08114764e-01f, 1.36711216e-03f },
    },
    {
      { 1.74853876e-01f, 2.41734922e-01f, 1.10235535e-01f, -2.42106989e-01f, -1.84541255e-01f },
      { 1.18064694e-01f, 2.66416818e-01f, -3.66978869e-02f, -3.11562836e-01f, -1.10941529e-01f },
      { 2.72054017e-01f, 1.81327894e-01f, -9.44653749e-02f, -3.29344153e-01f, -3.40790786e-02f },
      { 1.16933838e-01f, 8.13636035e-02f, -5.32829240e-02f, -2.18989998e-01f, -9.13164169e-02f },
      { 1.32379010e-01f, 2.66116895e-02f, -1.86234027e-01f, -2.29007721e-01f, -6.22438416e-02f },
    },
    {
      { 9.93726254e-02f, 8.08573216e-02f, 5.79494936e-03f, -2.46715516e-01f, -1.52788147e-01f },
      { 1.64089054e-01f, 2.33428150e-01f, -9.10256207e-02f, -3.22373807e-01f, -1.83350503e-01f },
      { 8.21045041e-02f, 2.09487841e-01f, -4.96147461e-02f, -4.16699618e-01f, -8.06878060e-02f },
      { 1.07739814e-01f, 2.98658665e-02f, -1.93788931e-01f, -3.27214837e-01f, -8.61847177e-02f },
      { 7.76173323e-02f, -4.69782799e-02f, -2.24447966e-01f, -1.90267026e-01f, 2.97088288e-02f },
    },
  },
};

const float CONV1_B[OUT_CH] = { 4.07881707e-01f, 6.81526437e-02f, 1.04746781e-01f, 9.11456048e-02f, 1.77922577e-01f, 1.25240982e-01f, 3.32294144e-02f, 4.89777550e-02f, 1.17236950e-01f, 4.44516987e-02f, 1.54822752e-01f, 4.39433940e-02f, 6.67655095e-02f, 5.25432378e-02f, -1.60976611e-02f, -2.99948938e-02f, 4.35061082e-02f, -9.09139030e-03f, 9.28617492e-02f, 8.83120149e-02f, 6.42275438e-02f, -7.64366090e-02f, 2.52365768e-01f, -1.84037145e-02f, 1.01427622e-01f, 4.05668855e-01f, 5.19036129e-02f, 6.07368052e-02f, 1.76695958e-01f, -7.26602925e-03f, 1.20022133e-01f, 7.12087229e-02f };
