#include "dense_layer1.h"

static const float D1_W[OUT_D1][IN_D1] =
{
  { -7.43597075e-02f, 3.00343544e-03f, -5.02684340e-02f, -8.67502764e-02f, -7.19951913e-02f, -9.38443989e-02f, -8.65019783e-02f, 4.92765494e-02f, -8.55310783e-02f, 8.56153518e-02f, -6.57853410e-02f, 3.49672809e-02f, -5.84503151e-02f, 3.15821171e-03f, -4.85514104e-02f, -6.28064899e-03f, 3.78199928e-02f, -6.32875860e-02f, -1.64921377e-02f, 6.46257102e-02f, 1.19764078e-02f, 7.61905015e-02f, -4.93533257e-03f, -1.92021094e-02f, -4.94743930e-03f, -7.43147135e-02f, -3.91842015e-02f, -5.71996570e-02f, 3.00106499e-02f, -9.84833017e-02f, 3.78601924e-02f, -5.60684428e-02f, 7.18384376e-03f, -1.97675098e-02f, 5.46124354e-02f, -1.07602611e-01f, 8.33045691e-03f, -6.20094016e-02f, 1.12433573e-02f, -6.61727637e-02f, -5.34701385e-02f, 2.31099613e-02f, -4.57595177e-02f, -2.16773748e-02f, -9.93521363e-02f, -2.77585387e-02f, -5.41768409e-03f, -4.08660881e-02f, -9.37344786e-03f, -4.31994759e-02f, -5.34544252e-02f, 3.88924107e-02f, -7.70709515e-02f, -6.33595809e-02f, 6.29786626e-02f, -3.50375404e-03f, 2.27119289e-02f, 6.65935278e-02f, 5.16965389e-02f, -1.08111277e-01f, -9.22791734e-02f, -8.46866071e-02f, 2.60733087e-02f, -3.96399312e-02f, 6.07590638e-02f, 5.36121912e-02f, -5.26525378e-02f, 5.68759367e-02f, 6.19009323e-02f, -8.10792595e-02f, -8.47058464e-03f, 1.39844036e-02f, -9.36567336e-02f, 2.57274695e-02f, -4.02669273e-02f, 1.83363929e-02f, -5.42842634e-02f, 2.32540593e-02f, 6.05633706e-02f, 5.89696318e-02f, 1.32056735e-02f, 2.76771951e-02f, -8.64697620e-02f, 3.50237079e-02f, -1.31793931e-01f, 7.52605796e-02f, -3.00239827e-02f, -4.03036401e-02f, 6.79450855e-02f, 5.19606434e-02f, 4.78215851e-02f, 3.08310837e-02f, -2.24858373e-02f, -2.50211973e-02f, 6.29925802e-02f, -6.67660683e-02f, 2.40855385e-02f, -1.32450624e-03f, -2.99277902e-03f, 1.43677900e-02f, 1.34935882e-02f, 1.26752611e-02f, 3.15361209e-02f, 4.86211665e-02f, 7.11223483e-03f, 5.16881654e-03f, -2.19506510e-02f, -4.65381965e-02f, 3.36930044e-02f, 7.55264238e-02f, -2.55991258e-02f, 2.41780542e-02f, -1.18767563e-02f, -8.45628381e-02f, 2.48617269e-02f, 1.22725172e-02f, -1.53959794e-02f, -2.39526015e-02f, -7.23279640e-02f, 2.34514219e-03f, -1.88694689e-02f, 2.92209093e-03f, -7.00337365e-02f, -1.18489161e-01f, -5.09944446e-02f, -2.43505798e-02f, -7.83181861e-02f, 3.27444077e-02f, -5.10888472e-02f, -4.60262671e-02f, 3.45181003e-02f, -8.37970674e-02f, 1.34132877e-02f, -8.24109241e-02f, 5.21190055e-02f, -4.67995554e-02f, -7.60964230e-02f, 7.35838711e-02f, 2.81405970e-02f, 4.20271978e-02f, -7.33235031e-02f, 6.17006198e-02f, 3.60624306e-03f, 5.42488657e-02f, -6.19375147e-03f, -6.02930523e-02f, 3.16327699e-02f, 7.53219938e-03f, 9.05171782e-02f, -8.09398219e-02f, 6.59507364e-02f, -9.87247378e-03f, -7.92522356e-03f, 6.62968084e-02f, -2.71624159e-02f, -4.06067297e-02f, -2.44099721e-02f, -5.83343301e-03f, -7.63138160e-02f, -1.57834291e-02f, 7.62028694e-02f, 2.13719476e-02f, 8.29892829e-02f, -6.07688278e-02f, -1.13023892e-02f, -6.31860644e-02f, -2.99122930e-02f, 5.82161918e-02f, -1.06363013e-01f, 2.45726220e-02f, -8.48048702e-02f, -2.71959528e-02f, 5.52292680e-03f, 4.49878946e-02f, -6.47709146e-02f, -8.06802660e-02f, -8.58763382e-02f, 3.95414513e-03f, -2.67879888e-02f, -3.13471742e-02f, -2.18726266e-02f, -5.53763937e-03f, -2.07379982e-02f, -7.71997347e-02f, -6.76395819e-02f, -1.16568822e-02f, 7.90154487e-02f, 2.71583069e-02f, -5.85766993e-02f, 6.40565604e-02f, 1.42838117e-02f, 4.29763533e-02f, -4.94789258e-02f, -6.14503883e-02f, 4.84316722e-02f, 5.50303124e-02f, -4.77258712e-02f, -1.01184182e-01f, -1.04058608e-02f, 7.63633400e-02f, 4.02444191e-02f, 2.13056561e-02f, -1.37549490e-01f, -2.31880955e-02f, 1.72687098e-02f, -2.59384923e-02f, -6.82066157e-02f, -3.15387882e-02f, -2.37717517e-02f, 2.87165251e-02f, -3.60546038e-02f, -3.62664908e-02f, -1.19934641e-01f, -6.90532923e-02f, -1.54225752e-02f, -8.18188712e-02f, 2.84227710e-02f, -5.93837164e-02f, 3.77662247e-04f, -4.65004221e-02f, -5.12004457e-03f, 5.94663471e-02f, -6.36694059e-02f, 3.64804044e-02f, 2.39303522e-02f, 1.05796186e-02f, 3.59818339e-02f, -2.18175240e-02f, 1.07362429e-02f, -3.35480198e-02f, -4.41359840e-02f, -1.13838911e-02f, 3.45836356e-02f, -5.95911145e-02f, -1.18967220e-01f, 2.13422552e-02f, 1.21339522e-02f, 6.12966195e-02f, 3.16199996e-02f, -4.10517566e-02f, -3.50827798e-02f, -2.00627558e-02f, 8.14822316e-03f, 7.48520568e-02f, -1.52724357e-02f, -8.76601487e-02f, 6.05836473e-02f, 1.84745789e-02f, -1.83061287e-02f, -8.49293098e-02f, 4.29892950e-02f, -3.65334712e-02f, 1.59345567e-02f, -9.43894684e-02f, -2.56616399e-02f, 1.84195244e-03f, -6.40428513e-02f, 1.01412239e-03f, -3.25480849e-03f, -4.79587205e-02f, 2.81323269e-02f, 4.17583399e-02f, -9.39340591e-02f, 5.56671731e-02f, -7.24793002e-02f, 5.60981687e-03f, -5.98371960e-02f, 1.68434009e-02f, -7.63459727e-02f, -4.97095808e-02f, -2.31764149e-02f, 1.71282757e-02f, -4.58938926e-02f, 4.44406923e-03f, 6.56571016e-02f, 3.69497426e-02f, -7.43379220e-02f, -4.60341759e-03f, 7.33298436e-02f, -1.11167677e-01f, 7.16349632e-02f, -6.48302138e-02f, -5.52256890e-02f, -5.31708375e-02f, 5.38846590e-02f, 1.71524025e-02f, -1.70037821e-02f, 5.89553341e-02f, 6.95597231e-02f, -8.86366144e-02f, -6.72267675e-02f, -6.04964457e-02f, -1.11304934e-03f, 4.62563522e-02f, -5.62083758e-02f, 1.39323501e-02f, -4.20303755e-02f, -2.67948713e-02f, -5.56833707e-02f, 1.77937523e-02f, 1.96245164e-02f, -6.03004098e-02f, -7.06531554e-02f, -2.69413684e-02f, -3.15710902e-02f, -3.36914621e-02f, 1.74803492e-02f, 5.15652932e-02f, -5.44121265e-02f, -7.45001063e-02f, -6.89349789e-03f, -2.95707099e-02f, -6.32493198e-02f, -3.47584151e-02f, -1.00900516e-01f, -3.61727960e-02f, -8.00520480e-02f, -3.00083421e-02f, 5.18815070e-02f, 8.00217465e-02f, -6.14644177e-02f, -1.16376893e-03f, 8.17138627e-02f, 2.72184778e-02f, -1.04827574e-02f, -8.84133577e-02f, -1.21267438e-02f, -6.22490756e-02f, -9.91545543e-02f, -6.54003769e-02f, -1.15547411e-01f, -5.44127077e-03f, -6.47643656e-02f, 7.36734346e-02f, 4.85778674e-02f, -8.70769545e-02f, -5.16124256e-03f, -9.43402275e-02f, 3.79222631e-02f, 2.23887637e-02f, -2.30327249e-03f, -6.06784523e-02f, 6.36863708e-02f, -6.67149946e-02f, 5.71092144e-02f, -3.52958404e-02f, 6.70069531e-02f, -1.17850631e-01f, 3.47052328e-02f, -4.84180404e-03f, -1.88606549e-02f, 5.15166149e-02f, 7.73540065e-02f, 2.49720234e-02f, -5.91074824e-02f, -3.01765688e-02f, -3.01030986e-02f, -8.53407979e-02f, -4.89064306e-03f, 7.24500269e-02f, 1.83795337e-02f, 8.62232596e-02f, -5.53233027e-02f, 1.93094984e-02f, -6.64508492e-02f, -6.49362803e-03f, 1.74854342e-02f, -5.42367548e-02f, 1.94026101e-02f, -2.40265261e-02f, 2.79713906e-02f, 1.69757698e-02f, -1.45886853e-01f, -3.26603241e-02f, -8.58974159e-02f, -3.23114023e-02f, -5.14800660e-02f, -4.70138416e-02f, 1.76134147e-02f, 1.76079683e-02f, -8.02123770e-02f, -4.35708463e-02f, 5.29420115e-02f, -6.27485588e-02f, -5.35351411e-02f, 2.63461657e-03f, -6.30401373e-02f, -5.41021489e-02f, -7.26748481e-02f, -8.47663879e-02f, 6.42227158e-02f, 7.22818673e-02f, -1.70768462e-02f, 2.44819578e-02f, -2.94218287e-02f, 3.12652588e-02f, 1.90499215e-03f, -7.15975985e-02f, -1.08114488e-01f, 7.36241937e-02f, -5.49853705e-02f, 1.77527387e-02f, -1.15329020e-01f, -6.24268726e-02f, -4.66236845e-02f, -5.68987690e-02f, 2.62471866e-02f, -4.19846699e-02f, 6.85003102e-02f, -6.44415170e-02f, -4.06712554e-02f, -1.00183792e-01f, -8.82796645e-02f, -3.92388776e-02f, 6.83602691e-02f, 4.06934805e-02f, -7.38150552e-02f, -5.20255826e-02f, 7.36754313e-02f, -2.47166920e-02f, 3.83843929e-02f, -4.12291475e-02f, -6.60207123e-02f, 2.87138037e-02f, -9.42719802e-02f, 4.28175069e-02f, -2.91310791e-02f, 3.92802805e-03f, 1.91766433e-02f, -4.26601171e-02f, -1.12706227e-02f, -7.23013803e-02f, -1.10187955e-01f, 5.78055084e-02f, 6.99276337e-04f, 1.70562118e-02f, -2.82194205e-02f, -7.91442916e-02f, -5.72666861e-02f, 5.66995144e-02f, 2.60063279e-02f, -1.41765019e-02f, 3.65219414e-02f, -4.36184183e-02f, -1.06983520e-01f, 6.25196546e-02f, -8.20621401e-02f, 8.17878917e-02f, 5.35750836e-02f, -2.80883778e-02f, -5.84633164e-02f, -7.00064674e-02f, 3.33891138e-02f, -8.50835741e-02f, -4.03677374e-02f, 7.47655630e-02f, -6.34779632e-02f, 6.79063946e-02f, -4.75350134e-02f, -4.72639799e-02f, 2.94271819e-02f, 5.54650053e-02f, -4.03277352e-02f, 1.90924481e-02f, -1.07929125e-01f, -2.49340907e-02f, -7.52210319e-02f, 9.87718720e-03f, -2.21608784e-02f, 4.08116505e-02f, 4.97976243e-02f, -1.07440025e-01f, 1.74993221e-02f, 5.79414293e-02f, -3.06283403e-02f, -1.54006379e-02f, 1.45309120e-02f, 3.03170886e-02f, 6.40623569e-02f, 2.41530072e-02f, 4.26934995e-02f, -5.73617294e-02f, 7.43219778e-02f, -1.24793537e-02f, -7.22813904e-02f, -1.94943585e-02f, 4.59444746e-02f, 2.25708056e-02f, -5.22051491e-02f, 3.15976627e-02f, -1.22264493e-02f, -1.36279687e-02f, -1.80026237e-02f, 4.38339785e-02f, -2.17927974e-02f, -4.56458591e-02f, -9.04119760e-03f, -1.89646194e-03f, 1.41462674e-02f, -6.78889528e-02f, -4.69109789e-02f, 6.21963181e-02f, 7.75748044e-02f, -3.27291936e-02f, 8.38613808e-02f, -6.62568666e-04f, 2.91066766e-02f, -1.09540641e-01f, 4.85172085e-02f, 2.78712492e-02f, -6.24667071e-02f, -7.28785992e-02f, -6.20305613e-02f, 2.78316680e-02f, -6.72185421e-02f, 7.98057765e-03f, 3.39251161e-02f, 3.05887237e-02f, -4.71953303e-03f, 3.98186557e-02f, 1.48397242e-03f, 5.66619970e-02f, 6.73861727e-02f, -3.98894958e-02f, 4.83954959e-02f, -2.23186016e-02f, 9.34210718e-02f, -6.00337386e-02f, -3.70186026e-04f, 1.54133197e-02f, -2.22519543e-02f, -6.69055246e-03f, 3.15456395e-03f, 7.26600662e-02f, 6.43483549e-02f, -1.45427048e-01f, 6.29428253e-02f, -6.67592362e-02f, -4.58352789e-02f, -7.17893615e-02f, -3.44614200e-02f, 1.79175213e-02f, 3.39770354e-02f, -6.80014342e-02f, -8.65058391e-04f, -5.40702743e-03f, -1.45741925e-02f, -5.97515553e-02f, -5.32783605e-02f, 5.93372174e-02f, 2.48533338e-02f, -4.32565995e-02f, -1.29232765e-03f, 5.44135273e-02f, 8.53721127e-02f, 4.44705561e-02f, -6.20989315e-02f, 2.93061510e-02f, -2.89710350e-02f, 6.48695929e-03f, 4.00398448e-02f, -1.95392743e-02f, -1.05817489e-01f, -3.94043215e-02f, -5.24451137e-02f, 2.29162946e-02f, 5.11764027e-02f, -1.29150838e-01f, 5.58704026e-02f, 6.66713202e-03f, -5.25670964e-03f, 2.68470645e-02f, -7.37924725e-02f, 5.06009497e-02f, -5.99236749e-02f, 5.96300438e-02f, 2.29138136e-02f, -9.82744992e-02f, 3.96422818e-02f, 3.60692367e-02f, 5.99818937e-02f, -1.18723296e-01f, 8.70525539e-02f, -3.89096849e-02f, -7.11066499e-02f, -5.77275157e-02f, -6.17527775e-02f, 4.74588498e-02f, 1.95680000e-02f, 2.40596905e-02f, -1.13158422e-02f, -8.83513596e-03f, -1.77535601e-02f, -4.03331971e-04f, 4.16543484e-02f, 6.71459734e-02f, 3.89483683e-02f, 5.98409725e-03f, 1.60274524e-02f, -7.14827180e-02f, 7.64291286e-02f, -7.34164491e-02f, -8.12795833e-02f, -2.21276451e-02f, 2.03350428e-02f, -8.80939215e-02f, 1.13395229e-02f, -7.58774728e-02f, 2.66992440e-03f, -5.15261898e-03f, -7.18811005e-02f, -4.60417084e-02f, -8.41745585e-02f, -5.70622692e-03f, 2.27033719e-02f, -6.71426803e-02f, -3.87769789e-02f, 5.15086614e-02f, -8.40805396e-02f, -9.24840569e-05f, -7.21618831e-02f, 1.00283846e-02f, -6.23845379e-04f, -2.89048143e-02f, -5.61569631e-02f, -1.42187960e-02f, -9.26533565e-02f, -1.32353017e-02f, -3.25919129e-02f, -1.94085576e-02f, 5.21205068e-02f, 1.26068899e-02f, 8.15515816e-02f, -3.63698713e-02f, -2.05451064e-02f, -6.40988797e-02f, -7.64043769e-03f, 4.70117368e-02f, -3.98771204e-02f, 1.75033584e-02f, -7.06389323e-02f, 1.04476839e-01f, -1.57705694e-03f, -3.06165181e-02f, 3.88323562e-03f, -1.25980571e-01f, -1.05416402e-02f, 1.85415819e-02f, 1.86768025e-02f, -7.23521337e-02f, -5.64205498e-02f, 1.50320157e-02f, -4.86231819e-02f, 3.10388207e-02f, 4.88093384e-02f, -4.95479032e-02f, -3.57887112e-02f, 4.70039025e-02f, -3.72992866e-02f, 1.09553766e-02f, -9.77099091e-02f, -3.42148505e-02f, 4.06477302e-02f, -8.58980790e-02f, -1.55457212e-02f, 1.54468594e-02f, -4.62159961e-02f, -2.90512908e-02f, -9.52002853e-02f, 1.19787967e-02f, 5.97810708e-02f, 4.70217317e-03f, -5.39959595e-02f, -6.78461045e-03f, 8.26643780e-02f, 2.94083804e-02f, 1.91337112e-02f, -9.43622738e-02f, 6.10372499e-02f, 7.53518641e-02f, 3.90389077e-02f, 1.69542413e-02f, -9.82836038e-02f, -3.97321582e-02f, -2.37993319e-02f, -8.03367049e-03f, -2.54325867e-02f, -7.11967945e-02f, -8.78458619e-02f, 8.66422728e-02f, 6.19206838e-02f, -6.77461699e-02f, 7.15172617e-03f, 4.67013754e-02f, -4.09087650e-02f, -5.38669266e-02f, 2.62614880e-02f, -7.27180690e-02f, -7.98876211e-02f, -2.31366660e-02f, 7.22787827e-02f, 2.39319410e-02f, -7.17934445e-02f, -2.94472706e-02f, -4.50495910e-03f, 6.77393703e-03f, 5.37459143e-02f, -4.12597209e-02f, 4.74348590e-02f, -2.47052070e-02f, -3.02863009e-02f, -6.26488682e-03f, 6.62581623e-02f, 2.28586551e-02f, -1.09346397e-01f, -6.14841580e-02f, 3.60095943e-03f, -3.34005766e-02f, -1.41079305e-02f, -4.90087736e-03f, -6.57522380e-02f, 4.61147204e-02f, 4.36846465e-02f, -5.36276922e-02f, 6.04128502e-02f, 1.10014873e-02f, -6.32680627e-03f, 9.64101311e-03f, -6.00452311e-02f, 5.11779748e-02f, -2.83178594e-02f, -1.80706326e-02f, 1.45454053e-02f, -1.13926187e-01f, -2.29212102e-02f, -2.54576132e-02f, -3.60442847e-02f, -2.57925596e-02f, -1.72838941e-02f, -6.85672313e-02f, -5.11381365e-02f, -5.82607798e-02f, 1.50926728e-02f, 6.58845380e-02f, -8.22329149e-02f, -1.68164782e-02f, -1.13644771e-01f, -2.84436569e-02f, -3.91499437e-02f, 2.52683535e-02f, -8.46652612e-02f, -6.57935962e-02f, -2.09349524e-02f, -6.98118433e-02f, -6.32261708e-02f, -3.36365476e-02f, -8.60315263e-02f, -3.63001376e-02f, 5.49357124e-02f, 2.29101982e-02f, -7.93918073e-02f, 7.28127882e-02f, -5.67861721e-02f, -8.43533948e-02f, -2.42026411e-02f, -1.11456141e-01f, 3.61583531e-02f, -6.65760040e-03f, 4.61617969e-02f, -1.18120657e-02f, -1.16588846e-02f, -6.78673238e-02f, -3.07654161e-02f, 2.47457307e-02f, 8.90513286e-02f, -3.31956223e-02f, -4.08456661e-02f, -7.14203864e-02f, -8.64344761e-02f, -3.84457111e-02f, 4.47156169e-02f, 6.92400113e-02f, 3.16335000e-02f, 3.79636548e-02f, 5.46227768e-03f, -2.56087128e-02f, 3.82055640e-02f, -1.88147016e-02f, 1.47637129e-02f, 6.19333088e-02f, 3.15037221e-02f, -5.71485311e-02f, 6.65672570e-02f, 4.81067458e-03f, 5.71426051e-03f, 1.79611072e-02f, 5.40636405e-02f, -9.96710174e-03f, 6.05515242e-02f, 5.14592901e-02f },
  { 4.36815396e-02f, 7.82115683e-02f, -4.76647429e-02f, 6.37999969e-03f, -8.02349895e-02f, -2.95372363e-02f, 8.21622312e-02f, -6.68429881e-02f, -3.28851342e-02f, -2.59481799e-02f, -3.52225862e-02f, 5.33479676e-02f, -1.46136820e-01f, -7.72760734e-02f, 5.60881607e-02f, 1.10886283e-02f, 5.30237556e-02f, -9.31637809e-02f, 5.91211990e-02f, -6.37836307e-02f, -6.14094958e-02f, -5.23234019e-03f, -6.96252212e-02f, -1.20874487e-01f, -1.49464114e-02f, 3.01351473e-02f, -1.07240923e-01f, -4.17911299e-02f, -1.10706734e-02f, -1.05803952e-01f, 5.84970415e-02f, -7.64683411e-02f, -5.17858416e-02f, 2.14828979e-02f, -9.10186768e-03f, -7.07567185e-02f, -9.89292748e-03f, -5.66981472e-02f, 5.88095374e-02f, -7.87807256e-02f, -4.76063676e-02f, -6.59483224e-02f, 1.35920790e-03f, -4.61707115e-02f, -7.54517689e-02f, -3.31104808e-02f, -8.51664040e-03f, 1.28050623e-02f, 1.69821139e-02f, 4.08532983e-03f, 4.43289429e-03f, -2.23327409e-02f, -6.39429688e-02f, -6.39138222e-02f, 2.69739553e-02f, -6.74345940e-02f, -1.39333922e-02f, -6.76419288e-02f, -2.04695351e-02f, -5.29165081e-05f, 2.16566417e-02f, 5.17591462e-02f, 3.56734768e-02f, 7.99213424e-02f, 5.81696108e-02f, 9.68380272e-02f, -5.50765991e-02f, -9.15546119e-02f, -3.91101763e-02f, -1.04467385e-01f, 2.77555897e-03f, 6.63790852e-02f, 7.31879249e-02f, 5.50201954e-03f, 4.60092537e-02f, -4.59254794e-02f, -5.48620000e-02f, 9.19809192e-03f, 7.34146591e-03f, -7.83935711e-02f, -1.16705604e-01f, 1.51054459e-02f, -9.94030237e-02f, 4.52435128e-02f, -6.38187602e-02f, 2.98655890e-02f, -1.44128632e-02f, -6.79112747e-02f, 2.15271153e-02f, -3.48069854e-02f, 2.31036800e-04f, -8.68992880e-02f, -8.62288289e-03f, 3.33731472e-02f, 2.94199884e-02f, -7.83409923e-02f, 3.27510238e-02f, -2.61205509e-02f, 6.99024424e-02f, -5.03858216e-02f, 1.43760024e-02f, -6.03963807e-02f, -3.83692570e-02f, -1.09208254e-02f, 3.50545608e-02f, 5.58733717e-02f, -1.56472456e-02f, 6.77510276e-02f, -1.33229926e-01f, 2.82725096e-02f, 1.43899927e-02f, 4.19470184e-02f, -4.00706828e-02f, 1.22214826e-02f, -9.30206850e-02f, 5.40573476e-03f, -9.43322629e-02f, -1.56946424e-02f, 7.02361614e-02f, -1.06193766e-01f, 3.21766213e-02f, -4.99429880e-03f, 2.64421292e-02f, -8.88841748e-02f, -4.73973006e-02f, -1.80474985e-02f, 7.89287165e-02f, -4.64054756e-02f, 5.27299717e-02f, 2.64678169e-02f, -5.69403768e-02f, 1.57934818e-02f, 5.41347964e-03f, -1.49325758e-01f, 7.81784505e-02f, -7.92825520e-02f, -5.18852733e-02f, 3.33945081e-02f, -7.19572837e-03f, -6.01345114e-02f, -6.91451132e-03f, 2.69649848e-02f, 1.96159584e-03f, -3.60806212e-02f, -9.22157839e-02f, -4.18659411e-02f, -8.80856588e-02f, 5.77004515e-02f, -5.75851314e-02f, -7.58074969e-02f, 6.34829253e-02f, -9.17071402e-02f, -2.49793511e-02f, 5.37959933e-02f, -1.88446604e-02f, 5.74884703e-03f, -8.46046582e-02f, 5.69250919e-02f, 5.18834069e-02f, -6.80634603e-02f, 3.58110406e-02f, -2.19342262e-02f, 1.17732286e-02f, 6.16838261e-02f, -2.25758902e-03f, -2.57038865e-02f, -7.75093362e-02f, 3.32613401e-02f, 7.27186585e-03f, -7.13674501e-02f, -2.02448759e-02f, -5.08851223e-02f, -8.24020132e-02f, -1.45603791e-02f, -1.27114281e-02f, 3.45319845e-02f, 4.67883870e-02f, -9.90335494e-02f, -4.98084128e-02f, 7.20171854e-02f, 9.64687020e-03f, -1.56842580e-03f, -7.77813569e-02f, 7.86838960e-03f, 7.57205635e-02f, -6.53518066e-02f, -1.25071973e-01f, -2.79336367e-02f, -6.08724132e-02f, -1.02828350e-03f, 2.30809320e-02f, 4.62838784e-02f, -3.54511552e-02f, 1.23683162e-01f, 3.83238420e-02f, 2.95014530e-02f, 9.91298445e-03f, -9.25254747e-02f, -1.61435101e-02f, -5.52364029e-02f, -8.95020664e-02f, -1.18308300e-02f, -1.03133939e-01f, -7.78081268e-02f, 4.75897938e-02f, 1.36620402e-02f, -1.10319987e-01f, 4.60459962e-02f, -5.82255283e-03f, -4.24885564e-02f, 7.44643882e-02f, 1.98075641e-02f, -4.76041771e-02f, 2.38935575e-02f, -3.20492238e-02f, -3.06762732e-03f, -3.14728096e-02f, -1.86165664e-02f, -1.08133368e-02f, 5.78601845e-02f, -5.84233776e-02f, -7.81053081e-02f, -2.81309728e-02f, 5.17564192e-02f, 3.80363017e-02f, 5.23626059e-02f, -6.29844293e-02f, -1.03171915e-02f, -5.30263036e-02f, -3.90599761e-03f, 7.71803483e-02f, 1.78007688e-02f, 3.50087397e-02f, 2.36774869e-02f, -6.79823663e-03f, -6.00293279e-02f, 3.49899521e-03f, 1.15390420e-02f, -1.08586326e-01f, -1.99691742e-03f, -4.22881022e-02f, 8.36205482e-03f, -1.01304069e-01f, -8.51157233e-02f, 1.79450810e-02f, -3.78648117e-02f, -1.05057275e-02f, 6.38428554e-02f, 7.22590685e-02f, -8.16067681e-03f, 2.49884930e-02f, -5.87333255e-02f, -3.01535241e-02f, 4.17841561e-02f, -7.77899250e-02f, -3.45322043e-02f, 6.81209043e-02f, -1.65218059e-02f, 3.93530726e-02f, 2.52517965e-02f, -4.25351150e-02f, -5.59373498e-02f, 2.80324165e-02f, -6.76094443e-02f, 2.98381243e-02f, -6.59772828e-02f, 3.04060988e-03f, 2.98723802e-02f, -1.97671037e-02f, -7.28789195e-02f, 1.45662250e-02f, -8.51542503e-03f, 1.47231091e-02f, 3.21188453e-03f, -5.99406064e-02f, -3.19397524e-02f, 5.09108864e-02f, 1.30888037e-02f, 3.53896176e-03f, -5.41630276e-02f, 2.66734213e-02f, 7.73174763e-02f, -8.94623324e-02f, 2.33617332e-02f, -5.20661054e-03f, -4.83964682e-02f, -2.62040272e-02f, -4.04420719e-02f, -4.15786132e-02f, 1.58367157e-02f, 5.38673773e-02f, 5.23762219e-02f, -5.81223518e-02f, -2.36523198e-03f, 6.52303398e-02f, -8.42809379e-02f, -5.08705415e-02f, 1.93758532e-02f, -9.77519602e-02f, -6.76821917e-02f, -4.16935347e-02f, -5.62407374e-02f, -3.54653783e-02f, 8.85367617e-02f, 1.46896755e-02f, -1.49133215e-02f, -7.00019207e-03f, 2.09149234e-02f, -8.40131044e-02f, 3.14195864e-02f, -3.67489271e-02f, -6.98713437e-02f, 4.71564531e-02f, -3.61888707e-02f, -1.36222541e-02f, -1.55689307e-02f, -7.19002038e-02f, -4.08889242e-02f, 2.58387253e-02f, -1.33792534e-02f, -5.98604493e-02f, 6.13696352e-02f, 4.07250971e-03f, 3.70718203e-02f, 2.70610619e-02f, -5.28157018e-02f, 3.29322740e-02f, 7.41693974e-02f, 5.72335683e-02f, -4.91457582e-02f, -2.59253848e-02f, -7.40401372e-02f, -7.22148344e-02f, 3.87010798e-02f, -5.88394850e-02f, 3.94240357e-02f, 4.63203480e-03f, -2.72561386e-02f, -2.07618680e-02f, 3.36111188e-02f, -5.70179746e-02f, 7.15753436e-02f, 6.46633804e-02f, -1.36845289e-02f, 4.30218019e-02f, -2.69999565e-03f, -1.36793569e-01f, 7.05841184e-02f, -1.97061198e-03f, -9.89990234e-02f, 4.42271195e-02f, 4.10103984e-02f, -4.16778550e-02f, -3.18910033e-02f, -3.99130583e-03f, -6.85257018e-02f, -8.69710594e-02f, 3.20356674e-02f, 4.76558751e-04f, -5.58051430e-02f, -8.25371146e-02f, 1.16024930e-02f, -5.85442856e-02f, 6.91436157e-02f, -7.83976093e-02f, 5.77499941e-02f, 4.87768501e-02f, -8.71401653e-02f, 2.92964205e-02f, -3.56467962e-02f, 2.88792048e-03f, 5.63042313e-02f, -1.10616609e-01f, 7.63535034e-03f, -5.63390292e-02f, 4.68509607e-02f, 6.82862103e-02f, -4.97957282e-02f, -1.21143684e-01f, -3.44816260e-02f, -9.89627466e-03f, -9.63907912e-02f, -6.58434927e-02f, 5.27000986e-02f, 4.29229327e-02f, 1.24505525e-02f, -1.23987570e-02f, 4.50506760e-03f, -6.03653444e-03f, -8.62645172e-03f, 1.02199204e-01f, 3.28530557e-02f, 2.00748630e-02f, 1.50551004e-02f, 1.62655506e-02f, -5.29275090e-03f, 7.54302461e-03f, -7.69678280e-02f, -1.18627176e-02f, -4.53434326e-03f, 3.53213623e-02f, -1.66976172e-02f, 3.57662961e-02f, -2.83552427e-02f, 8.85651726e-03f, -3.27416658e-02f, -5.26423454e-02f, -3.64898844e-03f, -4.05594297e-02f, 6.87669665e-02f, -1.01977736e-01f, -8.26356709e-02f, -6.97291642e-02f, -2.80893650e-02f, 2.47928277e-02f, -3.44034247e-02f, 3.10870539e-02f, -1.09280050e-01f, -5.04951701e-02f, 4.06262912e-02f, -7.70780072e-02f, -5.67617305e-02f, 2.50348616e-02f, -1.96644682e-02f, -1.12248950e-01f, -7.79616786e-03f, 9.04320925e-03f, 5.14406934e-02f, 2.65935343e-02f, 7.92301670e-02f, -3.65185291e-02f, 4.51071151e-02f, -9.29038301e-02f, 8.31357576e-03f, 2.82760393e-02f, -3.34776305e-02f, 7.72028323e-03f, -7.71427602e-02f, -7.65822306e-02f, 6.57401606e-02f, 9.57309455e-03f, 1.33570815e-02f, 2.87365224e-02f, -8.43951479e-02f, -2.94843074e-02f, -1.15104929e-01f, 5.78475967e-02f, 2.60440484e-02f, -7.22623849e-03f, -9.42754000e-03f, -5.52502871e-02f, -1.00344583e-01f, -5.52280992e-02f, -5.45038916e-02f, 3.46251503e-02f, -1.43357581e-02f, -6.75732493e-02f, -6.98644817e-02f, 1.86051056e-02f, 3.87369767e-02f, -1.24344878e-01f, -6.40963316e-02f, -3.40086073e-02f, 5.23192361e-02f, 5.15373573e-02f, -1.11035677e-02f, -9.78811830e-02f, 4.53421697e-02f, -4.88723479e-02f, -5.36897704e-02f, 3.79513875e-02f, 1.64271537e-02f, 2.98377853e-02f, -6.02476038e-02f, -2.87485104e-02f, 1.08709391e-02f, -6.12510368e-02f, 4.89077941e-02f, -9.43857338e-03f, -5.68417273e-02f, 7.82198384e-02f, 2.36103311e-03f, -5.28312214e-02f, -2.40318570e-02f, -8.91391411e-02f, 2.62091383e-02f, 6.18205406e-02f, 4.05490845e-02f, -5.45445010e-02f, -3.38227861e-02f, -4.23983745e-02f, -2.16289982e-02f, 5.29655591e-02f, -1.49732456e-02f, -3.07764281e-02f, 2.14533303e-02f, -9.60194990e-02f, -1.05456613e-01f, -2.13127229e-02f, 4.75228801e-02f, -7.96147659e-02f, -5.70396036e-02f, 7.32081905e-02f, -9.27435085e-02f, 4.25526313e-02f, 2.34177746e-02f, -1.41232580e-01f, 2.98454203e-02f, -7.98754096e-02f, -1.03728421e-01f, -4.30849940e-02f, -5.59484810e-02f, 3.31257880e-02f, 6.95608631e-02f, -2.40573101e-02f, -1.27872769e-02f, 6.22202307e-02f, 8.47840160e-02f, -8.66343454e-03f, -5.66815436e-02f, -9.41333771e-02f, 5.04174083e-02f, -7.65828490e-02f, -5.14044613e-03f, 4.83499877e-02f, -5.48733473e-02f, 4.49221767e-02f, 5.60321063e-02f, -2.06592251e-02f, 4.13107639e-03f, -3.22750621e-02f, -6.64102510e-02f, 2.73510981e-02f, -1.10363774e-02f, -7.96431210e-03f, 5.60040260e-03f, 6.37202337e-02f, 4.66438979e-02f, 3.27216350e-02f, -1.83894730e-03f, 2.70302985e-02f, -1.01053886e-01f, 1.05228480e-02f, -7.12896837e-03f, -4.97187488e-03f, -5.80213517e-02f, -7.79376477e-02f, 2.32554320e-02f, -4.58298437e-02f, -3.82517651e-02f, -6.64699450e-02f, -5.50067378e-03f, -1.00929283e-01f, 5.08287661e-02f, 2.99709067e-02f, -4.46066260e-05f, -5.41640036e-02f, -6.10179119e-02f, -7.62389228e-02f, 5.21403477e-02f, 2.37623975e-02f, 3.61437351e-02f, 3.30346972e-02f, 6.64248988e-02f, 2.76845805e-02f, -1.74936000e-02f, -3.73360328e-02f, -1.72151178e-02f, 2.52542254e-02f, 1.86652336e-02f, -2.92757284e-02f, -3.30682956e-02f, 6.78840354e-02f, 2.96243075e-02f, 4.64657787e-03f, -7.28585720e-02f, -5.71422763e-02f, -4.83323000e-02f, 6.44113198e-02f, -4.19659130e-02f, 7.15661719e-02f, 1.06261689e-02f, -9.18224733e-03f, -2.86442097e-02f, -3.43451509e-03f, -7.77518898e-02f, 4.57731187e-02f, -6.27028346e-02f, -7.13387355e-02f, 4.82542142e-02f, -2.29027681e-02f, -6.51240945e-02f, 8.24721437e-03f, 3.41223292e-02f, -8.21462274e-02f, 2.79908683e-02f, -5.72409034e-02f, -7.24335611e-02f, 2.54144445e-02f, 4.06775177e-02f, 2.51193922e-02f, 3.34656835e-02f, -7.96419457e-02f, -4.51846309e-02f, 5.49842138e-03f, -9.28165317e-02f, -2.90537998e-03f, 5.63784093e-02f, 3.86315547e-02f, -7.77429417e-02f, -1.13546848e-04f, 8.76972510e-04f, -2.65584216e-02f, -6.23292588e-02f, 1.33771777e-01f, 5.26482016e-02f, -1.15657911e-01f, 7.23604485e-02f, 3.68520245e-02f, -5.43922186e-02f, -3.38370241e-02f, -3.64927873e-02f, 4.52070795e-02f, -7.06095994e-02f, 6.18993910e-03f, -6.91927746e-02f, -1.60618052e-02f, 1.85897518e-02f, 2.42988463e-03f, 6.16576485e-02f, 3.03688161e-02f, -4.07517031e-02f, -5.29677793e-02f, -6.25842391e-03f, -2.94726584e-02f, -1.02650598e-02f, -5.85736074e-02f, -4.63463292e-02f, -6.10506237e-02f, 9.48152132e-03f, -4.77919690e-02f, 4.96958457e-02f, -2.34179124e-02f, 4.70776893e-02f, -4.45399135e-02f, -7.86086470e-02f, 1.13628089e-01f, -3.24772531e-03f, -5.71669005e-02f, -6.05924949e-02f, 9.09511652e-03f, 4.80305031e-02f, -9.43217576e-02f, -8.84580612e-03f, -3.04480940e-02f, -4.66772802e-02f, 3.12185567e-02f, 4.49009575e-02f, -1.67896450e-02f, 7.09968582e-02f, -3.31680737e-02f, -1.53163616e-02f, 5.38717769e-02f, -5.21308705e-02f, -8.65689367e-02f, 2.53040157e-02f, -6.03853799e-02f, 1.28337573e-02f, -1.98840089e-02f, -7.21482858e-02f, -4.98821437e-02f, 6.38943985e-02f, 6.95402501e-03f, 8.12698975e-02f, -1.61534920e-02f, -1.08619907e-03f, 4.14638855e-02f, -9.83650163e-02f, 1.15585336e-02f, 7.32911890e-03f, 6.41168356e-02f, 5.82285970e-02f, 2.70454492e-02f, 6.47357479e-02f, -3.33370268e-02f, -1.91671848e-02f, 4.94799837e-02f, -6.12604171e-02f, 7.24986382e-03f, 1.60092805e-02f, 1.14022866e-02f, -6.78019896e-02f, -3.86244692e-02f, -4.89621647e-02f, -5.13443016e-02f, -5.49980849e-02f, 7.56384358e-02f, 2.48648487e-02f, -4.99229692e-02f, -9.42665786e-02f, 5.75493611e-02f, -8.45668018e-02f, -6.47798032e-02f, -4.79070097e-02f, 4.47292775e-02f, 1.80792361e-02f, 2.25177370e-02f, -3.15419696e-02f, -7.20108598e-02f, -1.00738131e-01f, -6.45627826e-02f, 7.34557137e-02f, -3.93988714e-02f, 4.68586423e-02f, -3.78202125e-02f, -2.74639539e-02f, -9.98253375e-02f, -1.55448914e-03f, 5.81677891e-02f, 3.92472371e-02f, -8.78852755e-02f, -1.00788347e-01f, -8.29896778e-02f, -8.39711428e-02f, 5.38912602e-02f, -8.11860561e-02f, -2.05818154e-02f, 1.97049975e-02f, 1.34828733e-02f, 5.76437265e-02f, -1.60404225e-03f, -5.39175421e-02f, 4.07382548e-02f, 8.38665664e-03f, 1.32254483e-02f, -5.11900783e-02f, 3.78802530e-02f, -4.69469652e-02f, 2.93828249e-02f, 6.93964809e-02f, -8.22522193e-02f, 1.70067407e-03f, 3.95681374e-02f, -2.43118010e-03f, 4.93371813e-03f, 1.09302774e-02f, 2.14945264e-02f, 2.16776952e-02f, -5.96292950e-02f, 6.21043220e-02f, -2.13033687e-02f, -7.86594674e-02f, -8.19349214e-02f, -7.82000795e-02f, -1.87674332e-02f, -3.00432127e-02f, -8.77003360e-04f, 8.69004056e-02f, -1.27187232e-02f, 3.69488746e-02f, 6.32932317e-03f, 6.50196597e-02f, -2.81450823e-02f, -1.04153156e-01f, 6.98054805e-02f, -1.26152276e-03f, -7.60914162e-02f, 2.30885502e-02f, -6.64967997e-03f, 3.48356040e-03f, -1.26362666e-02f, 3.22263390e-02f, -5.89424372e-02f, -1.26308277e-01f, -3.43273468e-02f, -2.85173184e-03f, -6.21696264e-02f, 7.12274536e-02f, -9.22316313e-02f, 1.20023265e-02f, 3.45665566e-03f, -8.32045302e-02f, 3.81339118e-02f, -1.28973345e-03f, 2.47038715e-02f, -9.88873374e-03f, -5.08998614e-03f, -5.57272434e-02f, -9.21385214e-02f, -7.35066691e-03f, 3.00259851e-02f, -9.70231835e-03f, 4.41426560e-02f, 1.67613535e-03f, -6.42973976e-03f, -8.90318397e-03f, -2.67618354e-02f, 4.72920835e-02f, 1.72878187e-02f, 6.55992851e-02f },
  { 8.91101267e-03f, 6.02111183e-02f, -3.15402821e-02f, -2.26587467e-02f, -1.33847147e-01f, -6.96580261e-02f, 4.51253615e-02f, -7.24008754e-02f, 4.49520275e-02f, 2.98295394e-02f, 1.96608931e-01f, -2.45833807e-02f, 6.77120984e-02f, -3.22428755e-02f, 3.34315337e-02f, 1.50764808e-02f, 1.39443576e-01f, -6.96722418e-02f, 3.99110466e-03f, -7.13893771e-02f, 1.01165712e-01f, 6.20083101e-02f, -1.91020407e-02f, -9.78638157e-02f, -6.80600200e-03f, 1.82142593e-02f, 1.86403260e-01f, 2.98043918e-02f, -5.88903427e-02f, -3.93838473e-02f, 2.52213161e-02f, 3.43073793e-02f, 6.76072538e-02f, 1.04129985e-01f, 5.25647365e-02f, 7.07322955e-02f, 2.91561000e-02f, -7.03888834e-02f, 2.16677953e-02f, -1.19646927e-02f, 1.41383290e-01f, 5.19287623e-02f, 1.16198026e-01f, 2.03221217e-02f, -1.04563143e-02f, 1.64068714e-02f, 1.51576595e-02f, 1.48511846e-02f, 8.79395977e-02f, -1.01170205e-01f, 1.28196418e-01f, -7.41258487e-02f, -4.33100760e-02f, -6.80740625e-02f, 3.95872863e-03f, -8.08009226e-03f, 4.97825593e-02f, 6.41880557e-02f, 6.41317442e-02f, 5.21302857e-02f, -1.85867622e-02f, 6.69440394e-03f, -2.13809703e-02f, -2.26000808e-02f, 3.62560600e-02f, 3.54597643e-02f, 7.39653781e-02f, 2.71806922e-02f, -2.13460959e-02f, -4.01093885e-02f, 6.30814061e-02f, 4.14869189e-03f, 9.11745578e-02f, -2.51690801e-02f, -8.55061784e-02f, -4.04089503e-02f, 1.32037289e-02f, -3.72601040e-02f, -2.56611258e-02f, 6.36453480e-02f, 9.70220864e-02f, 5.72725162e-02f, 1.10118642e-01f, 5.47597706e-02f, 1.15434065e-01f, -1.57928821e-02f, -5.87558858e-02f, -4.59764153e-02f, -3.70415375e-02f, 6.57874020e-03f, 5.10731041e-02f, -9.75546613e-03f, -6.55585676e-02f, 1.63672805e-01f, 5.07818535e-02f, 1.64160132e-02f, 4.27713729e-02f, 1.12003826e-01f, 1.01186763e-02f, 1.26053318e-01f, 1.63966641e-02f, 3.01171746e-03f, 2.32479684e-02f, 4.57466729e-02f, 6.60155490e-02f, 3.19977254e-02f, 5.80734685e-02f, -5.86302690e-02f, 6.95374906e-02f, 6.10934719e-02f, 1.68810219e-01f, -3.59851755e-02f, 8.34024251e-02f, 6.15900718e-02f, 6.54412210e-02f, 1.59886144e-02f, 5.47130294e-02f, -5.10140173e-02f, -3.62757482e-02f, -3.98374982e-02f, 9.04162377e-02f, 1.03487633e-01f, 3.37668322e-02f, -1.40082926e-01f, -1.01717256e-01f, -6.54156655e-02f, -3.64073217e-02f, -7.58486837e-02f, 3.07596549e-02f, 1.86766218e-02f, 5.15997633e-02f, 1.23051926e-02f, -3.18854116e-02f, 1.68263614e-02f, -2.94496398e-02f, -4.53408808e-02f, -1.22489780e-02f, -5.08114835e-03f, -5.03551178e-02f, -7.03399032e-02f, 1.65930577e-02f, -7.99686164e-02f, 1.15059324e-01f, 1.71353780e-02f, 3.34358513e-02f, 4.53646034e-02f, 3.86015400e-02f, -2.16820948e-02f, 4.89971004e-02f, -2.03620065e-02f, 2.18007714e-02f, 6.10471610e-03f, -2.40391139e-02f, -2.38908622e-02f, -8.36625844e-02f, -3.45563563e-03f, 3.36506739e-02f, -3.08704339e-02f, 5.61489537e-02f, -1.89467072e-02f, 1.06527554e-02f, 5.15107065e-02f, -3.93285565e-02f, 1.95593581e-01f, -3.84196229e-02f, -5.08450642e-02f, -4.73907180e-02f, 8.39006081e-02f, 3.59176584e-02f, -5.00105545e-02f, -1.41609311e-01f, 8.29937309e-02f, 3.70018333e-02f, 2.90904865e-02f, 3.04019321e-02f, 4.28945944e-02f, 1.54202357e-01f, 4.61021438e-02f, 8.11921284e-02f, 5.58142327e-02f, -9.00301486e-02f, -4.02387641e-02f, 5.42759001e-02f, 6.52136579e-02f, 6.28414303e-02f, 1.01765722e-01f, 1.22742690e-02f, 5.07960794e-04f, 1.98805295e-02f, 1.51736274e-01f, -3.30605060e-02f, -6.90832809e-02f, 7.95174448e-04f, -9.80222598e-02f, -1.55125484e-02f, 4.21640188e-01f, 8.83738026e-02f, 2.45033065e-03f, -2.42948178e-02f, -7.42826685e-02f, 2.18706846e-01f, -9.51142684e-02f, -1.19547412e-01f, -6.13412857e-02f, 1.08016685e-01f, 3.75048891e-02f, -4.68969196e-02f, -5.90725839e-02f, 1.27709523e-01f, 1.27510149e-02f, 4.09951434e-02f, -4.92065772e-03f, -3.14958543e-02f, -4.17977683e-02f, 6.95423856e-02f, 7.22079575e-02f, -1.61449350e-02f, 5.18896710e-03f, -9.71080437e-02f, 1.35780603e-01f, -4.45882604e-02f, 1.99074432e-01f, 7.50139635e-03f, -7.33414367e-02f, 3.71089764e-02f, 1.19466215e-01f, -6.93314299e-02f, 2.47396931e-01f, -1.15173876e-01f, -2.00162888e-01f, -1.81324765e-01f, 5.20770252e-02f, 3.73976603e-02f, 7.14366361e-02f, -2.47311871e-02f, 7.45303109e-02f, 1.70755267e-01f, 3.67978960e-03f, -2.01705396e-01f, -7.54831210e-02f, 2.30715454e-01f, 9.22056437e-02f, -1.01047404e-01f, -1.50353964e-02f, 2.22794246e-02f, 2.97339410e-02f, 6.42530248e-02f, 2.35428214e-01f, 5.60900345e-02f, 6.49444237e-02f, -1.75949425e-01f, 2.29427084e-01f, -7.19984099e-02f, -2.61003524e-01f, -1.36688193e-02f, 3.17597985e-02f, 3.73621769e-02f, -9.24986452e-02f, 4.76047471e-02f, 2.28836592e-02f, 4.34550606e-02f, -1.28407285e-01f, -2.75827423e-02f, 6.08936399e-02f, -4.29941863e-02f, -3.07300948e-02f, 1.67156145e-01f, 3.07437405e-02f, 7.06128851e-02f, 3.65548134e-02f, -3.91071290e-02f, -6.57957345e-02f, 9.12780613e-02f, -7.08613470e-02f, 2.99223959e-02f, -6.21893164e-03f, -1.32457241e-01f, 1.93121433e-02f, 8.70326161e-02f, -4.57231626e-02f, 3.44834290e-02f, 8.78944620e-03f, -3.98833267e-02f, -1.08956516e-01f, -1.79168195e-01f, 1.21258639e-01f, -6.78044185e-02f, 1.27178803e-02f, -3.11351586e-02f, 9.92052630e-02f, 7.18348995e-02f, 3.27463225e-02f, -5.91605343e-02f, -5.16337827e-02f, 5.54445386e-02f, -4.95713241e-02f, 9.59679857e-02f, 6.22794367e-02f, 6.93482906e-02f, 4.92246971e-02f, 4.98239622e-02f, 5.32429963e-02f, 1.74051479e-01f, 3.81567739e-02f, 2.02569682e-02f, -5.61488457e-02f, 9.08010677e-02f, 2.37457398e-02f, 1.25412801e-02f, 8.04409012e-02f, -3.49513292e-02f, 6.33355752e-02f, -7.29672611e-02f, -7.96494540e-03f, -2.90296637e-02f, -1.17998086e-01f, 7.61582032e-02f, -5.88282570e-02f, -7.32992366e-02f, -5.05183153e-02f, -6.22336008e-03f, -2.76515596e-02f, 3.01769152e-02f, 9.91410762e-02f, 1.26505286e-01f, 9.16360244e-02f, 2.21513417e-02f, 2.63413861e-02f, 3.80998291e-02f, -6.00378402e-03f, 1.73726514e-01f, 7.84047320e-02f, 7.32923076e-02f, -4.95745800e-02f, 1.64865360e-01f, -2.57750205e-03f, 1.62674934e-01f, -5.69315553e-02f, 3.50956153e-03f, -6.35856614e-02f, 9.16317701e-02f, 8.99735987e-02f, 1.18489508e-02f, 4.79593016e-02f, -2.62811519e-02f, 9.43578605e-04f, -1.66889161e-01f, 1.40560254e-01f, -1.44725544e-02f, -1.99374020e-01f, 5.86786307e-02f, 7.96983019e-03f, 5.88987134e-02f, -1.26629755e-01f, -1.58967748e-02f, 1.79724813e-01f, -1.88573357e-03f, 7.72155449e-02f, 6.88626394e-02f, 5.55178411e-02f, 2.11811543e-01f, 6.23145327e-02f, 2.55884230e-01f, -7.62631521e-02f, 2.92243183e-01f, -1.17992163e-02f, -2.05740929e-01f, -4.50837016e-02f, 4.77127507e-02f, -4.75671701e-02f, 3.09176017e-02f, 4.01649624e-03f, -1.89639688e-01f, 5.45007624e-02f, -2.41634287e-02f, -8.15710425e-02f, -2.56684478e-02f, 2.13307366e-02f, -5.37380530e-03f, 1.60703287e-01f, -8.61891508e-02f, -2.24502459e-01f, 7.54021928e-02f, -3.05875950e-02f, -4.12452705e-02f, -2.37333417e-01f, 5.75546250e-02f, 1.82113498e-01f, -3.62010784e-02f, 8.74587744e-02f, -8.56065154e-02f, -3.80139165e-02f, 1.09014049e-01f, -1.00256115e-01f, 2.60558516e-01f, -5.91101646e-02f, 2.13759452e-01f, 2.81923148e-03f, -3.54107708e-01f, 2.71316431e-02f, 1.95229843e-01f, -3.82899679e-02f, -3.03116404e-02f, 9.51861143e-02f, -2.13989720e-01f, -5.12684835e-03f, 5.54124117e-02f, -3.08866869e-03f, 3.01746838e-02f, -4.74944934e-02f, 6.89217895e-02f, -2.30023451e-03f, -4.29343700e-01f, -6.14568330e-02f, 5.10652736e-03f, -4.32881564e-02f, 7.79446363e-02f, -4.28438447e-02f, 5.22763953e-02f, 7.56906793e-02f, 8.22528154e-02f, 2.91077979e-02f, 7.83101991e-02f, 7.32673379e-03f, 2.36275885e-02f, -8.05595666e-02f, 8.37537795e-02f, 6.48131445e-02f, 2.11661737e-02f, 2.79698148e-02f, -1.91481322e-01f, -5.48205301e-02f, -8.44464824e-03f, 1.57082275e-01f, 2.52024438e-02f, 1.48923062e-02f, -9.85011160e-02f, -7.79990014e-03f, 1.11243054e-02f, 1.38139248e-01f, -2.81883534e-02f, 2.51759421e-02f, 1.33589074e-01f, 2.03358516e-01f, -2.41300821e-01f, -2.53173053e-01f, -3.36806662e-02f, 8.48580524e-03f, -4.63064983e-02f, 2.11919192e-03f, -2.59182863e-02f, -1.23698875e-01f, 1.77116036e-01f, -1.11371065e-02f, 2.30726987e-01f, -3.96265648e-02f, -1.01851173e-01f, -1.46534024e-02f, 1.02922685e-01f, 9.27286502e-03f, -2.51185954e-01f, 6.16165176e-02f, 2.03350082e-01f, -6.98441640e-02f, 2.61177216e-02f, 5.44906817e-02f, 3.08686327e-02f, -3.28261256e-02f, 2.37450525e-01f, -3.89636401e-03f, 8.91556963e-03f, -3.66430134e-02f, -7.02237710e-02f, 5.79390265e-02f, -7.40008727e-02f, -1.02216136e-02f, -1.96732450e-02f, -5.74974567e-02f, -7.99920633e-02f, -6.39766753e-02f, -6.78613335e-02f, -1.48127869e-01f, 5.06593809e-02f, -2.04307958e-02f, 9.14803892e-03f, 4.61762249e-02f, 3.61045152e-02f, -4.74507958e-02f, -3.62293348e-02f, 6.04610369e-02f, 2.79140519e-03f, -1.92994848e-02f, 3.41907144e-02f, -5.91640100e-02f, 4.40537035e-02f, 3.20375971e-02f, -1.43549830e-01f, -9.19326395e-02f, 1.31598130e-01f, 2.39706191e-04f, 1.58378407e-01f, 6.67258515e-04f, 4.74512465e-02f, -3.85294184e-02f, 1.92440245e-02f, -7.66911136e-04f, -6.62646722e-03f, -2.53115068e-05f, 5.94083332e-02f, 5.28471591e-03f, -3.18702869e-02f, -9.40388534e-03f, -1.18796974e-02f, -1.45726383e-01f, -9.42078978e-03f, -1.20485798e-01f, -1.03682406e-01f, 1.96246073e-01f, 4.28341329e-03f, 7.24451020e-02f, -6.68567270e-02f, -4.61539589e-02f, -4.48255800e-02f, 7.83091858e-02f, 4.54996992e-03f, 5.43912984e-02f, 6.48746639e-02f, -2.04409217e-03f, -1.49677530e-01f, -2.94088908e-02f, 1.95945159e-01f, 1.10791018e-02f, 1.47182807e-01f, -3.80300172e-02f, -2.58916002e-02f, -4.73381281e-02f, 6.78284690e-02f, 8.70855600e-02f, -8.57618675e-02f, 5.72837479e-02f, 1.51529342e-01f, -4.20760475e-02f, 2.10096389e-02f, 2.08978616e-02f, -4.49059568e-02f, -4.60114568e-01f, -1.86456442e-02f, -1.38673000e-02f, 1.79023445e-01f, 2.21611544e-01f, -1.82231441e-01f, -3.63049883e-04f, 4.28981856e-02f, 9.18721315e-03f, -2.86956578e-01f, 5.83048239e-02f, -1.18342116e-01f, 7.26022795e-02f, -2.13747382e-01f, -4.77132164e-02f, -1.05809294e-01f, -8.77947807e-02f, 1.83332771e-01f, 8.46734494e-02f, 9.88509059e-02f, 5.12810089e-02f, 7.58583248e-02f, -1.14204317e-01f, -3.51713970e-02f, -3.53073631e-03f, -1.55193619e-02f, -1.25472620e-01f, -9.21742544e-02f, -1.03350721e-01f, -1.41928867e-02f, -8.30504894e-02f, -1.84660666e-02f, -3.80269706e-01f, 5.22684604e-02f, -1.53804958e-01f, 1.19404368e-01f, -3.59742008e-02f, -1.95290506e-01f, 4.40464653e-02f, -1.06320858e-01f, 2.17847973e-02f, -1.97257504e-01f, 2.35184804e-02f, -3.33270021e-02f, -4.88899760e-02f, -1.25228494e-01f, 2.34318636e-02f, -6.32880032e-02f, 9.63230133e-02f, 1.20055035e-01f, 2.05529295e-02f, 1.65922090e-01f, 6.67723194e-02f, 3.31695145e-03f, -7.53541142e-02f, -5.93326688e-02f, 4.34064120e-02f, -1.72110996e-03f, 7.73168802e-02f, 1.09488845e-01f, -7.46410266e-02f, 1.54610751e-02f, -3.73492278e-02f, -1.67833660e-02f, -9.75308642e-02f, -3.10933590e-03f, 2.41757035e-02f, 6.07038252e-02f, -1.80972961e-03f, -1.45100579e-01f, 4.05266210e-02f, -2.19899356e-01f, 4.54617590e-02f, 4.74451520e-02f, 5.94716594e-02f, -1.10608988e-01f, 5.33263758e-02f, -4.34656702e-02f, -5.81701547e-02f, 4.67227511e-02f, 3.01190242e-02f, -7.82700703e-02f, 1.57185569e-02f, 7.96616599e-02f, 7.68282935e-02f, 4.02464941e-02f, -1.54853657e-01f, 1.66310463e-02f, 9.46170315e-02f, 2.50695627e-02f, -3.30695920e-02f, 7.53173754e-02f, -2.21065190e-02f, -9.49877780e-03f, -4.38605212e-02f, 4.12781946e-02f, -4.75118980e-02f, -6.38624281e-02f, 3.65917422e-02f, 2.05209758e-02f, -7.66184938e-04f, 2.06654757e-01f, -3.89899760e-02f, 5.33351228e-02f, -5.26683666e-02f, 9.50164497e-02f, -7.06106275e-02f, -1.47095054e-01f, -2.23430805e-02f, 1.02620795e-02f, 2.35674400e-02f, -2.64890725e-04f, -4.86762002e-02f, -5.78845739e-02f, -4.77630645e-02f, 2.91473921e-02f, -3.55013274e-02f, -1.19319586e-04f, 1.97389107e-02f, 1.05115138e-02f, -1.10954279e-03f, 6.28058314e-02f, -1.31354136e-02f, 3.59872505e-02f, 7.35137463e-02f, 3.06544695e-02f, -8.19757208e-02f, 1.71850983e-03f, -1.36419669e-01f, -2.71053538e-02f, -7.10953325e-02f, -7.60993585e-02f, 5.91323711e-02f, 6.33558780e-02f, -5.96545227e-02f, 1.71011731e-01f, -2.85638086e-02f, 1.39297517e-02f, 1.09918118e-02f, 1.84683576e-02f, 8.21614861e-02f, 5.14493622e-02f, -1.32731933e-04f, -2.31985934e-03f, -4.61442769e-02f, -1.43142521e-01f, 7.07076415e-02f, 1.26514643e-01f, 1.26676932e-02f, -5.08739986e-02f, 3.66834775e-02f, -3.12654711e-02f, 6.65238649e-02f, -5.25179096e-02f, 2.30299793e-02f, -1.44202020e-02f, 8.61658603e-02f, -1.69928335e-02f, 1.82644557e-02f, 6.20950945e-02f, -5.84802218e-02f, -4.40977886e-02f, -2.55635548e-02f, -9.49303284e-02f, -1.43103034e-05f, -4.38308492e-02f, 3.78628224e-02f, 1.26156464e-01f, 5.95102720e-02f, 1.28105059e-01f, 7.58936778e-02f, 4.10714559e-02f, -5.47399521e-02f, 1.41403466e-01f, 1.58490464e-02f, 2.17491873e-02f, 4.56943251e-02f, -9.35733393e-02f, 5.29643223e-02f, 9.87966061e-02f, 6.60512447e-02f, -7.30753466e-02f, 6.99459538e-02f, 5.04977219e-02f, 8.99544358e-02f, 1.22550614e-01f, -5.41587267e-03f, 5.70550822e-02f, -1.13100126e-01f, 8.45459383e-03f, -7.32636824e-02f, -1.17208064e-02f, -1.80652246e-01f, 3.08508873e-02f, -1.90245301e-01f, -1.12418078e-01f, -9.17719826e-02f, -1.39887989e-01f, 1.41348108e-03f, -2.97837667e-02f, -6.11473061e-02f, 5.28335758e-02f, -8.84463191e-02f, -4.17143218e-02f, -7.23582730e-02f, 1.45411700e-01f, -3.71815749e-02f, 1.11605398e-01f, 3.10912896e-02f, 1.97784528e-02f, 1.01982698e-01f, -1.52363777e-01f, 6.86433315e-02f, -4.79759313e-02f, 1.01822400e-02f, 6.50620908e-02f, -2.96049025e-02f, 3.49961147e-02f, -8.55120420e-02f, 6.62602633e-02f, 3.41402441e-02f, 5.18482402e-02f, 7.10264146e-02f, -3.22060809e-02f, -3.44686061e-02f, -2.84038484e-04f, -1.65209964e-01f, 1.28564937e-02f, -1.35686830e-01f, -1.42749801e-01f, 6.54309094e-02f, -1.13938034e-01f, 3.05457115e-02f, 1.01600063e-03f, 3.96781340e-02f, -1.08347470e-02f, 2.32534651e-02f, 4.51375917e-03f, -4.56338190e-02f, -2.25636493e-02f, 1.04905933e-01f, -7.88121577e-03f, 9.75446329e-02f, -3.93013209e-02f, 7.91644305e-02f, 6.44970965e-03f, -6.91478103e-02f, -5.82953431e-02f, 7.01154619e-02f, -1.56905845e-01f, -6.16324991e-02f, 2.06927881e-02f, 4.65342999e-02f, 8.72435793e-02f, -1.17742596e-02f },
  { -6.33436739e-02f, -1.31207397e-02f, 1.44952359e-02f, -6.85085058e-02f, 1.10763669e-01f, 6.69197366e-02f, 2.35345252e-02f, 3.39916423e-02f, -1.77857019e-02f, 9.59950984e-02f, 3.33192833e-02f, 9.94008780e-03f, 1.21708279e-02f, -1.40113458e-02f, 3.38466130e-02f, -8.74003023e-03f, 2.11896356e-02f, 1.86220184e-01f, -6.04145564e-02f, -5.12424074e-02f, -2.34573912e-02f, -8.22864622e-02f, 1.11092255e-02f, 2.31123175e-02f, 4.87566777e-02f, 6.96974546e-02f, 2.03996509e-01f, -4.38730530e-02f, 1.08612226e-02f, -4.41688299e-02f, 7.02913851e-02f, -2.69158334e-02f, 2.77071930e-02f, -8.64707232e-02f, 1.30365882e-02f, 5.94845861e-02f, 1.78405374e-01f, 4.05634604e-02f, 9.51396767e-03f, 2.36837994e-02f, 4.84630419e-03f, -3.59417312e-02f, 7.10810870e-02f, 5.56783453e-02f, 2.54500657e-02f, 9.83847380e-02f, -5.83850332e-02f, 2.13989578e-02f, 1.16362311e-01f, -7.05079176e-03f, -1.80917606e-01f, -3.77378389e-02f, 3.57810259e-02f, 1.59275252e-02f, -8.31431970e-02f, 2.43303739e-02f, -3.81225944e-02f, 2.96244342e-02f, 4.84198481e-02f, -4.87707108e-02f, 2.69832145e-02f, 7.87252039e-02f, 5.35755455e-02f, 5.88049963e-02f, -4.41016369e-02f, -4.30577919e-02f, 5.57240918e-02f, 4.56930250e-02f, 1.19714275e-01f, -5.00544570e-02f, 1.75898857e-02f, -2.17849612e-02f, -1.40260458e-01f, 7.10407645e-02f, -3.99820181e-03f, -2.75339484e-02f, 1.42394722e-01f, 5.26793227e-02f, 9.86002460e-02f, 5.78276231e-04f, 1.18942551e-01f, -3.48615162e-02f, -9.62811112e-02f, -5.25142066e-02f, 1.24106705e-01f, 5.47819249e-02f, -2.81269476e-02f, 9.07764062e-02f, 3.72550748e-02f, -5.76417930e-02f, 1.02507412e-01f, -2.37945914e-02f, 4.42357063e-02f, 1.31472526e-02f, 2.53018737e-02f, -5.49552664e-02f, -4.83638570e-02f, 1.24885008e-01f, -6.90064877e-02f, 3.67902182e-02f, -6.51662350e-02f, 1.09724253e-02f, -1.03138536e-01f, -3.16482410e-02f, -1.21826209e-01f, 1.83551628e-02f, -6.72619790e-03f, -3.70317101e-02f, 1.51273552e-02f, -4.11891341e-02f, 4.99043986e-02f, -7.74335861e-03f, -3.70162763e-02f, 4.95812409e-02f, 6.28208071e-02f, 6.00815527e-02f, -3.72903869e-02f, -2.81754993e-02f, -3.48876305e-02f, -8.94569419e-03f, 5.56074679e-02f, 7.84532353e-02f, 2.15638384e-01f, 1.66539386e-01f, -9.73020941e-02f, -1.29289016e-01f, -3.06531638e-02f, 7.63397440e-02f, 2.24422552e-02f, -4.03008573e-02f, -6.01892881e-02f, 7.39193782e-02f, -5.70495613e-02f, -6.71156868e-03f, 2.45527457e-02f, -7.49599859e-02f, -4.75229062e-02f, -2.42251158e-02f, 1.36324137e-01f, 4.75513563e-02f, 9.76329297e-03f, 2.71877497e-02f, -3.10402084e-02f, -1.46745890e-02f, -1.15064010e-02f, 6.07357956e-02f, -5.88531420e-02f, -6.44747019e-02f, -4.03814670e-03f, 5.89190349e-02f, -1.63725596e-02f, -8.37187022e-02f, -3.71871144e-02f, 3.71573493e-02f, 1.57120556e-01f, 3.00960075e-02f, -6.24375008e-02f, -1.07880890e-01f, -5.87402619e-02f, -4.91776690e-02f, 4.93877903e-02f, -1.64406076e-02f, -2.09500957e-02f, 1.47209475e-02f, 9.12408158e-02f, 7.81691521e-02f, 1.78788617e-01f, 3.18719260e-02f, 2.51779165e-02f, 1.63030010e-02f, -1.27185598e-01f, -3.03979628e-02f, -6.47649541e-02f, 2.28526816e-02f, 1.99619964e-01f, -8.68341476e-02f, 1.41804606e-01f, 4.41503264e-02f, -1.15037203e-01f, -8.41251835e-02f, 5.79882637e-02f, 6.10847697e-02f, 8.03091452e-02f, -1.19112492e-01f, -9.83548909e-03f, 8.91040172e-03f, 4.45585102e-02f, -1.01482235e-01f, 6.81889504e-02f, 4.47519310e-02f, 4.27010097e-02f, -1.20213032e-02f, 4.44769394e-03f, -1.41461909e-01f, -2.24497467e-02f, 4.57778156e-01f, -3.93473990e-02f, -8.86490121e-02f, -3.89976874e-02f, 8.91994834e-02f, 1.87459975e-01f, -4.78708781e-02f, 9.50520262e-02f, 4.98443320e-02f, 2.57324398e-01f, 4.67891470e-02f, 2.17005193e-01f, -8.02695006e-02f, 2.44252726e-01f, 2.05059782e-01f, 6.27868921e-02f, -2.15418264e-03f, -2.58028433e-02f, 7.11220726e-02f, 7.17159510e-02f, 8.35657418e-02f, -1.52593507e-02f, -4.36666608e-02f, 2.86839181e-03f, -2.21945152e-01f, 1.64928734e-01f, 1.87877297e-01f, -2.02068072e-02f, 6.42015785e-02f, -4.10650112e-02f, -1.12647619e-02f, -7.64942169e-03f, 8.76787603e-02f, 2.03570321e-01f, -2.58402199e-01f, -1.57851577e-01f, -6.02502562e-02f, 1.75730452e-01f, 8.92242044e-02f, 2.04397691e-03f, -5.87156042e-02f, 3.05716157e-01f, 2.67214775e-02f, 9.94541124e-02f, -5.54668270e-02f, 9.74333435e-02f, 1.88686430e-01f, 4.45352569e-02f, -1.29164726e-01f, -7.10587204e-02f, -3.76690328e-02f, 5.48277311e-02f, 1.86697524e-02f, 7.63603970e-02f, -9.12233442e-03f, -1.02755800e-01f, 4.66129817e-02f, -4.29702289e-02f, -1.24225996e-01f, -6.14158735e-02f, -5.12283072e-02f, 3.81600037e-02f, 3.84089118e-03f, 2.28526965e-02f, 1.54370159e-01f, -6.59872741e-02f, 9.62421820e-02f, 1.20667838e-01f, 1.09153306e-02f, 7.51642436e-02f, -3.01915258e-02f, 2.74427179e-02f, -1.49790645e-02f, 8.00862089e-02f, -5.35820350e-02f, -5.09873740e-02f, 3.64585929e-02f, -4.82439809e-02f, -5.08929929e-03f, -8.58682767e-02f, -1.82193182e-02f, -1.13787048e-01f, 2.55189487e-03f, -6.67416453e-02f, -7.20074028e-02f, 6.13124296e-02f, 5.11504710e-02f, 3.78064066e-02f, -5.40823229e-02f, 1.57922935e-02f, -1.33019432e-01f, 4.90907207e-02f, 4.66167107e-02f, -6.20623082e-02f, 7.28437975e-02f, 2.80011073e-02f, -4.89094108e-02f, 3.59301046e-02f, -7.33861048e-03f, -1.47245765e-01f, -7.24922344e-02f, -3.82847935e-02f, -4.07140888e-02f, -5.03197871e-03f, -7.10725412e-02f, 1.03712507e-01f, -4.69362969e-03f, 9.00907367e-02f, 2.92662531e-03f, -1.71957031e-01f, -1.95663720e-02f, -2.52757710e-03f, -2.19266508e-02f, -3.45538668e-02f, 8.05878639e-02f, 2.67162751e-02f, -2.67092288e-02f, 1.60437711e-02f, 7.09833354e-02f, 1.05171300e-01f, -1.36392221e-01f, 1.18933041e-02f, 1.46416202e-01f, -3.84388380e-02f, -6.94746599e-02f, -1.94892492e-02f, -7.56260008e-02f, 4.80571995e-03f, -2.04920620e-02f, -6.66075051e-02f, 4.84237932e-02f, -8.31642747e-02f, -4.60767485e-02f, 1.56504825e-01f, 9.34606567e-02f, -7.79974693e-03f, -3.29217538e-02f, -5.20982780e-02f, -5.98441018e-03f, 7.00432211e-02f, -2.21419651e-02f, 2.90191900e-02f, -1.68699138e-02f, 7.24579254e-03f, -1.27006888e-01f, 2.72036623e-02f, 6.60086935e-03f, 6.13690615e-02f, -7.76168853e-02f, -1.84371881e-02f, 6.52735457e-02f, -4.68014553e-03f, -1.14088476e-01f, -2.18280051e-02f, -5.65320514e-02f, 6.53952733e-02f, -7.84691125e-02f, 2.91586835e-02f, 3.65610756e-02f, 8.30877200e-02f, 1.56528458e-01f, 6.80415053e-03f, 8.50846544e-02f, -1.31109118e-01f, 4.02454324e-02f, 2.39891618e-01f, -6.61276057e-02f, 1.13151677e-01f, 5.69856986e-02f, 1.86919421e-01f, -4.86927032e-02f, 1.18810385e-01f, 6.42812774e-02f, -6.54025972e-02f, 2.00734705e-01f, -3.78836654e-02f, -8.34383443e-02f, -5.30261062e-02f, -1.74668860e-02f, 5.77642582e-02f, -7.48128444e-02f, 7.45054409e-02f, -1.11712357e-02f, 1.29727110e-01f, 1.73973478e-02f, -1.87166005e-01f, 1.70955230e-02f, 7.21993223e-02f, -3.52292880e-02f, 2.24794149e-02f, 5.31154610e-02f, -3.62610221e-02f, 8.46370086e-02f, 1.33215696e-01f, 1.05927125e-01f, -1.57417029e-01f, -3.79246250e-02f, 1.24666646e-01f, 4.71427888e-02f, 1.03382200e-01f, -2.14790329e-02f, -1.17534935e-01f, -4.54613976e-02f, -2.42216010e-02f, -4.36796583e-02f, -2.89169908e-01f, 2.99413614e-02f, -9.18409154e-02f, 1.98738426e-02f, -5.76429181e-02f, -4.53999378e-02f, -6.09273016e-02f, -3.73120792e-02f, 8.33171234e-02f, 7.15003908e-02f, -1.59785166e-01f, -6.43751472e-02f, -3.43200743e-01f, 3.52570526e-02f, 5.09931818e-02f, -2.94283628e-02f, 3.57679091e-02f, 2.83388406e-01f, -6.58206567e-02f, -6.23604506e-02f, -4.51362915e-02f, 7.34546408e-02f, -2.54048109e-01f, -6.34811223e-02f, 4.64661419e-02f, 8.60940814e-02f, -1.69359632e-02f, -2.94230133e-03f, 3.44433710e-02f, -8.14268440e-02f, 2.13643424e-02f, 5.81349805e-02f, 6.37164712e-02f, -2.19825208e-01f, -9.77571309e-02f, -1.17021874e-01f, 5.23760989e-02f, -7.87321627e-02f, 2.58753262e-02f, 7.65081793e-02f, -1.17382780e-02f, 3.17509510e-02f, 4.29918990e-02f, 2.04569623e-02f, -6.07635193e-02f, -3.75704080e-01f, 7.73763731e-02f, 1.65089145e-02f, -4.50027585e-02f, 2.40929611e-02f, 6.34274557e-02f, -9.75545198e-02f, 1.08483739e-01f, -3.50285694e-02f, 6.38069808e-02f, -4.84921597e-02f, -2.78318045e-03f, 5.93218729e-02f, -2.00292077e-02f, -5.37950583e-02f, -1.20819852e-01f, 2.32577100e-02f, 1.40555039e-01f, -9.27624945e-03f, -1.22296356e-01f, -1.37805596e-01f, -1.03447437e-02f, -7.42766932e-02f, -4.91377227e-02f, 6.72739148e-02f, 8.95145237e-02f, -6.33707792e-02f, -1.47781372e-02f, 7.92835280e-02f, 1.83592483e-01f, -1.60133019e-01f, 4.10316922e-02f, 6.57073036e-02f, -7.40692839e-02f, -2.09807442e-03f, -3.26533392e-02f, 4.44231518e-02f, -6.04833364e-02f, 8.80318284e-02f, 1.28974587e-01f, -1.81742273e-02f, -7.47582838e-02f, -6.75726607e-02f, -1.09069407e-01f, 8.20077360e-02f, 7.56056383e-02f, -3.35787535e-02f, -1.08895995e-01f, 3.51980925e-02f, 1.60627306e-01f, -1.97978206e-02f, 1.46796703e-01f, 1.32117495e-02f, 8.90934318e-02f, 2.03113556e-02f, 1.45788491e-01f, 8.10538232e-03f, 1.40571641e-03f, -2.04871409e-02f, -6.75482452e-02f, -1.33773535e-02f, 8.13377928e-03f, -1.13352649e-01f, -5.12196571e-02f, 2.09991094e-02f, -7.92330503e-02f, -5.33076227e-02f, 7.49473870e-02f, -4.69085537e-02f, -3.19182090e-02f, 5.26031926e-02f, 1.31942123e-01f, 4.57657464e-02f, -7.48155713e-02f, -3.87702719e-03f, -1.07188098e-01f, -4.86335605e-02f, 8.86856243e-02f, -6.69955239e-02f, -7.91822970e-02f, 6.37092665e-02f, 1.43510565e-01f, 4.11810055e-02f, 1.91363201e-01f, 5.72028458e-02f, 1.38281524e-01f, -4.08369452e-02f, 7.45221823e-02f, 3.85141075e-02f, 3.02109122e-02f, -1.49974480e-01f, -6.26657456e-02f, -5.01529574e-02f, -1.13740928e-01f, -3.57124470e-02f, -1.52053656e-02f, 6.92020655e-02f, -2.57052183e-02f, 1.12225041e-02f, -6.81260079e-02f, -6.24838136e-02f, -2.19678506e-02f, 1.96090385e-01f, 8.75929445e-02f, 1.91998824e-01f, -9.84283388e-02f, -6.97059482e-02f, 3.03972661e-02f, 1.08810656e-01f, -1.54157236e-01f, -3.12263966e-02f, -6.37350231e-02f, -6.52987808e-02f, -1.71561399e-03f, 8.24100003e-02f, -4.02407860e-03f, -1.44525766e-01f, -4.47197221e-02f, -7.57228732e-02f, -8.27594846e-02f, 4.87778150e-02f, -5.12689687e-02f, -1.85245648e-01f, -7.80696273e-02f, 4.72155511e-02f, 4.43791635e-02f, -3.69404465e-01f, -3.48303989e-02f, 4.77543101e-03f, 7.26104155e-02f, 7.78076798e-03f, -5.42551428e-02f, 5.42043000e-02f, 1.45867215e-02f, -1.91122349e-02f, -1.06248274e-01f, -1.53513685e-01f, 8.42303783e-02f, 2.28800941e-02f, 5.55965938e-02f, 6.22184053e-02f, -4.66524623e-02f, -8.15822929e-03f, -1.58005044e-01f, -3.51786837e-02f, 4.75353701e-03f, -1.65207665e-02f, -1.80201218e-01f, -5.43955117e-02f, -1.53864279e-01f, -4.13591713e-02f, 1.62382752e-01f, 6.61446154e-02f, 5.24470881e-02f, 2.12603033e-01f, -5.05566336e-02f, 5.57248145e-02f, -1.32383779e-01f, 2.88163386e-02f, -2.67618373e-02f, 1.47592247e-01f, -7.49321356e-02f, 3.58186592e-03f, 4.40919474e-02f, -2.60932394e-03f, -4.62536216e-02f, 4.98841666e-02f, -5.10868505e-02f, -9.59183052e-02f, -4.72971192e-03f, -5.07169811e-04f, -1.02671683e-02f, 5.51210418e-02f, -9.80568081e-02f, 7.27721900e-02f, -9.90894437e-02f, 7.57640600e-03f, 1.39719620e-01f, 4.53785174e-02f, -1.81721267e-03f, 1.09061887e-02f, 5.66355623e-02f, -1.22772783e-01f, -5.14810532e-02f, 4.81862314e-02f, -4.50442825e-03f, -1.72728240e-01f, 5.62524796e-03f, 7.91778713e-02f, -1.96055956e-02f, -1.53605461e-01f, 9.65095870e-03f, 2.04376474e-01f, 8.15737993e-02f, 6.39573634e-02f, -2.76408071e-04f, 1.37276694e-01f, 6.12950325e-03f, -2.19619554e-02f, 2.53849421e-02f, -1.19744554e-01f, -2.44056582e-01f, 9.21781361e-03f, -9.55587700e-02f, -6.54438585e-02f, -5.95265441e-02f, -4.85774875e-02f, 1.19867273e-01f, -5.56612015e-02f, -6.12445036e-03f, -3.48234028e-02f, 3.67582627e-02f, 5.88358194e-02f, 7.76036531e-02f, -3.75697576e-02f, -2.32975017e-02f, 4.92234677e-02f, -6.86432868e-02f, 4.72749136e-02f, 6.12386540e-02f, -3.92245091e-02f, 1.41140461e-01f, 1.05480412e-02f, -1.22230984e-02f, -5.59838265e-02f, 1.61205437e-02f, 7.65021890e-03f, -5.43992668e-02f, 8.51805955e-02f, 7.56963268e-02f, 2.09981855e-02f, 3.95392179e-02f, -1.18485741e-01f, 4.96704839e-02f, -4.70452122e-02f, 3.64662819e-02f, -4.11150604e-02f, 4.44947593e-02f, 5.04977927e-02f, 5.78774922e-02f, 5.11366352e-02f, -1.41270654e-02f, 4.09593619e-02f, -1.15817659e-01f, 1.67284444e-01f, 4.39411774e-02f, -3.69976386e-02f, -9.81820449e-02f, 3.58165689e-02f, 2.41400823e-02f, 1.98238958e-02f, 3.39015275e-02f, -3.04032341e-02f, 1.33550301e-01f, -4.64668795e-02f, 1.52754113e-01f, -1.27246037e-01f, 6.58418462e-02f, -1.78935751e-02f, -4.39471602e-02f, -7.72733241e-03f, 4.36830744e-02f, 4.21662778e-02f, 5.49465194e-02f, 4.97800298e-02f, 1.65986404e-01f, 1.25711737e-02f, -2.28313170e-03f, 4.61593308e-02f, 8.01653117e-02f, -2.55649909e-02f, -5.15258648e-02f, -7.25189075e-02f, 1.30993754e-01f, -1.92029253e-02f, -5.54177016e-02f, -5.37463289e-04f, 7.32721910e-02f, -7.52760023e-02f, 6.64043203e-02f, -1.93246696e-02f, 7.66182169e-02f, 1.29019618e-01f, -6.44755960e-02f, -5.99794798e-02f, 1.49586976e-01f, -8.60322863e-02f, 1.01979740e-01f, -3.14178467e-01f, 1.99627951e-02f, 5.63146099e-02f, -6.86447993e-02f, 1.81366932e-02f, 6.15216717e-02f, 3.30198780e-02f, -4.05223519e-02f, -6.27775714e-02f, 5.63790724e-02f, 2.65527144e-02f, 3.73617858e-02f, -7.32999295e-03f, -4.82358113e-02f, 6.47525713e-02f, 5.27423294e-03f, 2.06969976e-02f, 1.94181770e-01f, -5.65011054e-02f, -5.18633910e-02f, -8.64727497e-02f, -7.52726048e-02f, 5.11826165e-02f, -9.76311192e-02f, 1.48383109e-02f, -4.44403775e-02f, -1.81025881e-02f, 4.95624878e-02f, 4.52839211e-02f, -4.25104126e-02f, -4.91454173e-03f, 1.13073438e-01f, -1.46155447e-01f, 2.79844720e-02f, 5.02472855e-02f, 1.75091401e-02f, -1.66513361e-02f, -7.56688118e-02f, -2.98282392e-02f, -7.01267570e-02f, 8.74628371e-04f, -1.43197596e-01f, -6.60933778e-02f, 2.93638796e-01f, 5.53465597e-02f, 2.07675606e-01f, -2.63228416e-02f, 9.26883668e-02f, -5.14443144e-02f, 2.37848759e-02f, -1.34163015e-02f, 8.79210830e-02f, -4.26528379e-02f, 1.43046603e-01f, 1.62039902e-02f, 9.73188505e-02f, -6.33956343e-02f, -4.40151021e-02f, 1.55785561e-01f, 8.21786895e-02f, 1.81623194e-02f, 8.36856365e-02f, 1.23121910e-01f, -7.91311488e-02f, -2.96638124e-02f, -7.95390159e-02f, 5.37231006e-02f },
  { -6.80813566e-02f, 4.08880264e-02f, -2.43013036e-02f, 6.95002899e-02f, -2.74533057e-03f, 1.78349931e-02f, 8.52710754e-02f, 6.23657852e-02f, 1.15589753e-01f, -7.66606908e-03f, 6.94000423e-02f, -2.92036124e-02f, -4.72129285e-02f, -1.85706019e-02f, 1.01242825e-01f, -2.56606545e-02f, -9.84519138e-04f, -9.92483571e-02f, 9.46432948e-02f, 1.03371270e-01f, 6.99681565e-02f, 3.66193876e-02f, 4.49320534e-03f, 1.43465385e-01f, -5.20247072e-02f, 1.23749645e-02f, 3.82808745e-02f, -3.88395414e-03f, -2.67433953e-02f, 1.72440380e-01f, 6.87214807e-02f, -3.05588674e-02f, -3.59646790e-02f, -4.33897646e-03f, 4.33426201e-02f, -2.08031177e-03f, -2.47885082e-02f, 8.10299516e-02f, -1.46392688e-01f, 3.94678349e-03f, 1.58572337e-03f, 4.11567837e-03f, -1.19185440e-01f, -7.64227957e-02f, 7.07969964e-02f, -1.48890918e-04f, 1.22054100e-01f, -1.83518827e-02f, 2.48704180e-02f, 4.19506757e-03f, 1.98176876e-03f, 4.14764769e-02f, -1.68896951e-02f, -2.56155021e-02f, 1.38658406e-02f, 6.46076724e-02f, -4.36888412e-02f, -4.03450169e-02f, -1.17975734e-01f, 4.22056094e-02f, -5.15967831e-02f, -6.87383935e-02f, -6.61515296e-02f, 3.55152562e-02f, 2.63615120e-02f, -1.82151180e-02f, 6.60166219e-02f, 4.79455777e-02f, -1.09543562e-01f, -7.97006954e-03f, -1.74933642e-01f, 1.80443861e-02f, -8.54450166e-02f, 5.15368804e-02f, 1.32561311e-01f, 3.72989550e-02f, -3.05080209e-02f, -5.74949160e-02f, 4.58485857e-02f, -4.53637987e-02f, 2.79130563e-02f, 1.07776091e-01f, -5.45159169e-03f, 1.53810717e-02f, 6.16658032e-02f, -2.27350667e-02f, -4.60934006e-02f, 9.30239186e-02f, 6.19387291e-02f, -3.92727628e-02f, -4.30070870e-02f, -1.54922634e-01f, 6.82497770e-02f, 6.46856949e-02f, -7.56229088e-02f, 1.30322352e-02f, 7.89242312e-02f, 9.27253515e-02f, 5.67233637e-02f, -7.22169280e-02f, 2.51914654e-02f, -4.79842238e-02f, 1.94118768e-02f, 3.79413068e-02f, 5.09467721e-02f, 8.02724622e-04f, -4.18385416e-02f, -2.85894871e-02f, 1.64666530e-02f, 7.80323818e-02f, -1.67365409e-02f, 6.32270426e-02f, 5.24135306e-02f, 1.67683978e-02f, -1.51000144e-02f, 2.75811572e-02f, 9.37585235e-02f, 1.11119607e-02f, -1.92368291e-02f, 1.03399910e-01f, 4.33161110e-02f, -5.56757376e-02f, -1.43235788e-01f, 6.21972643e-02f, 1.19470023e-01f, 4.31101630e-03f, 1.17611969e-02f, 5.51672056e-02f, 5.93918413e-02f, 2.03919131e-02f, -7.47106299e-02f, 6.40323758e-03f, 4.30428311e-02f, 2.01155439e-01f, 1.05157204e-01f, 9.26894546e-02f, 4.41999957e-02f, 8.16132724e-02f, 5.39529100e-02f, -4.31760177e-02f, 7.42675662e-02f, 6.53519034e-02f, -1.08717442e-01f, 3.44789214e-02f, 3.93870249e-02f, 1.15921523e-03f, 1.09032780e-01f, -1.31108128e-02f, -1.02391737e-02f, -2.94635054e-02f, -2.76416484e-02f, -8.38648379e-02f, 1.37063079e-02f, 1.45785240e-02f, 2.08063573e-02f, 9.95948985e-02f, -2.86763161e-02f, 4.12515476e-02f, -3.05196941e-02f, 1.07502714e-02f, -2.16682572e-02f, -2.44498551e-02f, -3.53947729e-02f, -6.64162403e-03f, -1.01386622e-01f, 4.89102416e-02f, 2.96448693e-02f, 8.08712066e-05f, 2.56610122e-02f, 5.83704300e-02f, 5.59028462e-02f, -4.01871167e-02f, -3.76811437e-02f, -5.59958443e-02f, 1.09926730e-01f, 7.57351220e-02f, 1.24719804e-02f, -1.12499585e-02f, 5.17219827e-02f, 9.99952108e-03f, 3.00433692e-02f, 1.59568910e-03f, -1.14077376e-02f, -8.29817168e-03f, -7.23702759e-02f, 6.25149533e-02f, 9.52115133e-02f, -2.83849239e-02f, -1.23659007e-01f, -8.77382699e-03f, 1.82939880e-02f, -9.93342623e-02f, -4.49214987e-02f, 4.75960299e-02f, 4.60634455e-02f, 3.22511350e-03f, -1.12605743e-01f, 1.09085171e-02f, -8.97017345e-02f, -3.35996710e-02f, 4.14733961e-02f, -2.56096218e-02f, 1.07239515e-01f, 3.59118208e-02f, 1.05357831e-02f, 7.44134188e-03f, 1.75631553e-01f, 7.52694532e-03f, 1.90121382e-02f, -9.27175656e-02f, -2.08870228e-02f, 9.60194990e-02f, -7.33713582e-02f, 2.29617488e-02f, 1.60108227e-02f, -5.00492286e-03f, 4.62571494e-02f, 8.96034576e-03f, -9.88402888e-02f, -4.89813425e-02f, -3.82166132e-02f, 7.19155595e-02f, 1.79387076e-04f, 6.85825348e-02f, -2.15285048e-02f, 1.58462659e-01f, -5.93855008e-02f, 1.84694052e-01f, -1.04129985e-01f, 2.01583765e-02f, -1.68670937e-01f, 4.80592996e-02f, 1.17195114e-01f, 2.85158623e-02f, 8.73934999e-02f, -4.75538969e-02f, 8.43493268e-02f, -4.89866361e-02f, 1.68389246e-01f, 2.48890910e-02f, 6.44718707e-02f, 1.97873816e-01f, 2.10628789e-02f, 1.40348762e-01f, -9.88652855e-02f, 8.77839252e-02f, 4.12395671e-02f, 4.74475995e-02f, 3.31677385e-02f, -1.97633486e-02f, -2.79751252e-02f, 1.78464100e-01f, -5.65749630e-02f, 6.09099492e-02f, -5.10388752e-03f, 8.34979042e-02f, -5.87214269e-02f, 4.85425778e-02f, 6.56391010e-02f, -1.19225852e-01f, 1.40663475e-01f, -8.09014812e-02f, -5.68766221e-02f, -1.53104654e-02f, 4.19205353e-02f, 5.74772060e-02f, 6.00340329e-02f, 4.86574993e-02f, -1.06738340e-02f, -3.13406214e-02f, -3.18478085e-02f, 8.86858255e-02f, 1.59694336e-03f, -6.12799227e-02f, 4.96122502e-02f, -1.08686918e-02f, -9.05284006e-03f, 1.24490336e-02f, -2.13806666e-02f, -4.62427586e-02f, 5.25342859e-03f, -6.98420405e-03f, -1.68032676e-01f, 9.63741839e-02f, -1.36011899e-01f, 1.57746390e-01f, 2.79849209e-02f, 6.33321032e-02f, -5.04152589e-02f, 8.81606992e-03f, -6.73685670e-02f, -1.50912985e-01f, -2.68094018e-02f, -3.06892861e-02f, 3.10783118e-01f, -5.78979515e-02f, 1.43343592e-02f, 1.68552157e-02f, 1.28527269e-01f, 3.46519798e-03f, 2.27172971e-02f, -7.30885640e-02f, 5.50163612e-02f, 4.21596766e-02f, 3.53111923e-02f, -2.69607771e-02f, 1.21816106e-01f, 1.05785288e-01f, 1.57424092e-01f, 3.02036479e-02f, -5.57779819e-02f, 9.69258696e-02f, -4.10590246e-02f, -3.05936970e-02f, 2.29030512e-02f, 5.45944870e-02f, 1.38488309e-02f, -6.06030971e-02f, 1.11020980e-02f, 4.26038690e-02f, 5.02283983e-02f, 8.91644731e-02f, -7.57914186e-02f, -6.57278150e-02f, 1.11757904e-01f, 1.16643077e-02f, -4.09826189e-02f, 2.52306415e-03f, -9.79394466e-02f, 3.74331772e-02f, -6.47884533e-02f, -3.23050618e-02f, -1.33931234e-01f, 1.47155467e-02f, 1.16198440e-03f, -1.68914646e-02f, -2.29735356e-02f, -1.35134012e-01f, -8.28273743e-02f, 9.58286896e-02f, 5.80735207e-02f, 4.16868739e-02f, -6.29311725e-02f, 4.10581343e-02f, 8.43553692e-02f, 8.74743909e-02f, 1.45515770e-01f, -4.66905572e-02f, 4.87594679e-02f, 1.52202204e-01f, 2.05794740e-02f, 2.48507354e-02f, -2.92935949e-02f, -7.25499839e-02f, -5.57243824e-04f, -1.06425554e-01f, 1.19912803e-01f, 4.36650356e-03f, -1.92041278e-01f, 4.72648777e-02f, 1.48160383e-03f, 1.00114401e-02f, 1.14470340e-01f, 4.58900109e-02f, -8.55109170e-02f, 6.76498041e-02f, -3.35656367e-02f, -7.31933787e-02f, 9.98402387e-02f, 3.79515290e-02f, 6.53163120e-02f, -4.16115858e-02f, -1.84204727e-02f, 8.61797705e-02f, -2.13185400e-02f, -8.22968930e-02f, 1.79528221e-02f, 1.96454804e-02f, 1.71006858e-01f, -4.59662192e-02f, -1.79522827e-01f, -1.19844563e-01f, 5.92894433e-03f, -5.77423796e-02f, -7.23512098e-02f, -1.29634947e-01f, 4.64285240e-02f, -1.43156230e-01f, -3.80993672e-02f, 1.59068882e-01f, -2.07596198e-01f, 7.26072490e-02f, 7.22647682e-02f, -6.10185564e-02f, -7.12203830e-02f, -7.45398402e-02f, -1.07974879e-01f, 9.30073112e-03f, 1.82259560e-01f, -2.63278019e-02f, -1.02193341e-01f, -1.12589866e-01f, -2.09004581e-02f, -1.73008889e-02f, -1.11939060e-02f, 4.14137580e-02f, 3.34741324e-02f, -1.73708931e-01f, 7.33895078e-02f, -2.72704605e-02f, 5.09214662e-02f, 6.43569827e-02f, -1.25501037e-01f, -4.53112461e-02f, -7.30925892e-03f, 8.04545656e-02f, -3.77015844e-02f, -1.52157217e-01f, 5.39897904e-02f, 1.37046695e-01f, 3.59102637e-02f, 8.73016119e-02f, -5.68690598e-02f, -6.79796264e-02f, 1.81880713e-01f, -2.61817575e-02f, -8.72764811e-02f, 9.86614078e-03f, -1.09239176e-01f, -3.11922245e-02f, 5.05097173e-02f, -3.35161090e-02f, -2.21204117e-01f, -2.29658261e-01f, 2.96785161e-02f, -1.11840677e-03f, -2.37714201e-02f, -3.00420541e-02f, -2.61519495e-02f, -9.11435634e-02f, -3.13297613e-03f, -2.10471787e-02f, 2.18070764e-02f, 1.48396999e-01f, -3.45285267e-01f, 3.20496410e-02f, -4.09623608e-02f, -5.94415069e-02f, -3.94193083e-02f, -2.23947749e-01f, 4.54132333e-02f, -1.75673425e-01f, -3.37295532e-02f, 2.40979083e-02f, 4.16971684e-01f, -5.39258942e-02f, -5.26181832e-02f, 9.47271287e-02f, -1.28458336e-01f, -2.10096277e-02f, -1.07568599e-01f, -8.25178027e-02f, 1.03055827e-01f, 4.87382989e-03f, 4.25960086e-02f, -7.13898093e-02f, -2.14606468e-02f, 4.18079365e-03f, 1.08731547e-02f, -5.09512201e-02f, 3.75565104e-02f, -6.36073351e-02f, 6.73418790e-02f, -4.35685255e-02f, 7.63788223e-02f, 1.13298977e-02f, -7.69875497e-02f, -1.00005507e-01f, -4.77699973e-02f, -4.19240743e-02f, 4.36553806e-02f, -6.38452023e-02f, 6.91465512e-02f, 7.44526461e-02f, 3.78918052e-02f, 1.96647681e-02f, 7.66155198e-02f, -4.39334922e-02f, 1.32923191e-02f, -2.84702349e-02f, 7.00794384e-02f, 6.51715174e-02f, -4.19838876e-02f, -5.55401668e-02f, 2.52163340e-03f, -3.42271514e-02f, 1.31584123e-01f, -8.63185599e-02f, -1.07192043e-02f, -2.18933281e-02f, -1.03349127e-01f, -4.42531817e-02f, -4.96522859e-02f, -6.04345948e-02f, -4.68080156e-02f, -3.33678387e-02f, 1.04360066e-01f, 9.72419698e-03f, -7.80126406e-03f, 2.86937077e-02f, 2.02670041e-02f, -5.90836778e-02f, -3.59686874e-02f, 1.18124291e-01f, -1.06164590e-02f, -1.09404482e-01f, -6.97425976e-02f, -1.12825729e-01f, -5.00505185e-03f, 2.57375482e-02f, -1.47929072e-01f, -4.98605557e-02f, -1.19557396e-01f, -5.81858307e-03f, 5.48703521e-02f, 5.08381985e-02f, 4.02759686e-02f, -4.89800312e-02f, -9.14265439e-02f, 1.84009090e-01f, 2.83646658e-02f, -1.40824616e-02f, -3.49571928e-02f, 5.72658516e-02f, -2.15233564e-02f, -5.78375831e-02f, -3.55960689e-02f, 3.16444375e-02f, 1.05430946e-01f, 8.78149942e-02f, 1.26602128e-01f, 5.00611663e-02f, -3.42125259e-02f, -5.66595979e-02f, 1.79697908e-02f, 5.10276994e-03f, -2.16458850e-02f, -2.59544849e-01f, -2.76753101e-02f, -1.54593191e-03f, -1.43252343e-01f, 1.14459486e-03f, 5.29686473e-02f, 2.35495307e-02f, -2.24063486e-01f, 2.32417807e-02f, -2.27162987e-01f, 6.18706420e-02f, -7.34721720e-02f, -2.98932754e-02f, 1.85075887e-02f, -2.71022707e-01f, 1.84965387e-01f, 2.18502851e-03f, -1.44552261e-01f, -2.92038865e-04f, -4.23729718e-02f, -2.85459608e-01f, 6.84416816e-02f, 3.88592184e-02f, 7.48276561e-02f, -9.59541500e-02f, -2.28222355e-01f, -9.57234278e-02f, -3.08905654e-02f, -3.68708707e-02f, -2.42702048e-02f, -2.98545174e-02f, -6.77035227e-02f, -1.79037806e-02f, 1.15712009e-01f, 2.15030834e-01f, -1.71956837e-01f, 4.57945792e-03f, -4.97119501e-02f, 6.31272942e-02f, -1.76882967e-01f, 2.14089975e-02f, 9.04653817e-02f, 1.32551193e-02f, 6.85455501e-02f, 7.35343024e-02f, -1.01341851e-01f, -4.71210450e-01f, 1.62297487e-01f, -4.56615798e-02f, 8.15787539e-02f, 3.14551964e-02f, -5.52794188e-02f, 7.14947805e-02f, 1.96672920e-02f, -8.05962011e-02f, -7.42805600e-02f, 4.54196520e-02f, -5.28434962e-02f, -2.07352668e-01f, -4.85629998e-02f, 1.51092019e-02f, 6.36406392e-02f, -2.04333831e-02f, -3.15703973e-02f, -4.25636768e-03f, 1.31900162e-02f, 3.62255275e-02f, 6.30794168e-02f, 1.31591386e-03f, -4.28396352e-02f, 7.13428855e-02f, -1.78339511e-01f, -5.94537817e-02f, 4.59968112e-02f, 3.07961330e-02f, 1.15005806e-01f, -5.03222225e-03f, -1.70548081e-01f, -1.39610484e-01f, -2.38351002e-02f, 1.64103247e-02f, 1.30585864e-01f, -7.18409121e-02f, 1.81907620e-02f, 4.33105603e-02f, 2.71664914e-02f, -2.42279973e-02f, 3.98688354e-02f, -4.16555740e-02f, -6.69702841e-03f, 9.02544186e-02f, -1.37628373e-02f, -2.68795211e-02f, 4.43805642e-02f, -1.18377686e-01f, -7.30218142e-02f, 7.73816928e-03f, 3.19226645e-02f, 1.14264153e-01f, -7.53125846e-02f, 8.12092721e-02f, 1.65333167e-01f, 3.52598205e-02f, 1.57392442e-01f, -1.06691495e-02f, -9.14418772e-02f, 7.76675418e-02f, -5.80249019e-02f, 6.76344633e-02f, 7.85112754e-02f, 4.35931720e-02f, 2.02556476e-02f, -4.53446992e-02f, 5.29333465e-02f, -3.13796103e-02f, -4.35147621e-02f, 2.00065654e-02f, -3.03812008e-02f, 6.56764507e-02f, 9.23339054e-02f, -2.31265221e-02f, 3.45427245e-02f, -9.19811502e-02f, 8.00865516e-03f, 6.43325225e-02f, -2.06860621e-02f, -7.16566965e-02f, 7.05362186e-02f, -7.65587613e-02f, 7.89365023e-02f, -2.44512111e-02f, 9.50039327e-02f, -1.83239337e-02f, -4.17043269e-02f, -3.04370709e-02f, 3.73814218e-02f, 3.55708599e-03f, 5.69683649e-02f, 2.54218709e-02f, -3.30107138e-02f, -4.58502583e-02f, 2.77976654e-02f, 1.38385057e-01f, -1.52596030e-02f, 1.18808433e-01f, 1.94092497e-01f, 2.96782982e-02f, 6.44654781e-02f, 1.59043163e-01f, -5.70365153e-02f, -4.21825312e-02f, 5.42552359e-02f, 2.39394307e-01f, -1.43668745e-02f, 1.21203221e-01f, 5.02572954e-02f, 1.68269649e-02f, -7.49925449e-02f, 8.80955383e-02f, -2.74578519e-02f, 1.52934045e-01f, 8.96906033e-02f, 1.44317120e-01f, -7.36532640e-03f, 7.47432038e-02f, -9.31410715e-02f, 6.86888620e-02f, 6.88816011e-02f, 5.31846508e-02f, 2.96302862e-03f, 4.79260311e-02f, 1.96042016e-01f, 8.15504417e-02f, -1.68419685e-02f, 1.85142428e-01f, 7.94813335e-02f, 9.06776637e-02f, -7.77904764e-02f, 8.95366538e-03f, -3.90784331e-02f, 1.71188433e-02f, 6.53219223e-02f, -6.17233440e-02f, 9.03731659e-02f, 1.66786909e-01f, 6.71558753e-02f, 9.78869423e-02f, -3.99140231e-02f, 1.88456569e-02f, 2.72021536e-02f, 5.44273816e-02f, 5.68589792e-02f, 6.93545789e-02f, 1.50199920e-01f, 1.78516909e-01f, -1.17928796e-01f, -1.17053892e-02f, 3.22934538e-02f, 1.47018610e-02f, -1.31741226e-01f, -4.97965924e-02f, 2.49836668e-02f, -6.00722246e-02f, 1.34553790e-01f, 8.16786140e-02f, 1.53782845e-01f, 1.85677439e-01f, 2.14364212e-02f, -4.79443111e-02f, -4.50776927e-02f, 4.35002036e-02f, 2.22631153e-02f, 1.26037188e-02f, 1.69871692e-02f, -4.86395732e-02f, -1.69446897e-02f, 7.42140934e-02f, 1.03807919e-01f, -1.36379581e-02f, 7.12934732e-02f, 4.24589366e-02f, 1.52673693e-02f, 2.83778422e-02f, 7.70622492e-03f, 9.17309429e-04f, 5.77125214e-02f, -5.00424467e-02f, 1.03030585e-01f, -9.36294254e-03f, 9.61771086e-02f, 9.71273403e-04f, 2.27239802e-02f, 8.20128098e-02f, 3.61179821e-02f, -1.42531125e-02f, 7.08408877e-02f, -6.82654977e-02f, 1.44155726e-01f, 7.87486359e-02f, -6.96836933e-02f, -2.62736119e-02f, 7.14585930e-02f, -1.55777158e-02f, 5.28657697e-02f, 3.80178280e-02f, -6.90962672e-02f, 4.17915955e-02f, 3.55812572e-02f, -5.41714439e-03f, -2.81933317e-04f, 3.74913551e-02f, 3.26330215e-02f, 2.74856947e-02f },
  { 2.90475916e-02f, 7.19569698e-02f, 3.38519216e-02f, 7.27036670e-02f, -8.63539800e-02f, -8.33749697e-02f, 3.51297855e-02f, -6.48953617e-02f, -1.09262206e-02f, 7.79806972e-02f, -6.86582476e-02f, 2.61886492e-02f, -5.25882468e-02f, -5.58730364e-02f, 3.88657749e-02f, 6.62944764e-02f, 4.71840147e-03f, 5.78398556e-02f, 4.20228094e-02f, 4.78031747e-02f, -2.53976751e-02f, 5.21171987e-02f, -5.64084575e-02f, -7.28543773e-02f, -6.82739615e-02f, 4.95613366e-02f, -4.62397560e-02f, 2.08744663e-03f, 3.91838290e-02f, -7.19997659e-02f, -1.83662977e-02f, 6.97148666e-02f, -3.36310081e-02f, -8.53899643e-02f, 2.25497112e-02f, -2.34742928e-02f, -9.30272117e-02f, 2.47968286e-02f, 5.95711842e-02f, 5.28032258e-02f, -8.45521130e-03f, -3.59072611e-02f, -5.87721579e-02f, -6.66373596e-02f, -1.99386068e-02f, 2.58873329e-02f, -9.54706743e-02f, -2.28096228e-02f, -1.97064690e-02f, 6.13519698e-02f, -9.16973874e-02f, -8.67328569e-02f, -1.50416931e-02f, -7.38447979e-02f, 7.39235431e-02f, -1.80264469e-03f, 3.85135487e-02f, -1.24924658e-02f, 2.25335583e-02f, -5.49113080e-02f, -6.73550665e-02f, 3.16290632e-02f, 6.34692237e-02f, 2.44347081e-02f, -6.49032742e-02f, -3.87715660e-02f, -6.27727509e-02f, -8.25822949e-02f, 3.99313569e-02f, 5.78626432e-02f, 5.90623245e-02f, 4.12536189e-02f, -9.57832411e-02f, -2.54034307e-02f, -8.40662420e-02f, -3.74248251e-02f, 1.79515257e-02f, 5.00158742e-02f, -4.10427079e-02f, -6.31006062e-02f, 1.36622731e-02f, -9.80950966e-02f, -8.62133782e-03f, -6.32542446e-02f, 2.93200463e-02f, 1.94276124e-02f, 3.32503282e-02f, -8.36411938e-02f, -4.42082062e-02f, -7.27409944e-02f, -4.05043177e-02f, -8.59467685e-02f, -3.17746215e-02f, -5.37499553e-04f, 6.15997333e-03f, 6.71153292e-02f, 7.45729282e-02f, -5.29816411e-02f, -1.64748654e-02f, -6.63189441e-02f, -7.72186965e-02f, -1.79504640e-02f, 2.68185735e-02f, -5.38164154e-02f, -2.60261018e-02f, -8.21618065e-02f, -4.53409590e-02f, 5.33003882e-02f, -1.92400739e-02f, -2.83498168e-02f, -3.62332016e-02f, 6.89285547e-02f, -1.07871871e-02f, -5.82379587e-02f, 5.83218485e-02f, 5.12081534e-02f, -1.30999219e-02f, 1.38795869e-02f, 7.65745435e-03f, 1.30467005e-02f, 4.74463627e-02f, -6.69678450e-02f, -1.44925341e-02f, 3.50968577e-02f, -2.73563489e-02f, 3.24006006e-02f, 3.37485112e-02f, -2.21945271e-02f, -5.50243556e-02f, -3.91185209e-02f, -3.24139409e-02f, -5.04131019e-02f, -3.49394083e-02f, 5.13923448e-03f, -1.43763050e-02f, -6.45706728e-02f, -3.40971723e-02f, 8.46555084e-03f, 1.89794544e-02f, 3.74057516e-02f, -6.46820217e-02f, -6.37821555e-02f, 4.24911231e-02f, -3.54182050e-02f, -5.97258843e-02f, -8.20743442e-02f, -6.87148795e-03f, -2.05280557e-02f, -9.40826610e-02f, -2.38354448e-02f, 6.19052798e-02f, 5.14414087e-02f, 8.70502889e-02f, -3.51799205e-02f, -7.27434754e-02f, 4.36974950e-02f, 1.43719548e-02f, 1.12174253e-03f, -6.25987649e-02f, -7.46891126e-02f, 3.70692015e-02f, -6.83295578e-02f, 3.76835093e-02f, -3.34187932e-02f, -7.25388899e-02f, 1.44630857e-02f, -3.68013233e-03f, -7.59258345e-02f, 5.38694337e-02f, 5.92823625e-02f, -5.65357171e-02f, 4.73553911e-02f, 2.24451888e-02f, 2.05705762e-02f, -7.13534877e-02f, -2.77872104e-02f, -3.58491987e-02f, -8.76191165e-03f, -3.73994410e-02f, 6.07524961e-02f, -5.25487661e-02f, -1.98553000e-02f, -3.48264612e-02f, 4.42137606e-02f, -3.17507423e-02f, -4.19092663e-02f, -4.43798304e-03f, -3.25327814e-02f, -1.36594232e-02f, 2.73702852e-02f, 5.11163771e-02f, 2.45275870e-02f, 7.44822472e-02f, 3.09622902e-02f, -2.62621865e-02f, -1.25752641e-02f, 9.70951468e-03f, 2.77856570e-02f, -4.24950942e-02f, 5.55630289e-02f, 5.87221757e-02f, -3.19888629e-02f, 4.45943214e-02f, 7.60473981e-02f, -1.00882351e-01f, 8.28192607e-02f, -1.01404160e-01f, -6.88701421e-02f, -1.91179868e-02f, 2.33350005e-02f, -2.92182956e-02f, 4.78150472e-02f, -2.62431558e-02f, -3.17744650e-02f, -6.25762194e-02f, -6.67679757e-02f, 7.61459544e-02f, 6.39404496e-03f, 5.53469285e-02f, -8.55015367e-02f, -6.06865622e-02f, -5.00891954e-02f, -2.84220179e-04f, 7.71334395e-02f, 4.10022922e-02f, -3.92740183e-02f, 3.53536755e-03f, -2.33762097e-02f, -8.17341879e-02f, 1.64307002e-02f, 5.08792773e-02f, -1.05273649e-02f, 4.87433411e-02f, -3.16331051e-02f, 2.27972381e-02f, -6.51457906e-02f, 4.70005348e-02f, 6.53923228e-02f, -1.09134549e-02f, -3.04616842e-04f, -8.41412470e-02f, -9.38390642e-02f, -7.48582259e-02f, -8.76357108e-02f, -3.10849138e-02f, -8.50952491e-02f, -2.15703100e-02f, -8.48092884e-02f, -5.04448116e-02f, -2.08094660e-02f, 5.11397794e-02f, -1.28222061e-02f, 1.83039699e-02f, 5.99256605e-02f, -6.06567264e-02f, -6.49316534e-02f, 6.62015155e-02f, 4.38832641e-02f, 3.77904400e-02f, 1.57970507e-02f, 3.09910253e-02f, -9.38596874e-02f, -8.26864094e-02f, -7.80050680e-02f, 2.45055240e-02f, -1.22134909e-02f, -3.72674800e-02f, 2.75668725e-02f, -7.14599043e-02f, 9.67723131e-03f, 1.10440757e-02f, -7.78675601e-02f, -3.21154445e-02f, 4.14553434e-02f, -5.69997728e-02f, 1.34482365e-02f, -2.67447848e-02f, -8.30144733e-02f, -6.65545613e-02f, -5.51548973e-02f, 4.90106493e-02f, -1.79272965e-02f, -3.85116525e-02f, -2.59727463e-02f, 7.73303807e-02f, -2.47927941e-02f, -6.46263063e-02f, -1.76289305e-02f, -8.78341645e-02f, -7.51324296e-02f, -4.40817699e-02f, 5.60928229e-03f, -1.00145102e-01f, 5.46753444e-02f, -2.54900865e-02f, 5.53229190e-02f, -4.95757274e-02f, -4.98980694e-02f, -8.60365778e-02f, -5.43601923e-02f, -5.85817061e-02f, -1.19081885e-03f, 5.74823804e-02f, -4.55542095e-02f, 3.60221532e-03f, 4.53265719e-02f, -6.93696365e-02f, -8.02385900e-03f, 1.82834491e-02f, -7.83437639e-02f, -2.25051176e-02f, -2.89166924e-02f, -3.66233662e-02f, 6.63087144e-02f, 3.10251713e-02f, -5.70197403e-02f, -4.29650806e-02f, -7.96919391e-02f, 4.45886627e-02f, -1.72875896e-02f, -1.72453430e-02f, -5.48584089e-02f, 2.45256796e-02f, -7.93614332e-03f, -2.11492274e-02f, -9.39154252e-03f, 8.19550827e-02f, 6.72825277e-02f, -3.64371389e-02f, 1.20105492e-02f, 6.82753846e-02f, 6.87661394e-02f, -4.78880629e-02f, 3.54254246e-03f, -3.82162035e-02f, 9.69796348e-03f, -1.79894548e-02f, -2.58282740e-02f, 5.31676970e-02f, 3.63521650e-02f, -3.97776999e-02f, 5.96854463e-02f, -3.41197080e-03f, -3.04913558e-02f, 7.31644109e-02f, -3.41409855e-02f, -2.17458922e-02f, 6.12008758e-02f, -6.72728717e-02f, 1.51847992e-02f, 2.97029037e-02f, -8.58489424e-03f, 2.92526595e-02f, -7.51040429e-02f, 6.01771846e-02f, -7.33241364e-02f, -3.85422036e-02f, -2.17552669e-02f, -6.38439283e-02f, 4.56559099e-02f, -5.70616163e-02f, -5.48958369e-02f, -3.90971303e-02f, -3.20161805e-02f, 2.23783348e-02f, -5.10318093e-02f, -1.15381526e-02f, -5.69521682e-03f, -3.10933311e-02f, -3.92361619e-02f, -8.79020169e-02f, 4.72725183e-02f, -8.19427297e-02f, -8.06817040e-02f, 4.32727151e-02f, -4.97739725e-02f, 5.49774021e-02f, -1.32804422e-03f, 3.26828845e-02f, -1.66315064e-02f, -5.51375039e-02f, 1.93789881e-02f, -6.23896997e-03f, 8.23399797e-02f, -7.70624541e-03f, 4.86883484e-02f, 1.02540851e-02f, -8.22461843e-02f, -4.85664867e-02f, -5.96338511e-02f, 2.33990327e-02f, -2.38635316e-02f, 4.25336324e-02f, 2.43865848e-02f, -5.24957813e-02f, 7.11009577e-02f, 3.61512005e-02f, -6.55211657e-02f, -9.80724767e-03f, -6.65502017e-03f, -8.54475945e-02f, -2.90119722e-02f, -3.91152836e-02f, -5.11221364e-02f, -2.40948722e-02f, 1.26502160e-02f, 6.37307391e-02f, -4.70735878e-03f, 6.54305965e-02f, 9.44721699e-03f, 1.62932631e-02f, -3.69710103e-02f, -8.76685455e-02f, -4.07011844e-02f, 5.37456907e-02f, -4.35125455e-02f, -7.94795379e-02f, -3.63390967e-02f, -7.81776309e-02f, 7.06388615e-03f, -5.93652762e-02f, -9.74118263e-02f, -1.42779201e-03f, 9.75873601e-03f, -1.03069082e-01f, -6.60577267e-02f, 2.52303388e-02f, 4.53637019e-02f, 1.04184169e-02f, -7.57689476e-02f, -4.38072346e-02f, 1.72435381e-02f, -7.27941096e-02f, 1.02251545e-02f, -7.17803231e-03f, -5.70405051e-02f, 1.91040840e-02f, -1.98930521e-02f, 4.08675000e-02f, 6.03664331e-02f, -8.08269978e-02f, -7.07058643e-04f, 6.14494570e-02f, 5.81392273e-02f, -1.91864092e-02f, -7.46675506e-02f, -4.56914119e-02f, 6.93366006e-02f, -8.18032846e-02f, 5.71200624e-02f, -6.03113994e-02f, 3.79859880e-02f, -4.75783795e-02f, -4.80227284e-02f, -7.42739290e-02f, -6.57096580e-02f, 2.80687176e-02f, 1.33933201e-02f, 6.25031441e-02f, -6.24676161e-02f, 6.05208464e-02f, 7.78937340e-03f, 6.97643757e-02f, 5.26393056e-02f, 2.83558555e-02f, -4.82517444e-02f, -6.34236494e-03f, -5.79658225e-02f, -4.77018654e-02f, -3.16099562e-02f, 1.40952924e-03f, -9.63074565e-02f, 2.32756846e-02f, -6.24560975e-02f, -4.17493694e-02f, -2.54424289e-03f, 5.33833727e-02f, -3.04661561e-02f, 4.06110696e-02f, -8.31528530e-02f, -7.30462372e-02f, 1.44374678e-02f, -6.84694946e-02f, -7.51401633e-02f, 5.17209284e-02f, 5.56725971e-02f, 7.49410614e-02f, 4.96362969e-02f, 5.75847588e-02f, 3.93374301e-02f, 2.24705562e-02f, -8.17774534e-02f, 4.59675752e-02f, -6.32925853e-02f, -6.35365173e-02f, 2.92664599e-02f, 3.32713500e-02f, 1.91245582e-02f, -4.50858548e-02f, 6.79165050e-02f, -9.05297697e-02f, -1.31341862e-02f, 3.00107617e-02f, -5.07481843e-02f, 3.76560092e-02f, 7.23784938e-02f, -2.73964126e-02f, -6.70062006e-02f, -1.32309729e-02f, -1.57321319e-02f, 9.45671927e-03f, 1.61666870e-02f, -1.99488997e-02f, -3.65507230e-02f, -1.15122572e-02f, -6.33262396e-02f, 4.29663919e-02f, 1.11261150e-02f, -6.23322725e-02f, 2.86232643e-02f, 4.38162945e-02f, 1.58340931e-02f, 1.31863831e-02f, -7.51657486e-02f, -9.16874260e-02f, 3.62138376e-02f, -4.44661677e-02f, -8.45515057e-02f, 5.84329804e-03f, 2.98262574e-03f, 5.36616705e-03f, 4.08270247e-02f, -9.25751701e-02f, 4.51330170e-02f, 3.47837918e-02f, 7.05402344e-02f, -1.64273020e-03f, 2.48315521e-02f, -3.02862693e-02f, -9.21890214e-02f, -3.46922921e-03f, -3.95057164e-02f, 2.42748950e-02f, -4.49327379e-03f, -8.63155499e-02f, 1.35503113e-02f, 8.25790316e-03f, -4.08582278e-02f, 4.65491563e-02f, 6.15620837e-02f, -6.72151074e-02f, 6.90379515e-02f, 3.79303209e-02f, 2.46535949e-02f, -1.71586275e-02f, -1.16075650e-02f, -3.22369747e-02f, 4.58559170e-02f, 6.71557486e-02f, -5.24863452e-02f, 4.50351425e-02f, 3.99316624e-02f, 2.60141715e-02f, 1.42830620e-02f, -3.60602513e-02f, 6.81839809e-02f, 1.15061961e-02f, -9.67682377e-02f, 4.77678142e-02f, -7.64409229e-02f, 1.16902012e-02f, -8.42266455e-02f, 4.43276651e-02f, 5.35790063e-02f, -3.84405106e-02f, -5.50069660e-03f, -8.88123810e-02f, 4.27574664e-02f, -1.22580752e-02f, -8.17976967e-02f, 4.42660972e-02f, -5.29797096e-03f, 1.98511481e-02f, -8.44540820e-02f, -3.86169530e-03f, -7.64716463e-03f, -4.53082509e-02f, -5.71795925e-02f, 8.96607246e-03f, -3.94013338e-02f, -8.03043917e-02f, 5.29545173e-02f, -2.73481272e-02f, -8.87658224e-02f, -6.60873577e-03f, 3.77230532e-02f, -4.41039689e-02f, -3.94598767e-02f, 1.60952024e-02f, 3.28871571e-02f, -2.52686744e-03f, -3.63987833e-02f, 1.55668287e-02f, 1.81353763e-02f, -8.30357522e-02f, 2.56199185e-02f, -9.22646839e-03f, 4.40280512e-02f, -3.32918167e-02f, -6.47483915e-02f, -6.81177378e-02f, -1.67873339e-03f, -6.19156752e-04f, 5.74060306e-02f, 2.36141458e-02f, -2.00264771e-02f, 4.73522730e-02f, -1.13134235e-02f, -3.41981202e-02f, -7.20995069e-02f, -6.21501245e-02f, 3.72960791e-02f, 5.72030358e-02f, -1.28767127e-02f, 6.45108745e-02f, -5.59580810e-02f, -8.01783800e-02f, -8.64693895e-03f, -3.34687568e-02f, -6.91538975e-02f, 5.72746173e-02f, -1.03900954e-02f, 5.83861955e-02f, -2.56634485e-02f, -9.31653306e-02f, -6.06855564e-02f, -6.11097775e-02f, 1.72833875e-02f, -7.87005499e-02f, -6.52596802e-02f, -5.76569792e-03f, 1.23335505e-02f, 3.96935344e-02f, -6.76849559e-02f, -6.56746179e-02f, -9.94262993e-02f, 5.73325157e-03f, -1.94983371e-03f, -4.36177365e-02f, 1.44520029e-02f, -2.75535192e-02f, 4.93429601e-04f, 5.52139021e-02f, 3.61479521e-02f, 4.80975062e-02f, 5.46592362e-02f, 2.46231742e-02f, -7.86345750e-02f, -6.82612211e-02f, 4.14657816e-02f, -1.08147869e-02f, 2.61127520e-02f, 9.25887376e-03f, 3.95433344e-02f, 4.00559865e-02f, -3.84518616e-02f, 3.27646732e-04f, -3.96868698e-02f, 2.74661034e-02f, -1.01943545e-01f, -9.42138862e-03f, 6.03869930e-02f, -8.31662193e-02f, -2.38387529e-02f, -7.60887265e-02f, 2.35082041e-02f, -7.11678267e-02f, -2.25749835e-02f, 2.13912725e-02f, 7.27531239e-02f, -4.36993828e-03f, -5.96855506e-02f, -7.45041594e-02f, 2.33589411e-02f, -9.13612824e-03f, -4.49568033e-02f, -2.25405358e-02f, 5.03905006e-02f, -4.08656970e-02f, -6.85057789e-02f, 1.18290549e-02f, 4.37702872e-02f, -3.75428461e-02f, 6.29342219e-04f, -4.23058756e-02f, 3.96638410e-03f, -2.88872588e-02f, -3.25155817e-02f, 1.61841344e-02f, -1.67395696e-02f, 5.54908738e-02f, -1.79702118e-02f, -1.90752221e-03f, -4.80721220e-02f, -6.35799766e-03f, 7.46118054e-02f, 7.84906968e-02f, -4.02567014e-02f, -8.75132978e-02f, 4.27794568e-02f, 6.16376773e-02f, 1.51262404e-02f, -1.49789955e-02f, -3.50049026e-02f, -6.68037906e-02f, 2.00808048e-02f, 4.71782908e-02f, 1.97010264e-02f, 6.02476858e-02f, -2.21794378e-02f, -2.49489956e-02f, 1.24508981e-02f, 5.01747653e-02f, 2.37565115e-02f, -2.49271952e-02f, 6.24579936e-02f, 3.75401452e-02f, 2.70278528e-02f, 1.08211059e-02f, 4.29399796e-02f, 6.38766065e-02f, -6.38951175e-03f, -7.16397017e-02f, 2.73596104e-02f, -8.81642103e-02f, -6.59992024e-02f, -6.11638976e-03f, 2.22981609e-02f, -1.98116899e-02f, 5.52363470e-02f, -9.45148170e-02f, -4.85263653e-02f, 3.29047665e-02f, -7.71494210e-03f, -1.50563996e-02f, 5.06325513e-02f, 5.91529869e-02f, -6.22304305e-02f, 5.35022207e-02f, 4.21400294e-02f, -8.08771402e-02f, -5.85779063e-02f, -2.84288488e-02f, -7.83738345e-02f, 5.75465076e-02f, -4.68716174e-02f, 1.46636581e-02f, -2.18194313e-02f, 1.63050722e-02f, -7.48252776e-03f, 7.45088384e-02f, 1.10458713e-02f, -3.64373550e-02f, 5.92956021e-02f, -7.33736604e-02f, -7.31522888e-02f, -1.20834280e-02f, -7.29342699e-02f, -4.10265177e-02f, 6.39380887e-02f, -7.86812156e-02f, 5.61666228e-02f, 1.58232800e-03f, 3.50461528e-02f, -6.32373914e-02f, -6.33318499e-02f, 1.54145379e-02f, -2.43764576e-02f, -1.61626972e-02f, 2.06814036e-02f, -8.60565677e-02f, -7.52137154e-02f, -5.02425246e-02f, 9.48985945e-03f, 2.42464766e-02f, 2.76871808e-02f, 2.19606664e-02f, 4.50052246e-02f, 3.62007730e-02f, 5.14831617e-02f, -2.93364413e-02f, -2.38790121e-02f, 4.23870701e-03f, 7.13308677e-02f, -9.80177596e-02f, -6.81110620e-02f, -2.91660409e-02f, 3.79956961e-02f, 1.89423189e-02f, -3.59657034e-02f },
  { -2.30425806e-03f, -1.16670318e-03f, -1.07662585e-02f, 9.86308306e-02f, -5.61476350e-02f, -5.83847128e-02f, -8.61890391e-02f, -5.88454888e-04f, -5.43834716e-02f, 4.65977304e-02f, 1.43839056e-02f, -2.65596062e-03f, 7.11387768e-02f, -4.38002571e-02f, 5.19704744e-02f, -2.64884587e-02f, -8.70456472e-02f, 2.07199212e-02f, -9.56717581e-02f, -6.31201118e-02f, 3.05607002e-02f, 1.81730390e-02f, -2.37300117e-02f, -3.78395021e-02f, -4.99224402e-02f, 4.32194322e-02f, -4.03391942e-03f, 4.62816805e-02f, 2.62087174e-02f, 1.53707474e-01f, 3.24451365e-02f, 7.72122368e-02f, 5.61877340e-02f, -8.55544657e-02f, -3.48180942e-02f, -1.06217712e-01f, -1.50186867e-02f, 2.39195302e-02f, -3.21155965e-01f, 2.79293694e-02f, 1.54740727e-02f, 7.40929507e-04f, -9.78114232e-02f, 3.58587876e-02f, 7.41966069e-02f, 1.99346021e-02f, 5.96620850e-02f, 8.09312686e-02f, -1.49214901e-02f, 4.91477102e-02f, -1.15153957e-02f, 1.68581028e-02f, 7.77643546e-03f, -5.77225648e-02f, 8.96614641e-02f, -1.17854320e-01f, 5.96918464e-02f, 2.05475278e-02f, 2.03992799e-01f, -1.73938870e-02f, 8.16532522e-02f, -2.12505534e-02f, 3.36797126e-02f, 5.41613773e-02f, -4.53296565e-02f, 7.01318905e-02f, -2.06705704e-02f, 2.89974082e-02f, -5.14253937e-02f, -2.90713590e-02f, -2.64279962e-01f, 1.05838235e-02f, -4.76134270e-02f, -1.85237527e-02f, -1.11697607e-01f, 6.95221797e-02f, -2.61556953e-02f, -6.19401000e-02f, 6.70766681e-02f, 8.96907747e-02f, 5.15325740e-02f, -4.59057838e-02f, 6.08965568e-02f, 5.01093343e-02f, -4.66904277e-03f, -2.51869429e-02f, 4.97467332e-02f, -2.66340654e-02f, 1.37000717e-02f, -8.16671271e-03f, 1.40477642e-01f, 8.35334361e-02f, 9.47774723e-02f, -8.65507200e-02f, 4.52269912e-02f, -3.96530852e-02f, -3.96043062e-02f, 2.74299774e-02f, -1.48648005e-02f, 1.25670329e-01f, -1.35995885e-02f, -2.62953583e-02f, 3.73377614e-02f, -3.80548798e-02f, 3.08466181e-02f, 4.87311631e-02f, 2.28784494e-02f, 5.51637262e-03f, 2.55131032e-02f, -6.81661591e-02f, 1.87098496e-02f, 7.46807232e-02f, -5.79783320e-02f, 9.31877121e-02f, -4.58826609e-02f, -2.41999384e-02f, 8.01453590e-02f, -6.53098673e-02f, 1.56358840e-06f, -3.12408805e-02f, -5.44358976e-02f, -8.66585746e-02f, -8.96609295e-03f, -5.51514328e-03f, -1.91709939e-02f, -5.42554110e-02f, 1.46699147e-02f, 1.97207555e-02f, -6.00597374e-02f, -1.26994373e-02f, -2.04905644e-02f, 2.58658882e-02f, 3.90471555e-02f, 5.95484525e-02f, -1.44232720e-01f, 6.28097057e-02f, -3.16240042e-02f, -6.15307055e-02f, -6.60315752e-02f, 5.88558689e-02f, -2.95246020e-02f, 6.00068942e-02f, -1.57308489e-01f, -7.07430914e-02f, 9.10299495e-02f, -2.45892089e-02f, 8.83737728e-02f, 9.78898536e-03f, 1.27674509e-02f, 5.72522208e-02f, 4.92496639e-02f, -7.71005973e-02f, 7.57013932e-02f, 5.47595657e-02f, -6.77506253e-02f, 6.70361295e-02f, -5.04752062e-02f, -7.91438296e-02f, -2.33530048e-02f, -3.49536948e-02f, 6.48392141e-02f, 3.43332328e-02f, -5.83605841e-02f, 1.26950711e-01f, 1.31288156e-01f, 2.87315715e-02f, -1.09135494e-01f, -1.19240293e-02f, -5.08017512e-03f, 4.17583436e-02f, 1.57928228e-01f, 8.81706029e-02f, -1.64266408e-03f, 4.63412032e-02f, 3.14544956e-03f, -3.89754288e-02f, 3.67814489e-02f, 1.54877584e-02f, -2.17922982e-02f, 4.06553484e-02f, -3.51267401e-03f, 6.17779307e-02f, 2.57959426e-03f, -7.86739886e-02f, 7.65456855e-02f, -8.30316767e-02f, 5.74205890e-02f, -6.20071031e-02f, -5.58329336e-02f, -9.85950306e-02f, 6.23899000e-03f, -1.83154475e-02f, -2.38186773e-02f, -2.43016854e-02f, -3.19471769e-02f, -1.97256207e-01f, 1.61143150e-02f, -1.89292300e-02f, 5.63028790e-02f, 7.48219639e-02f, -4.96257991e-02f, 4.08609509e-02f, 5.33850081e-02f, -1.65605322e-02f, -1.62710741e-01f, -4.17721085e-02f, -1.82923451e-02f, -6.22381419e-02f, -7.93682560e-02f, 3.47714648e-02f, 5.81980087e-02f, 4.42809192e-03f, 8.11159424e-03f, -1.69707239e-02f, 7.99299479e-02f, -4.05167677e-02f, 2.49650069e-02f, -7.84453675e-02f, 7.07154348e-02f, 1.18567243e-01f, -9.30495039e-02f, 1.09169008e-02f, 4.07174639e-02f, 3.16218622e-02f, 1.25005632e-03f, 2.29265578e-02f, -5.21528348e-02f, -7.66258966e-03f, 4.49195616e-02f, 1.29975989e-01f, 6.33888766e-02f, -5.84335253e-02f, -6.52899891e-02f, 9.63142142e-02f, -7.19699487e-02f, -1.55458227e-02f, -9.22770649e-02f, 8.24111328e-02f, -1.38152793e-01f, 5.28830327e-02f, -7.12356865e-02f, 7.50662759e-02f, 8.55995119e-02f, 1.64573570e-03f, 9.16527286e-02f, 4.58270460e-02f, 5.74969910e-02f, 6.41114116e-02f, 2.70495806e-02f, 6.33949414e-02f, 7.92453215e-02f, -9.81214941e-02f, -3.02934080e-01f, 2.60965288e-01f, 1.56059405e-02f, 5.63491173e-02f, -5.04508130e-02f, 2.91133318e-02f, 6.55719414e-02f, -1.07504301e-01f, -8.15056823e-03f, -2.68032476e-02f, -1.40995309e-01f, -2.01227553e-02f, 1.42044336e-01f, 4.01604772e-02f, 8.96471813e-02f, 2.94659957e-02f, 4.21863869e-02f, -8.09728354e-02f, 1.02814585e-02f, -3.23173180e-02f, -1.30213350e-01f, 6.76387921e-02f, -6.08271509e-02f, -6.77900091e-02f, 1.07125528e-01f, 6.03029802e-02f, 6.00654483e-02f, 7.21097589e-02f, 8.35587159e-02f, -1.97137333e-02f, -1.42304301e-01f, -1.13322236e-01f, -1.12517275e-01f, -1.67401239e-01f, 6.78686947e-02f, -4.68917303e-02f, 5.12550212e-02f, -6.37719333e-02f, -7.28815198e-02f, 5.49345948e-02f, -1.18911117e-02f, 9.28495750e-02f, -1.41763791e-01f, -5.20531051e-02f, -3.50505114e-02f, -7.28467479e-02f, 4.17472236e-02f, -3.77159715e-02f, 1.68072000e-01f, -5.87487482e-02f, -1.09269144e-02f, -7.54673257e-02f, 1.43056875e-02f, -4.00838861e-03f, 7.61276335e-02f, 4.89681810e-02f, 1.34940252e-01f, -2.73680948e-02f, -6.85820878e-02f, -1.67772487e-01f, 2.39710193e-02f, -8.30360595e-03f, 6.44132569e-02f, 6.28352091e-02f, -2.47251224e-02f, -2.92583197e-01f, -4.16960269e-02f, 7.30255917e-02f, -5.60523458e-02f, 2.88633816e-02f, -2.80449111e-02f, 9.67916995e-02f, 6.18437715e-02f, 3.55108902e-02f, 2.03252703e-01f, 1.99783351e-02f, -6.02141134e-02f, 4.61388417e-02f, 2.21773069e-02f, -7.07624555e-02f, 5.24033569e-02f, -2.77552418e-02f, 1.13631822e-01f, -2.08775159e-02f, 2.71378942e-02f, 1.02331631e-01f, 6.62396029e-02f, -1.19076204e-03f, 7.35733137e-02f, -7.49062523e-02f, -7.17947558e-02f, 9.67349205e-03f, 1.26212537e-02f, 3.69524001e-03f, -1.11727156e-01f, 1.08646832e-01f, -9.35484096e-03f, -6.74973726e-02f, 3.42861116e-02f, 1.76275894e-02f, 3.51130473e-03f, 4.45123427e-02f, -7.06026778e-02f, -1.54381722e-01f, 4.63555939e-02f, 8.76640379e-02f, 5.56830093e-02f, -3.98411378e-02f, -7.62004703e-02f, 4.70855385e-02f, 1.12852285e-04f, 6.33672103e-02f, -1.69580832e-01f, 5.19362763e-02f, 1.55296288e-02f, -6.24159677e-03f, -6.54868335e-02f, -1.87004715e-01f, 3.49545553e-02f, 5.08182943e-02f, 2.18691811e-01f, 8.67520496e-02f, 8.31951275e-02f, -2.93867905e-02f, 1.44031020e-02f, 3.34207304e-02f, 1.38609558e-01f, -7.76853189e-02f, 2.19543148e-02f, 5.34810834e-02f, -8.41604248e-02f, 5.15822247e-02f, 1.96502954e-02f, -1.78702250e-01f, -6.94872141e-02f, 7.70194232e-02f, 1.67777374e-01f, -4.17073779e-02f, 6.60959110e-02f, -5.31637631e-02f, -5.04812598e-02f, 3.51955444e-02f, -3.04467797e-01f, -1.41227245e-02f, 6.77825511e-02f, 4.47453000e-02f, 2.32857198e-01f, 7.37560797e-04f, 6.35247529e-02f, -9.59705785e-02f, 6.12832122e-02f, -2.07776614e-02f, 2.25335360e-01f, -3.65283191e-02f, 7.77229667e-02f, 2.87746787e-01f, -4.76187542e-02f, 1.45556182e-02f, 5.41625023e-02f, 1.85846388e-02f, -2.83832327e-02f, -1.28041849e-01f, -6.53928444e-02f, 5.81425801e-02f, 8.14278498e-02f, -5.26767254e-01f, 7.71905854e-02f, -2.15790421e-01f, 1.43013650e-03f, -1.77309200e-01f, -9.07778665e-02f, 2.30851043e-02f, 2.14826073e-02f, 7.73680303e-03f, 5.96149154e-02f, -4.57597002e-02f, 2.31878273e-02f, 1.08217373e-02f, -8.44179615e-02f, 6.99386075e-02f, -2.69162320e-02f, -1.51049858e-02f, 7.43104666e-02f, 4.02482750e-04f, 5.77709861e-02f, -6.89547136e-02f, 1.51486006e-02f, -6.68105632e-02f, -2.54039560e-02f, -3.10158562e-02f, -3.50149944e-02f, -1.27810389e-01f, 1.53369471e-01f, -7.04244450e-02f, -4.69849594e-02f, -5.66330850e-02f, 4.07424793e-02f, -1.58021599e-01f, 2.33884081e-02f, -2.45450422e-01f, -1.46741822e-01f, -8.79771337e-02f, 4.69804928e-02f, 2.50295941e-02f, 4.23750654e-02f, 6.95937946e-02f, 6.03061467e-02f, -2.90818829e-02f, -7.32776569e-03f, 6.89612702e-02f, 7.56735681e-03f, 4.65045981e-02f, -1.45428956e-01f, -3.19712423e-02f, 1.41040813e-02f, -1.35606065e-01f, -5.83523400e-02f, 4.59813476e-02f, 7.92373195e-02f, 1.34223998e-02f, 2.41670199e-03f, -7.71333501e-02f, 1.60293341e-01f, 7.13085150e-03f, 1.52427897e-01f, -1.68853953e-01f, -1.86228696e-02f, -5.15766665e-02f, 4.28050868e-02f, 1.84515095e-03f, 4.75318283e-02f, -2.24359334e-03f, -3.17393914e-02f, 1.91150475e-02f, -8.23424757e-02f, -3.06563266e-03f, -8.87788925e-03f, 5.68811148e-02f, 5.19634001e-02f, 2.38642469e-02f, 7.90200382e-02f, 7.52666965e-02f, 1.08450823e-01f, -3.63662802e-02f, 9.59959328e-02f, 9.64933112e-02f, -6.09884150e-02f, 5.85826822e-02f, -9.16320831e-03f, -6.65858313e-02f, 2.74712853e-02f, -7.28822947e-02f, 6.77926689e-02f, 1.28291659e-02f, -8.13523084e-02f, 3.56222987e-02f, -3.36427912e-02f, 1.14461362e-01f, 3.31178717e-02f, 4.31346111e-02f, -1.88440047e-02f, 2.48094536e-02f, -6.65846467e-02f, 1.20604105e-01f, -1.71450768e-02f, 1.08379826e-01f, -3.59392762e-02f, -1.21673960e-02f, 6.15885146e-02f, -4.31303009e-02f, 1.74906760e-01f, 7.49279931e-02f, -2.73402613e-02f, -9.12026782e-03f, 2.10203603e-02f, -4.36000675e-02f, -7.61509826e-03f, -5.02448576e-03f, -3.63854058e-02f, 2.72112526e-02f, -8.65766406e-02f, 2.53059324e-02f, 2.86867842e-02f, 7.74914548e-02f, -2.39116568e-02f, -4.34844606e-02f, 2.35963296e-02f, -1.05087072e-01f, 1.28482459e-02f, 8.15229267e-02f, 1.73901226e-02f, -1.31855151e-02f, 3.64310667e-02f, 9.38751623e-02f, 2.98295021e-02f, 2.29911301e-02f, -2.26354916e-02f, -1.02680162e-01f, -1.76626340e-01f, -3.92073244e-02f, -8.01981241e-03f, 6.53816015e-02f, 1.05953045e-01f, 3.00643817e-02f, 1.41025826e-01f, 6.97399154e-02f, 1.87979564e-01f, 2.32739896e-02f, 2.15768442e-01f, 2.72776634e-01f, -5.49233072e-02f, -8.69504660e-02f, 2.13227287e-01f, 4.90861610e-02f, 3.01845670e-02f, 3.20991695e-01f, -3.59049998e-02f, -6.35493994e-02f, -4.48975759e-03f, 7.29493126e-02f, -4.65502292e-02f, 1.03417724e-01f, -2.15673875e-02f, -4.99511585e-02f, -4.71935980e-02f, 6.17799535e-02f, 8.28490406e-02f, -1.38177089e-02f, -2.21346214e-01f, -1.50613695e-01f, 2.15916768e-01f, 8.81084949e-02f, -1.15126453e-01f, 6.21552095e-02f, 2.06544608e-01f, 4.81244996e-02f, 8.57004058e-03f, -4.75984812e-03f, 1.79556042e-01f, 4.66418155e-02f, 1.37428895e-01f, 3.09851170e-01f, -1.98894963e-01f, 6.19794279e-02f, -5.44930696e-02f, -2.08490733e-02f, 1.00067072e-02f, 1.45974517e-01f, -2.78186910e-02f, -1.12067029e-01f, -1.32801607e-01f, 1.33371085e-01f, 1.06213294e-01f, -2.05458677e-03f, 4.71666036e-03f, -4.50592116e-02f, -5.47729991e-03f, -2.70509832e-02f, -5.29185347e-02f, -1.52052402e-01f, -1.39186442e-01f, -1.39802068e-01f, 1.73210159e-01f, 4.89895269e-02f, 9.38324407e-02f, 6.08374923e-02f, 1.97135899e-02f, -9.37753357e-03f, 6.22773543e-02f, -1.01375207e-02f, 5.51323444e-02f, -2.64391303e-02f, -5.53155616e-02f, 1.39352217e-01f, -2.64360067e-02f, 1.41779194e-02f, -1.04555562e-01f, 8.46826006e-03f, -2.88856886e-02f, -8.98357760e-03f, 2.77404729e-02f, -4.61230502e-02f, 1.19031910e-02f, 1.25483483e-01f, -2.69077606e-02f, 1.64191708e-01f, 6.86405301e-02f, 6.63851679e-04f, 7.16411024e-02f, 3.31264287e-02f, 2.70237774e-03f, 1.18514128e-01f, -1.47815794e-02f, 1.98516790e-02f, 2.79658437e-02f, 7.58000556e-03f, 1.39290527e-01f, 3.44919078e-02f, 2.46556122e-02f, -2.07165256e-02f, -1.14508912e-01f, 3.47709432e-02f, 2.89780553e-02f, 8.19942802e-02f, 1.06924986e-02f, 6.54434860e-02f, 1.58011559e-02f, -4.30603698e-02f, -2.51991563e-02f, -4.67214920e-02f, 5.30981272e-02f, -3.42250168e-02f, 2.18517371e-02f, -3.80409993e-02f, 2.39908732e-02f, 8.09206441e-03f, -8.63086805e-02f, 3.82475518e-02f, 1.42248608e-02f, 3.08219418e-02f, 8.09477270e-02f, 6.86246436e-03f, -7.04892278e-02f, 1.36674881e-01f, 1.65596735e-02f, 2.26498651e-03f, 3.43303159e-02f, 6.59013018e-02f, 9.60865244e-02f, -1.58950631e-02f, 1.32164463e-01f, 8.02613124e-02f, -4.80000488e-02f, 4.70472425e-02f, 6.11426830e-02f, -1.44938948e-02f, 8.15881696e-03f, -1.03469394e-01f, -6.17420673e-02f, 4.33342792e-02f, -1.77943055e-02f, 3.40335220e-02f, 3.08874920e-02f, -4.60581593e-02f, -1.91089755e-03f, -5.84933907e-02f, 3.27587985e-02f, -1.14880145e-01f, -9.45632607e-02f, -5.27374782e-02f, -4.40849550e-02f, -5.80972694e-02f, 6.69500139e-03f, 9.02068317e-02f, -7.23142400e-02f, -9.16144848e-02f, -1.35171086e-01f, 5.54081500e-02f, -6.32537454e-02f, -5.81331365e-03f, -1.15836605e-01f, -1.61255784e-02f, 3.23172882e-02f, 1.35801062e-02f, -9.55208242e-02f, -4.79528904e-02f, -6.07804991e-02f, 3.19353193e-02f, -7.60341808e-03f, 1.08935408e-01f, 1.11092273e-02f, 2.73933392e-02f, 1.15509063e-03f, 6.34688511e-03f, -1.32615222e-02f, 7.26936087e-02f, -6.12322092e-02f, -1.47964209e-02f, 2.69602165e-02f, 1.34209646e-02f, 1.00382969e-01f, -1.09868683e-01f, 6.66007623e-02f, -1.89045984e-02f, -3.13447341e-02f, 1.62605140e-02f, 6.40683994e-02f, -1.40139768e-02f, -1.41520336e-01f, -2.17865959e-01f, 3.06231558e-01f, -1.07732313e-02f, 3.88890766e-02f, 7.81659856e-02f, 1.29367352e-01f, 1.46585247e-02f, -6.12788387e-02f, -6.02090769e-02f, -2.67667696e-02f, 3.99198830e-02f, 7.13847056e-02f, 4.54442203e-02f, 8.71144701e-03f, -2.67210938e-02f, 1.39380574e-01f, 2.53909603e-02f, 6.71146512e-02f, 1.00603826e-01f, 5.92765324e-02f, 7.42700463e-03f, 3.61423530e-02f, 1.56481758e-01f, -2.17352156e-02f, 1.08623713e-01f, -9.06538311e-03f, -6.27357736e-02f, -7.14100823e-02f, 7.12655336e-02f, 1.82127953e-02f, -3.73728797e-02f, 4.74224277e-02f, -4.59347442e-02f, 1.30221486e-01f, -6.58211634e-02f, -5.95116802e-02f, 4.97079939e-02f, -6.61095558e-03f, 6.36165515e-02f, 4.60777804e-02f, -2.46471306e-03f, -7.04686418e-02f, -2.55465992e-02f, -2.37751956e-04f, -2.76541617e-02f, 1.44627821e-02f, -2.08529644e-02f, 2.48212982e-02f, -7.12037086e-02f, -2.95255762e-02f, -4.17469107e-02f, -6.25016317e-02f, 2.09074039e-02f, 1.12471968e-01f, 1.46155760e-01f, -1.27152562e-01f, -5.85207306e-02f, -5.65951318e-02f, 3.92434113e-02f },
